! ! 0.0775352
! ' 0.0000776
! -Politik 0.0400000
! -ah 0.2500000
! . 0.0005003
! ... 0.0013429
! 2004 0.0002333
! : 0.0001064
! ? 0.0009922
! Abzockerei 0.2000000
! Ah 0.0909091
! Besseres 0.0058824
! Blödmann 0.5000000
! Bravoruf 0.1666667
! Cavour 0.3333333
! Cresson 0.0048544
! Einspruch 0.0027624
! Ellenbogen 0.1111111
! Englischen 0.0078740
! Europa 0.0000219
! Folterflüge 0.0769231
! Fünftage-Mittwoch 0.2500000
! Geschlechterdiskriminierung 0.0588235
! Gesichtsfeld 0.2500000
! González 0.0026954
! Herausforderung 0.0003300
! Kindheit 0.0084746
! Klempnern 0.1666667
! Kollegin 0.0002999
! Krebsgeschwüre 0.1250000
! Lügner 0.1052632
! Macht 0.0003036
! Mißbrauch 0.0019685
! Morden 0.0090090
! NULL 0.0000241
! Nachtleben 0.0833333
! Nein 0.0005442
! Nokia 0.0384615
! Ordnung 0.0008133
! Parlaments 0.0000255
! Politiker 0.0004216
! Preis 0.0004250
! Quote 0.0028329
! Rat 0.0000223
! Rates 0.0000515
! Rhone 0.1111111
! Rinderwahn 0.0101010
! Sache 0.0001502
! Schadstoffe 0.0072727
! Schluss 0.0003690
! Schrei 0.0833333
! Selbstverständliches 0.0303030
! Sie 0.0000928
! Siegern 0.0500000
! Spaß 0.0074627
! Staatsflagge 0.5000000
! Stapellauf 0.2500000
! Steak 0.0769231
! Stunden 0.0006083
! Suppe 0.0322581
! Tuch 0.0555556
! Vermisstenanzeige 0.0555556
! Vorwärts 0.0526316
! Wollens 0.2500000
! Yahoo 0.0909091
! Zugabe-Rufe 0.2000000
! Zweigchen 0.5000000
! abspalten 0.1250000
! absurd 0.0015083
! all 0.0001145
! alle 0.0000200
! also 0.0000366
! andauert 0.0058824
! angeblich 0.0010811
! angesagt 0.0045872
! ankommt 0.0016234
! arger 0.3333333
! aufbewahren 0.0833333
! auffordern 0.0003514
! aufpassen 0.0024450
! ausdrücken 0.0023256
! befürworte 0.0005784
! bleibt 0.0001279
! blöd 0.2000000
! bockbeinig 0.3333333
! bravo 0.2000000
! das 0.0000081
! denn 0.0000845
! doch 0.0001208
! drum 0.0294118
! ebenfalls 0.0001006
! ein 0.0000058
! eine 0.0000038
! einfach 0.0001095
! einzuziehen 0.0250000
! elf 0.0016722
! erforderlich 0.0000978
! erschienen 0.0044444
! etwas 0.0000448
! falsch 0.0008587
! gedeckt 0.0041152
! gedeckte 0.0666667
! gedruckt 0.0181818
! gekostet 0.0039216
! gewissenhafter 0.0333333
! geworden 0.0003770
! giftfreies 0.3333333
! glauben 0.0002439
! haben 0.0000200
! hat 0.0000072
! herstellendes 0.5000000
! hierauf 0.0028329
! hinkt 0.0062112
! ich 0.0000057
! immer 0.0000590
! intervenieren 0.0031949
! ist 0.0000028
! ja 0.0001001
! jubeln 0.0322581
! klarkommen 0.0555556
! kommen 0.0000663
! lliure 0.1250000
! lustig 0.0133333
! mag 0.0008100
! mal 0.0007974
! müssen 0.0000107
! müßt 0.0526316
! na 0.0217391
! neuer 0.0002508
! nicht 0.0000065
! nichts 0.0000810
! nie 0.0002570
! nochmals 0.0004044
! offizielle 0.0015748
! oh 0.0588235
! plötzlich 0.0012422
! quod 0.1666667
! rechtsgerichteten 0.0666667
! regiere 0.2500000
! s 0.0037736
! sage 0.0004440
! salta 0.1428571
! schnell 0.0001994
! schrie 0.1250000
! seien 0.0003601
! sein 0.0000936
! so 0.0000222
! solch 0.0008137
! sozialistisch 0.0434783
! stimmt 0.0002352
! stirb 0.0434783
! syrischem 0.2000000
! tranquilidad 1.0000000
! trotzdem 0.0002234
! tun 0.0000449
! und 0.0000031
! unida 0.1666667
! vereintes 0.0116279
! verfolgen 0.0002639
! vormachen 0.0049505
! wie 0.0000067
! wirklich 0.0001199
! you 0.0188679
! zwei 0.0000516
! Überraschung 0.0037175
! übergestülpt 0.0833333
! “ 0.0001163
" ! 0.0000672
" " 0.1183376
" ' 0.0291059
" ( 0.0001803
" ) 0.0000909
" - 0.0000961
" . 0.0000035
" ... 0.0058192
" .Eu 0.2000000
" / 0.0002097
" 11-Rat 0.2000000
" 5-Verfahren 0.3333333
" 512 0.3529412
" : 0.0012459
" ? 0.0006471
" A-Stellen 0.0555556
" Abbau 0.0007220
" Abdriften 0.0185185
" Abfallaufkommens 0.0500000
" Ablaßventil 0.2857143
" Abschottung 0.0149254
" Abstellgleis 0.0465116
" Ad-hoc-Beförderungen 0.3333333
" Africa 0.1111111
" Agent 0.0500000
" Aktionsplänen 0.0074349
" Alena-Klausel 0.5000000
" Alkoholmißbrauch 0.0243902
" Allfinanzunternehmen 0.5000000
" Allmacht 0.0500000
" Alma-Ata 0.2000000
" Amber 0.0454545
" Anführungszeichen 0.0363636
" Angenommenen 0.2857143
" Angesicht 0.0333333
" Anmerkungen 0.0005624
" Anti-Euro-Kampagne 0.1538462
" Anti-Nizza-Kampagne 0.5000000
" Anträgen 0.0025773
" Anzeigers 0.1052632
" Argusaugen 0.0277778
" Armmuskulatur 0.1428571
" Aspekte 0.0007168
" Aspirin-Tabletten 0.5000000
" Assignat 0.1666667
" Asylverfahren 0.0024213
" Atomunfall 0.1333333
" Aufbruchprogramm 0.3333333
" Aufzucht 0.0370370
" Ausdruck 0.0000957
" Ausweichmöglichkeit 0.0666667
" Auswärtsspielen 0.2000000
" B3-2003 0.2500000
" BSE-Kosten 0.2500000
" BSE-Krise 0.0030120
" BSE-Tilgungsprogramms 0.3333333
" BSE-verseuchter 0.6666667
" Basken 0.0119048
" Bauch 0.0434783
" Bauernregel 0.1666667
" Beatles 0.5000000
" Befürworterin 0.0606061
" Begriff 0.0030395
" Begriffs 0.0034364
" Behinderungsgrades 0.1250000
" Beige-Book 0.4000000
" Beinahekatastrophe 0.2500000
" Beinahestillstand 0.2500000
" Beispiel 0.0000789
" Beitrittsfieber 0.0909091
" Bemerkung 0.0002746
" Benutzer- 0.5000000
" Benutzerprinzip 0.2222222
" Berggemeinden 0.1111111
" Beschäftigungsreserven 0.3333333
" Besitzstand 0.0050336
" Besitzstandes 0.0073260
" Bestimmungsort 0.0116279
" Bevölkerung 0.0001200
" Bezeichnung 0.0012531
" Bibel 0.0120482
" Bildungsweg 0.0789474
" Billardkugeln 0.1428571
" Blickfang 0.3333333
" Blockadesituation 0.0909091
" Bourdieu 0.1111111
" Brücke 0.0061538
" Brückenhaushalt 0.1250000
" Budgetkonsolidierung 0.2000000
" Buy 0.0769231
" Bäume 0.0112360
" C5-0267 0.4000000
" CO2-Kennzeichnung 0.2500000
" Camus 0.0500000
" Carmen 0.0312500
" Cie 0.3333333
" Citius 1.0000000
" Claims 0.5000000
" DOCUP 0.2000000
" Datenstraßen 0.2500000
" De-facto-Insolvenzsituationen 0.2857143
" Definition 0.0003883
" Dekalog 0.2000000
" Desgraciado 1.0000000
" Designerdrogen 0.0571429
" Doctors 0.2000000
" Drohmittel 0.4000000
" Durchbruchregelung 0.2000000
" Dyskriminierung 0.3333333
" ECOFIN- 0.2000000
" ECOFIN-Rat 0.0021882
" EU-Dienstleistungsausweis 0.1818182
" EU-Herkunftsangabe 0.2222222
" EU-Partnerstaaten 0.1111111
" EU-domain 0.4000000
" Echelon 0.0068493
" Ecofin-Rat 0.0043668
" Ecofin-Rates 0.0100000
" Ein-China-Politik 0.0277778
" Einhalt 0.0014065
" Einspeiserichtlinie 0.2500000
" Einzelperson 0.0188679
" Eisenbahnsicherheit 0.0303030
" Energiesektor 0.0015773
" Erasmus-Studierenden 0.0666667
" Erbgutpiraterie 0.5000000
" Erbringer 0.0294118
" Erika-1-Paket 0.3333333
" Ernährungszusatzes 0.2500000
" Erziehungsgehaltes 0.1666667
" Essenszeit 0.2000000
" Euro-2002-Informationskampagne 0.3333333
" Euro-Gegner 0.4000000
" Euro-Rat 0.0526316
" Eurocent 0.0357143
" Eurodac 0.0166667
" Europahäuser 0.0434783
" Exequatur 0.2857143
" FIN-NET 0.1111111
" Falschspieler 0.3333333
" Familien 0.0009695
" Fangt 0.1666667
" Fiktionen 0.0833333
" Fischereivereinbarung 0.3333333
" Fischverbot 0.2500000
" Fleischgürtel 0.3333333
" Flickschusterei 0.0540541
" Flächenbeihilfen 0.1739130
" Flüchtlingskonvention 0.0037313
" Formulierung 0.0031230
" Frage 0.0000256
" Freispruches 0.3333333
" Freiwilligkeit 0.0079365
" Freizügigkeitsbegriff 0.2000000
" Friedensklausel 0.0540541
" Friedenszeiten 0.0476190
" Frontschutzbügel 0.0322581
" GAO 0.3333333
" Galbraith 0.0833333
" Galerieinhabern 0.4000000
" Gegenstimme 0.0071942
" Gegner 0.0058824
" Geldgeschenken 0.3333333
" Geldwäsche-Richtlinie 0.0500000
" Germinal 0.3333333
" Gesetzgebung 0.0005785
" Gesetzgebungsrahmen 0.1333333
" Gesundheitsbegriffs 0.5000000
" Gesundheitscheck 0.0117647
" Gleitbooten 0.2000000
" Governance 0.0128617
" Grundfreiheit 0.0158730
" Gängen 0.0344828
" Halsabschneider-Preisen 0.3333333
" Handelshilfen 0.0909091
" Haushalten 0.0037037
" Haushaltsprogrammen 0.1666667
" Herkunftsbezeichnung 0.0116279
" Herstellungsprozesses 0.0588235
" Herzstück 0.0031746
" Hintertür 0.0045662
" Hochschuleinrichtung 0.0500000
" Hushkit-Flugzeuge 0.1000000
" Huxleys 0.0625000
" Hämovigilanz 0.2000000
" IDC 0.5000000
" ISM-Code 0.3333333
" Ihr-Problem 0.2500000
" Ille 0.5000000
" Initiative 0.0001355
" Institutional 0.4000000
" Instrumentariums 0.0224719
" Inversion 0.2500000
" Ja 0.0213144
" Ja-Stimme 0.0188679
" Ja-aber-Europäer 0.5000000
" Jugendbereich 0.0476190
" Junkfood 0.1000000
" Kampagne 0.0074627
" Kann-Formulierung 0.2500000
" Kapazitätsverringerung 0.1428571
" Kinderhand 0.1250000
" Kindes 0.0046154
" Kindesmißhandlung 0.1000000
" Kleidern 0.1111111
" Klimapolitiker 0.2500000
" Koalitionen 0.0270270
" Kohabitation 0.0909091
" Kohlendioxidenergiesteuer 0.1666667
" Kommissar 0.0000431
" Kommissionsstudie 0.0714286
" Kompetenz 0.0023068
" Konfrontation 0.0067797
" Konjunkturfrühling 0.5000000
" Kosovo-Mandela 0.5000000
" Kunst 0.0039526
" Kyoto-Protokolls 0.0017182
" Lamfalussy-Prozesses 0.0666667
" Land 0.0000522
" Landflucht 0.0076336
" Landwirteprivileg 0.1041667
" Landwirteprivilegs 0.0500000
" Lastenteilung 0.0100000
" Leal 0.4000000
" Leichtindustrie 0.1250000
" Leistungsbereitschaft 0.0689655
" Leopard 0.1428571
" Lichtpunkten 0.2000000
" Lingua 0.1818182
" Lippen 0.0322581
" List 0.0270270
" Lockerung 0.0059524
" Lohnpolitiken 0.2000000
" Luftverkehrsindustrie 0.0120482
" Luxustiertransporter 0.0714286
" Lüttich 0.0333333
" Maastricht 0.0010593
" Marches 0.5000000
" Massengeschäfte 0.5000000
" Media-Ausbildung 0.2857143
" Mehrheit 0.0001295
" Mehrheiten 0.0094340
" Mehrzweckschiffes 0.4000000
" Meilensteine 0.0333333
" Meinungen 0.0008842
" Melancholie 0.1250000
" Mercancías 0.2000000
" Michelin-Affäre 0.1333333
" Michelin-Methode 0.4000000
" Millennium-Runde 0.0149254
" Mindestrechten 0.0714286
" Mittelbetriebe 0.0036630
" Mittelbindungen 0.0085837
" Mittelstand 0.0028653
" Mißstand 0.0303030
" Mißstandes 0.3333333
" Mobilitätsprogrammen 0.0952381
" Mobilkommunikationsysteme 1.0000000
" Modewort 0.1666667
" Mogelpackungen 0.2500000
" Motto 0.0159091
" MwSt.-Karrusselbetrug 0.4000000
" NAO 0.5000000
" NULL 0.0002268
" Nach 0.0030395
" Nachlässigkeit 0.0064935
" Nacht 0.0019231
" Nahar 0.3333333
" Nahrungsaufnahme 0.0625000
" Negativliste 0.0185185
" Nein 0.0146939
" Nein-Stimme 0.1000000
" Nein-Stimmen 0.0155039
" Neins 0.0540541
" Neinstimme 0.2857143
" Neuanpflanzungen 0.0256410
" Neunjahresfrist 0.1666667
" News 0.0434783
" Nichtraucherzonen 0.1052632
" Niederländischen 0.0344828
" Nizza 0.0028490
" Non-Profit-Organisationen 0.1428571
" Non-refoulement 0.3333333
" Nullbetrag 0.1666667
" Nullemissionen 0.3076923
" OECD-Methode 0.2000000
" Offshore 0.2000000
" Oppositionspresse 0.2222222
" Opt-in-Lösung 0.1000000
" Opt-out-Regelung 0.0769231
" Opt-out-System 0.1000000
" Organismus 0.0194175
" Paket-Sitzung 0.3333333
" Pandorabüchse 0.1000000
" Papiere 0.0054348
" Patentierbarkeit 0.0043478
" País 0.1176471
" Pilger 0.1176471
" Plakaten 0.0666667
" Polizei-Europa 0.2500000
" Prep 0.5000000
" Prima-Rolo-Gruppe 0.4000000
" Projektionen 0.2000000
" Prospektrichtlinien 0.5000000
" Prozentbetrags 0.5000000
" Prozentpunkten 0.0222222
" Pudding 0.1666667
" Qualitätsnachweis 0.5000000
" Raubzüge 0.2000000
" Raum 0.0002628
" Rechenschaftspflicht 0.0021645
" Regattamodell 0.2500000
" Renten- 0.0175439
" Reparaturklausel 0.0131579
" Richteramt 0.3333333
" Rinderwahnsinns 0.0208333
" Ring- 0.2222222
" Roadrunner 0.3333333
" Romans 0.2222222
" Rückforderung 0.0243902
" SOKRATES 0.0124224
" SOKRATES-Programm 0.0229885
" SOS 0.0625000
" Saisonarbeitnehmer 0.0434783
" Sammlerwert 0.6666667
" Sandwichsituation 0.3333333
" Sarjevo 0.2000000
" Scheine 0.0645161
" Scheinselbständigen 0.0500000
" Schienengüternetz 0.1000000
" Schiffsdatenschreiber 0.0235294
" Schleuser 0.0294118
" Schlüssel 0.0029070
" Schmerzmittel 0.0769231
" Schonfrist 0.0285714
" Schwarzen 0.0107527
" Schwellenstaaten 0.4000000
" Schönfärberei 0.0769231
" Score-Board 0.6666667
" Seeschiffe 0.0769231
" Seetageregelung 0.1111111
" Sekt 0.3000000
" Senderwahleinrichtungen 1.0000000
" Senioren 0.0075188
" Sentenz 0.1250000
" Shampoos 0.1052632
" Sherry 0.0697674
" Sinnbild 0.0689655
" Sklaverei 0.0031546
" Sofortfinanzierung 0.2500000
" Soft-law-Instrumenten 0.4000000
" Soniks 0.2500000
" Sonnenlicht 0.0384615
" Sozialmaßnahmen 0.0153846
" Spam-Mails 0.2222222
" Spionagefall 0.4000000
" Staatsbürgern 0.0144928
" Star 0.0285714
" Stinkefinger 0.2857143
" Strandung 0.1250000
" Strukturreform 0.0081301
" Sturheit 0.0285714
" Ständiger 0.1111111
" Suite 0.3333333
" Superechelon 0.5000000
" Suppen 0.1666667
" Säuberung 0.0115607
" Säuberungsaktionen 0.0454545
" Tale 0.3333333
" Technologiebörsen 0.5000000
" Teil 0.0001074
" Teilabschnitt 0.2000000
" Tempo 0.0010471
" Thunfischrückenstücke 0.2500000
" Titelblatt 0.2000000
" Tod.com 0.3333333
" Treibhauseffekts 0.0095238
" Troianisches 0.5000000
" Trostfrauen 0.0465116
" Turcs 0.5000000
" Twintowers 0.5000000
" Tyden 0.4000000
" UNDP 0.0163934
" Umsetzungslücke 0.1176471
" Umweltblume 0.2500000
" Unbedenklichkeit 0.0265487
" Unglück 0.0044643
" Unionsbürger 0.0007375
" Unionsgegner 0.1111111
" Valentino 0.2500000
" Verabredung 0.0322581
" Verbrauchsgünstigen 0.5000000
" Verbrennungsverhalten 0.2857143
" Vergnügungsviertel 0.1250000
" Verhandlungspartner 0.0056818
" Verpackung 0.0060606
" Verteidigungsgütern 0.0093458
" Vertrag 0.0002117
" Verursacherprinzip 0.0101580
" Verursacherprinzips 0.0253165
" Verweigerung 0.0064103
" Verwässerung 0.0112994
" Veterinärsektor 0.2000000
" Viertelmorgen 0.3333333
" Vogelschutzrichtlinie 0.0240964
" Vorabausstattung 0.0500000
" Vorbereitende 0.4000000
" Vorteile 0.0003571
" WTO-Regelungen 0.0344828
" Waldökosystem 0.2000000
" Waldökosysteme 0.1000000
" Watergate-Affäre 0.2000000
" Wegekosten 0.0434783
" Wegwerfgesellschaft 0.0500000
" Wendung 0.0175439
" Werk 0.0039604
" Wertung 0.0144928
" Wettbewerbes 0.2500000
" Wie 0.0033445
" Window 0.1666667
" Wir-Problem 1.0000000
" Wirtschaftskrieges 0.1176471
" Wohltätigkeitsveranstaltungen 0.5000000
" Wolkensammler 0.5000000
" Wort 0.0001087
" Wortmeldungssystem 0.2857143
" Wölfe 0.0465116
" Ziele 0.0000998
" Zivilisation 0.0016313
" Zollintegration 0.2222222
" Zugabe-Rufe 0.4000000
" Zugeständnisse 0.0020619
" Zukunftsmusik 0.0298507
" Zustands 0.0059172
" Zustimmung 0.0001886
" Zustimmungsvotum 0.0172414
" Zwangsabgabe 0.1818182
" Zwei-Drittel-Welt 0.5000000
" Zweidrittelgesellschaft 0.2000000
" a 0.0011377
" abfeiern 0.5000000
" abrupten 0.0555556
" absolutistische 0.2000000
" abstimmen 0.0003433
" abwartet 0.0357143
" ach 0.0153846
" achtbar 0.0714286
" acquis 0.0360000
" aglay 0.3333333
" allumfassende 0.0138889
" also 0.0000366
" analytisch 0.0434783
" angemeldete 0.0322581
" apply 0.3333333
" aquis 0.1111111
" arms 0.0689655
" atmende 0.4000000
" aufeinander 0.0014265
" aufgehoben 0.0012077
" aufgezwungen 0.0029155
" ausbeutenden 0.2500000
" ausdrückt 0.0133333
" ausführlich 0.0004985
" ausgeschlossen 0.0010770
" ausläuft 0.0064516
" ausschweifende 0.5000000
" aussprachen 0.0344828
" auswechseln 0.2000000
" back 0.0370370
" back-Verfahren 0.3333333
" be 0.0289855
" beantwortet 0.0004798
" beef 0.2000000
" begriffen 0.0036969
" begrüßt 0.0003748
" behindere 0.0769231
" behütet 0.2000000
" bei 0.0000585
" bejahen 0.0606061
" benefits 0.5000000
" beobachtenden 0.0370370
" beseitigen 0.0007138
" besetzte 0.0227273
" bestätigten 0.0094340
" betone 0.0011223
" betreffende 0.0013210
" bewirken 0.0007837
" bezahlen 0.0007289
" bezeichnet 0.0028769
" bezogene 0.0454545
" black 0.0416667
" bottom 0.0952381
" brave 0.1250000
" británica 0.3333333
" brother 0.2142857
" business 0.0135135
" by 0.0131579
" bürgernah 0.0031348
" c 0.0048780
" carte 0.0172414
" chaos 0.2500000
" co-regulation 0.3333333
" constructive 0.2500000
" continue 0.3333333
" continuing 0.3636364
" contra 0.1250000
" d 0.0011976
" dankend 0.0454545
" das 0.0000188
" daß 0.0000343
" definiert 0.0007605
" deklarierten 0.1250000
" delay 0.1428571
" denken 0.0002876
" der 0.0000109
" diskriminierend 0.0062893
" document 0.1666667
" dot.EU 0.4666667
" dot.EU-Adressen 0.5000000
" dot.com-domains 0.4444444
" dot.dot.net 1.0000000
" dot.nl 0.3333333
" dran 0.0054054
" dt 0.3333333
" dumm 0.0051546
" dürfe 0.0043860
" dürft 0.1666667
" e-Europe 0.1428571
" early 0.1111111
" eckigen 0.1428571
" egal 0.0015674
" eingehenderen 0.0344828
" einschneidende 0.0081967
" einzulassen 0.0298507
" empfehle 0.0027726
" endemischen 0.0666667
" englisch 0.0243902
" enthielt 0.0031153
" entledigen 0.0098039
" entstehenden 0.0026042
" equivalent 0.4000000
" ereilen 0.0416667
" erfülle 0.0312500
" ergänzt 0.0022075
" erniedrigender 0.0370370
" ernährte 0.2500000
" euphemistisch 0.0312500
" eurer 0.0833333
" europarl.eu.int 0.5000000
" europäisiert 0.0800000
" eventuellem 0.2000000
" extravagante 1.0000000
" extrem 0.0012563
" failed 0.3333333
" fallenden 0.0063694
" farmer 0.3333333
" fight 0.1000000
" finalidad 0.1666667
" flagranti 0.1111111
" flows 0.5000000
" folgendes 0.0008418
" folgt 0.0002146
" fragen 0.0002385
" front 0.1666667
" future 0.0526316
" fußgängerfreundlichen 0.6666667
" fühlt 0.0025707
" für 0.0000167
" gedumpten 1.0000000
" gefräßigen 0.3333333
" gefällt- 0.1666667
" geführt 0.0001419
" gehe 0.0007236
" gehört 0.0001090
" gekümmert 0.0125000
" gemahnt 0.0294118
" gemeinsame 0.0000918
" gemeinschaftsrechtlichen 0.0222222
" genannte 0.0033937
" genannten 0.0017730
" gereinigt 0.0344828
" gestellt 0.0003975
" gestrichen 0.0010299
" getrieben 0.0027933
" gewarnt 0.0052770
" gewehrt 0.0243902
" gewiss 0.0007358
" gewissenspolizeilichen 0.5000000
" gewußt 0.0067568
" gewährt 0.0004965
" gezahlt 0.0015129
" goals 0.1250000
" haltet 0.0666667
" have 0.0416667
" heikles 0.0057471
" heiligt 0.0392157
" heißen 0.0007855
" heißt 0.0013218
" heranzuwagen 0.2500000
" herauszuhalten 0.0200000
" hervorhebt 0.0088889
" heutige 0.0003123
" hieß 0.0020747
" hineingekommen 0.0714286
" hineinzuschreiben 0.0434783
" his 0.2500000
" historischer 0.0024691
" hohes 0.0009901
" hören 0.0009914
" ihn 0.0001322
" imaginäres 0.6666667
" impuestas 1.0000000
" inhaftieren 0.0263158
" institution 0.1333333
" intelligent 0.0161290
" intelligente 0.0096154
" intensiverer 0.0277778
" interministeriellen 0.1428571
" is 0.0153846
" ja 0.0005505
" judgement 0.5000000
" kleineres 0.0416667
" konstitutionellen 0.0070922
" lawangesprochen 0.3333333
" leftovers 0.1111111
" längerfristige 0.0181818
" made 0.0555556
" mainstreaming 0.0114943
" many 0.5000000
" marquage 0.5000000
" mehrere 0.0002410
" meint 0.0013532
" ministère 1.0000000
" mit 0.0001514
" modifiziert 0.0266667
" modus 0.0384615
" müsse 0.0009372
" müßt 0.1052632
" nach 0.0000742
" narrow 0.2000000
" niemand 0.0002190
" no 0.0312500
" nochmal 0.0042194
" nördlicher 0.0476190
" ob 0.0000455
" oben 0.0006887
" of 0.0008432
" offenen 0.0005903
" offengebliebenen 0.2500000
" one 0.0238095
" opportunity 0.0769231
" organismo 1.0000000
" outs 0.1000000
" p.m.-Vermerk 0.0400000
" parties 0.1111111
" passiert 0.0010411
" peer 0.0833333
" people-Projekte 0.5000000
" piece 1.0000000
" points 0.0500000
" policies 0.2500000
" polierter 0.5000000
" positioning 0.5000000
" positive 0.0002607
" pre 0.3333333
" preauthorized 0.6666667
" pressure 0.0370370
" privatisieren 0.0156250
" procedure 0.1000000
" proportionnelle 0.5000000
" provozierenden 0.0416667
" radioaktiv 0.0227273
" rechtsgerichteten 0.0666667
" regelwidrige 0.1428571
" remake 0.3333333
" renationalisiert 0.0555556
" renew 1.0000000
" rescousse 1.0000000
" responsabilidad 0.2500000
" role 0.1666667
" ruhigen 0.0327869
" sagt 0.0012449
" sagte 0.0002777
" sagten 0.0006196
" sauberen 0.0064103
" scareboard 0.5000000
" schlüssig 0.0265487
" schonend 0.1000000
" schulmeisterliche 0.3333333
" schwachen 0.0028818
" schwarzen 0.0046948
" schwerwiegende 0.0016393
" schönes 0.0089286
" sei 0.0001810
" shame 0.1000000
" should 0.0714286
" show 0.2000000
" si-Abgeordnete 0.5000000
" sign 0.2500000
" signifikant 0.0099010
" sinkt 0.0038760
" sinnentleerter 0.3333333
" size 0.2500000
" smart 0.0625000
" so 0.0001557
" soft 0.0303030
" sogenannte 0.0125786
" sogenanntem 0.1250000
" sogenannten 0.0208955
" sogenannter 0.0108696
" spanische 0.0011050
" spürbarer 0.0250000
" stamp 0.5000000
" statement 0.0454545
" stattdessen 0.0009434
" städtischen 0.0021834
" tatsächlich 0.0003386
" taufen 0.4000000
" the 0.0037453
" themselves 0.5000000
" therefore 0.2000000
" to 0.0127389
" treaties 0.5000000
" tue 0.0020408
" umweltfreundlichste 0.0238095
" un 0.0434783
" unaufbereitet 0.5714286
" unbeachtet 0.0105263
" universales 0.2500000
" unkontrollierten 0.0062500
" unredliche 0.1000000
" unsichtbare 0.0588235
" unsägliche 0.0526316
" unter 0.0000276
" unterminiere 0.1666667
" unterseeischen 0.0714286
" usual 0.0208333
" verführen 0.0416667
" vergemeinschaftet 0.0256410
" verglich 0.0476190
" vergossene 0.2500000
" verkehrsbedingte 0.1333333
" verkörpern 0.0188679
" verlorenen 0.0158730
" verneinen 0.0277778
" versprach 0.0196078
" versüßt 0.1428571
" vertragliche 0.0142857
" verweise 0.0010672
" verwenden 0.0005903
" verwirklichen 0.0007962
" vollbracht 0.0135135
" vorausgesetzt 0.0012804
" vorbeugen 0.0064103
" vorgekehrten 1.0000000
" vorkamen 0.0588235
" vorrangig 0.0013689
" wait 0.3333333
" walls 0.6666667
" war 0.0000266
" warning-Systems 0.5000000
" weiterführender 0.1428571
" weitesten 0.0027548
" weitwandernd 0.5000000
" wettbewerbsschädlichem 0.5000000
" wiederzukäuen 0.1428571
" wirklich 0.0000600
" with 0.0208333
" working-Tisch 0.2500000
" www.interculturaldialogue2008.eu 0.5000000
" yes-Abgeordnete 0.5000000
" ziehenden 0.0277778
" zitiere 0.0017668
" zivilen 0.0015291
" zurückgedrängt 0.0156250
" « 0.4285714
" » 0.6666667
" Übergangsregierung 0.0066225
" Übernahme-Richtlinie 0.1666667
" Überschrift 0.0051020
" Übertragungspflichten 0.0769231
" Übertragungsverpflichtung 0.0769231
" Übertragungsverpflichtungen 0.1333333
" Überwachungssystem 0.0058140
" älterer 0.0037594
" über 0.0000082
" überschriebenen 1.0000000
" übersetzt 0.0030211
" übertölpelt 0.1250000
" “ 0.0027923
" ” 0.0053763
" „ 0.0034029
" … 0.0086580
# Anhänger 0.0022831
# Armutsproblem 0.0588235
# Barcelona-Prozesses 0.0027027
# EWU 0.0040650
# Fachkompetenz 0.0129870
# Filmproduzenten 0.0714286
# Fischereibetrieb 0.2666667
# Fords 0.0769231
# Françis 0.1428571
# Geldemission 0.1250000
# Individuums 0.0126582
# Kommissionsbericht 0.0095694
# Kommissionsberichts 0.0243902
# Kone 0.3333333
# Lalumière 0.0126582
# Lodz 0.2000000
# Markovi 0.2222222
# Mehrwertsteuern 0.0158730
# Milosevi 0.0066667
# Mißbilligung 0.0491803
# Mut 0.0004602
# Mädchennamen 0.1111111
# NULL 0.0000241
# Nassauer 0.0037879
# Nassauers 0.0370370
# PPE-Gruppe 0.0357143
# Perspektiven 0.0011834
# RECHTSVORSCHRIFTEN 1.0000000
# Rechtsgesellschaft 0.0500000
# Reden 0.0011587
# Risikofinanzierung 0.0588235
# Rolle 0.0000639
# Sache 0.0001502
# Sachgebietes 0.1666667
# Secchi 0.0093458
# Südafrikas 0.0088106
# Toronto 0.0303030
# Umweltbüro 0.0769231
# Unionsgrenzen 0.0370370
# Unterstützungen 0.0104167
# Wildtierpassagen 0.1428571
# Zusammenarbeitsbereiche 0.1666667
# abzuschaffen 0.0012658
# admission 0.1111111
# aufzuwerten 0.0138889
# austauschen 0.0042194
# eingehende 0.0032895
# entschuldigt 0.0071942
# erhielt 0.0015083
# gereist 0.0055866
# hochrangigen 0.0027548
# jedermanns 0.0126582
# less 0.1111111
# mister 0.2500000
# nachkommen 0.0010070
# schädigt 0.0117647
# stopfen 0.0172414
# streets 0.2000000
# tut 0.0003378
# unglaubwürdigste 0.1111111
# vorzeigen 0.0454545
# wenn 0.0000108
# zeigt 0.0001660
# zu 0.0000168
# zur 0.0000072
# zurückgewiesen 0.0032573
$ $ 0.4883721
$ 0,87 0.1428571
$ 10-Millionen-Dollar-Umsatz 0.2500000
$ 340 0.0222222
$ 40 0.0004288
$ 410 0.0625000
$ AIDS-Patienten 0.0769231
$ Betrag 0.0007052
$ Dollar 0.0643564
$ Escudos 0.0588235
$ Gesamteinfuhren 0.1000000
$ Haushaltsüberschusses 0.1250000
$ Höhe 0.0032185
$ NULL 0.0000031
$ Reserven 0.0029586
$ Summe 0.0024331
$ US 0.1224490
$ US-Dollar 0.0626703
$ USD 0.0516129
$ Wert 0.0017599
$ Werte 0.0002707
$ Wiederverkaufspreis 0.1428571
$ also 0.0000366
$ angewachsen 0.0263158
$ auf 0.0000037
$ ca. 0.0034642
$ dadurch 0.0001233
$ erachteten 0.0192308
$ etwa 0.0003872
$ für 0.0000056
$ im 0.0000100
$ insgesamt 0.0001055
$ jährlich 0.0003286
$ jährlicher 0.0135135
$ mal 0.0007974
$ mehrere 0.0002410
$ nur 0.0000134
$ pro 0.0011058
$ von 0.0000781
$ übersteigt 0.0044843
% % 0.9466636
% - 0.0000288
% -ige 0.1666667
% . 0.0000049
% 0 0.0047059
% 0,09 0.1428571
% 0,2 0.0487805
% 0,41 0.0384615
% 0,5 0.0239521
% 0,7-Prozent-Ziel 0.3333333
% 0,8 0.0571429
% 1 0.0001511
% 1,0 0.1000000
% 1,07 0.0588235
% 1,18 0.1428571
% 1,27 0.0196078
% 1,7 0.0111111
% 1-prozentiges 1.0000000
% 10-prozentige 0.4000000
% 100-prozentige 0.3846154
% 100-prozentigen 0.3333333
% 100-prozentiger 0.2500000
% 101-prozentige 0.5000000
% 15-prozentige 0.3333333
% 2 0.0001726
% 2,6 0.0377358
% 2,9 0.0606061
% 2-prozentigen 0.5000000
% 20-30 0.0400000
% 20-Prozent-Schwelle 0.3333333
% 20-prozentige 0.3333333
% 20-prozentigen 0.4000000
% 2000-Reformen 0.1250000
% 2005-2007 0.0588235
% 25-Prozent-Regel 0.2000000
% 25-prozentige 0.5000000
% 27 0.0006177
% 3,5 0.0062500
% 3-Prozent-Hürde 0.1666667
% 3-prozentigen 1.0000000
% 30-Prozent-Schwelle 0.3333333
% 300-prozentiger 0.5000000
% 30prozentige 0.5000000
% 35 0.0031414
% 4,8 0.0303030
% 40-Prozent-Grenze 0.2000000
% 40-prozentige 0.5000000
% 5-Prozent-Grenze 0.2500000
% 5-Prozent-Hürde 0.2222222
% 5-Prozent-Sperrklausel 0.2500000
% 50-prozentige 0.5000000
% 50-prozentigen 0.4000000
% 60-prozentige 0.5000000
% 60-prozentigen 0.5000000
% 7,6 0.0625000
% 70prozentigen 0.5000000
% 73,1 0.2500000
% 74 0.0086957
% 8,1 0.1428571
% 80-prozentige 0.3333333
% 80-prozentigen 0.5000000
% 86. 0.0909091
% 90. 0.0666667
% 95-1 0.5000000
% Angela 0.0097087
% Anteil 0.0055622
% Anteils 0.0039526
% Beobachtungstruppen 0.2000000
% Bruderkrieg 0.1111111
% Cent 0.0071429
% Containerfrachten 0.2000000
% Drei-Prozent-Norm 0.2000000
% Dreiprozentschwelle 0.3333333
% Dreiviertel-Mehrheit 0.1000000
% Drittel 0.0008598
% Ein-Prozent-Idee 0.3333333
% Einzelprogramme 0.0625000
% Entschließungsentwurfs 0.0064516
% Erfahrung 0.0004405
% Erhöhung 0.0009172
% Europol-Bediensteten 0.0175439
% Form 0.0001274
% Forschungsetats 0.3333333
% Francs 0.0068027
% Fünf-Prozent-Hürde 0.2000000
% Fünftel 0.0046948
% GVO-Freiheit 0.1666667
% Gepäckstück 0.1250000
% Gewichtsprozent 0.3478261
% Gleichstand 0.2500000
% Grenzwerts 0.0243902
% Grundstücken 0.0714286
% Halbierung 0.0232558
% Haushaltsvorentwurfs 0.0082645
% Hilfszahlungen 0.0322581
% Hochrechnungen 0.0714286
% Hundertprozent 0.3333333
% Hälfte 0.0170849
% Höhe 0.0003219
% Karten 0.0037453
% Kofinanzierung 0.0014409
% Massenprozent 0.4285714
% Masseprozent 0.4000000
% Maßnahmen 0.0000311
% Merkel 0.0039841
% Mindestnutzungsregel 0.3333333
% Mindestreservesätze 0.0666667
% Mio. 0.0018510
% NULL 0.0001042
% Naturschutzgebiete 0.0178571
% Nicht-Mitglied 0.2000000
% Nordirland 0.0006031
% Null-Promille-Grenze 0.1875000
% Null-Promille-Regelung 0.2500000
% Obergrenze 0.0011723
% Promille 0.0512821
% Prozent 0.5294118
% Prozent-Anteil 0.3333333
% Prozent-Granularität 0.3333333
% Prozenthürde 0.2000000
% Prozentpunkte 0.1428571
% Prozentpunkten 0.2222222
% Prozentsatz 0.0020921
% Punkte 0.0001561
% Schuldenerlass 0.0040984
% Sicherheitskontrolle 0.0196078
% Sicherheitsnetzregelung 0.1666667
% Siebtel 0.0909091
% Toleranzwert 0.2000000
% US-Sanktionen 0.0714286
% Unschädlichkeit 0.0238095
% Vergleich 0.0003627
% Viertel 0.0116861
% Volumenproduzent 0.3333333
% Volumenprozent 0.3333333
% Vorgabe 0.0078740
% Vorschläge 0.0000701
% Warten 0.0192308
% Wirtschaftsaustauschs 0.2000000
% Wohngebiet 0.0666667
% abgesichert 0.0053191
% achtprozentige 0.5000000
% achtprozentigen 0.5000000
% aller 0.0003207
% angehoben 0.0039841
% anheben 0.0097087
% ansteigt 0.0073529
% anwesenden 0.0015848
% anzuheben 0.0156863
% attraktiv 0.0035461
% aus 0.0000129
% ausmachen 0.0056338
% ausmacht 0.0019305
% bei 0.0000293
% belaufen 0.0047281
% beläuft 0.0023095
% betragen 0.1022222
% betrug 0.0561404
% beträgt 0.0904472
% beziehungsweise 0.0027100
% bis 0.0029797
% bzw. 0.0005373
% dreißigprozentige 0.5000000
% dritte 0.0005025
% einhundertprozentig 0.3333333
% einhundertprozentige 0.1666667
% einprozentige 0.5000000
% einprozentigen 0.5000000
% energiesparsame 0.2500000
% engagiert 0.0010560
% entfallen 0.0039216
% entlang 0.0045045
% entsprochen 0.0021142
% erfolgversprechender 0.1000000
% erhöhen 0.0003440
% erhöht 0.0032068
% erschien 0.0030395
% etwa 0.0002582
% festgeschrieben 0.0013717
% findet 0.0000688
% fünfprozentige 0.5000000
% fünfprozentigen 0.4000000
% fünfzehnprozentigen 0.5000000
% fünfzigprozentigen 0.5000000
% ganz 0.0000661
% gar 0.0001617
% gemessen 0.0012610
% gesenkt 0.0033727
% gesunken 0.0093633
% globale 0.0006583
% halb 0.0037879
% halbieren 0.0108696
% haushaltsbedingten 0.3333333
% heute 0.0000244
% hundertprozentig 0.1622642
% hundertprozentige 0.2222222
% hundertprozentigen 0.2444444
% hundertprozentiges 0.2222222
% höhere 0.0006266
% ige 0.5032680
% igen 0.3000000
% jährlich 0.0003286
% jünger 0.0104167
% korrekt 0.0009099
% lag 0.0074074
% liegen 0.0042038
% liegt 0.0053327
% mg 0.0072464
% mittleren 0.0005408
% mittlerweile 0.0007930
% namentlichen 0.0052632
% neunzigprozentige 0.5000000
% nominelle 0.0500000
% nur 0.0000402
% nördlichen 0.0021053
% oder 0.0000467
% ohne 0.0000398
% prognostiziert 0.0294118
% prozentige 1.0000000
% prozentigen 1.0000000
% realen 0.0015773
% richteten 0.0181818
% sagen 0.0000370
% scannen 0.1111111
% sind 0.0000134
% stagnierte 0.0833333
% sämtlicher 0.0015649
% tangiert 0.0281690
% um 0.0000193
% und 0.0000041
% uneingeschränktes 0.0303030
% ungestörter 0.3333333
% verschwenderischem 0.3333333
% verzeichnen 0.0007082
% vorgeschlagen 0.0001518
% weil 0.0000346
% wichtig 0.0000453
% win-win 0.1250000
% x-Prozent 0.3333333
% zehnprozentige 0.4285714
% zehnprozentigen 0.4117647
% zehnprozentiger 0.2000000
% zufrieden 0.0006339
% zufriedengestellt 0.0204082
% zugesichert 0.0033670
% zurückgegangen 0.0041152
% zustimme 0.0024213
% zutrifft 0.0020040
% zwanzigprozentigen 0.5000000
% zweiprozentige 0.5000000
% Änderungsvorschlägen 0.0035336
% à 0.0067568
% – 0.0001569
& & 0.3782383
& Armutsproblem 0.0588235
& Barcelona-Prozesses 0.0027027
& Catherine 0.0294118
& DER 0.5000000
& EFT-Tätigkeiten 0.2500000
& EU-PNR 0.2500000
& EWU 0.0040650
& Entwicklungstätigkeiten 0.0625000
& FTE 0.2083333
& FTE-Aktionen 0.3333333
& FTE-Kapazitäten 0.2500000
& FTE-Politik 0.1851852
& FTE-Projekte 0.1666667
& Fachkompetenz 0.0129870
& Filmmarkts 0.1250000
& Filmproduzenten 0.0714286
& Fischereibetrieb 0.2666667
& Fords 0.0769231
& Forschung 0.0047625
& Forschungs-Rahmenprogramm 0.0222222
& Françis 0.1428571
& FuE 0.1239669
& FuE-Anteil 0.2000000
& FuE-Aufwand 0.2500000
& FuE-Aufwands 0.1428571
& FuE-Ausgaben 0.1666667
& FuE-Investitionen 0.1153846
& FuE-Kapazität 0.2000000
& FuE-Mittelbindungen 0.1428571
& FuE-Programms 0.2000000
& FuE-Projekten 0.2500000
& FuE-Tätigkeiten 0.0909091
& FuE-Zwecken 0.1111111
& FuEPolitik 0.2000000
& Geldemission 0.1250000
& Individuums 0.0126582
& Kommissionsbericht 0.0095694
& Kommissionsberichts 0.0243902
& Labs 0.3333333
& Lodz 0.2000000
& Markovi 0.2222222
& Mehrwertsteuern 0.0158730
& Milosevi 0.0066667
& Mißbilligung 0.0327869
& Mädchennamen 0.1111111
& NULL 0.0000270
& Nassauer 0.0037879
& Nassauers 0.0370370
& PPE-Gruppe 0.0357143
& Perspektiven 0.0011834
& Q.b.A. 0.3333333
& Rahmenforschungsprogramm 0.0151515
& Rahmenprogramms 0.0019493
& Rates 0.0001029
& Rechtsgesellschaft 0.0500000
& Reden 0.0011587
& Risikofinanzierung 0.0588235
& Sachgebietes 0.1666667
& Schauspieler 0.0384615
& Schären 0.1000000
& Secchi 0.0093458
& Südafrikas 0.0088106
& TWP 0.2500000
& Tabakpflanzer 1.0000000
& Technologieprogramme 0.1000000
& Toronto 0.0303030
& Umweltausnahmen 1.0000000
& Umweltbüro 0.0769231
& Unionsgrenzen 0.0370370
& Wildtierpassagen 0.1428571
& Zusammenarbeitsbereiche 0.1666667
& admission 0.1111111
& aufgefaßt 0.0156250
& aufzuwerten 0.0138889
& austauschen 0.0042194
& befassen 0.0002621
& berechtigt 0.0012225
& besteht 0.0000907
& bezug 0.0002532
& daher 0.0000323
& der 0.0000020
& eingehende 0.0032895
& entfallen 0.0019608
& entschuldigt 0.0071942
& erhielt 0.0015083
& erwirtschaften 0.0092593
& hinzukommen 0.0037037
& hochrangigen 0.0027548
& in 0.0000017
& jedermanns 0.0126582
& less 0.1111111
& mister 0.2500000
& nachkommen 0.0010070
& safe 0.0909091
& schränkt 0.0099010
& schädigt 0.0117647
& sie 0.0000070
& sind 0.0000134
& stelle 0.0004632
& stopfen 0.0172414
& technologische 0.0032397
& und 0.0000581
& unglaubwürdigste 0.1111111
& vorzeigen 0.0454545
& zugunsten 0.0002557
& zurückgewiesen 0.0032573
' ! 0.0002880
' " 0.5794447
' & 0.0103627
' ' 0.5450171
' ( 0.0018387
' ) 0.0019261
' - 0.0011242
' -Antrag 0.3333333
' -Beschlüssen 0.6666667
' -Bewegungen 0.5000000
' -Dekrete 0.0303030
' -Haushalts 0.2000000
' -Kapazitäten 0.2000000
' -Kriterien 0.3333333
' -Länder 0.2000000
' -Richtlinien 0.1666667
' -Strukturprogramme 0.2000000
' -branche 0.1666667
' -filme 0.2000000
' -forderungen 0.1666667
' -maßnahmen 0.0294118
' -mehr 0.5000000
' -produkte 0.0769231
' -verarbeiter 0.3333333
' -Übereinkommen 0.2500000
' . 0.0000742
' ... 0.0219338
' / 0.0000839
' 1.045 0.3333333
' 11-Rat 0.2000000
' 116-Nummern 0.5000000
' 12-Tage-Regelung 0.0571429
' 1244 0.0163934
' 1284 0.0344828
' 133er 0.1538462
' 15-jährigen 0.0666667
' 15jährigen 0.1250000
' 15mal 0.3333333
' 169-Initiativen 0.5000000
' 18-monatige 0.1428571
' 1910 0.1000000
' 1960er 0.0833333
' 1968 0.0178571
' 2021 0.0869565
' 20er 0.0909091
' 20jährigen 0.0909091
' 20jähriger 0.3333333
' 22jährigen 0.5000000
' 24jährigen 0.1250000
' 25jährigen 0.0909091
' 27a 0.2500000
' 29-Datenschutzgruppe 0.0714286
' 2jährigen 0.1250000
' 3-Liter-Auto 0.1666667
' 30er 0.0800000
' 31er 0.5000000
' 3883 0.6666667
' 4 0.0005306
' 40er 0.1250000
' 473 0.3333333
' 5-Sprachenregelung 0.5000000
' 5-Tage-Mittwoch 0.2500000
' 50-Jährigen 0.0909091
' 512 0.1176471
' 6-Liter-Autos 0.5000000
' 60ern 0.3333333
' 7-6000 0.3333333
' 75-fachen 0.5000000
' 7540,37 0.1666667
' 80-90 0.1111111
' 82 0.0102041
' : 0.0039503
' = 0.0285714
' ? 0.0032785
' A- 0.1111111
' A-30 0.0689655
' A-Pollen 0.3333333
' A-Punkt 0.0869565
' A-Stellen 0.1666667
' A32 0.6666667
' ABM-System 0.1428571
' ACEA 0.1250000
' AKP-Länderstrategien 0.2500000
' AKP-Partner 0.0307692
' AKPLänder 0.0833333
' ALLER 0.3333333
' ALTHEA 0.0303030
' APS 0.0351438
' APS-Plus-Regelung 0.2500000
' ASEAN-Charta 0.2500000
' ASEM-III-Treffen 0.2000000
' ASEM-Partner 0.1000000
' ASEM-Staaten 0.1111111
' Abart 0.3333333
' Abbas-Truppen 0.2000000
' Abendessen 0.0135135
' Abendessens 0.0833333
' Abenteurer 0.1818182
' Aber 0.0927835
' Aberdeen-Angus-Rinds 0.2000000
' Abfalleigenschaft 0.1250000
' Abfalltourismus 0.0416667
' Abfallvermeidung 0.0148148
' Abfallverursacher 0.2500000
' Abfallverwertung 0.0869565
' Abgabensystems 0.2500000
' Abgeordneten 0.0107235
' Abgeordneten-Bar 0.3333333
' Abgeordneten-Cafeteria 0.2857143
' Abgeordneten-Restaurant 0.1666667
' Abgeordnetenassistenten 0.3333333
' Abgeordnetenbar 0.1428571
' Abgeordnetenbüros 0.3076923
' Abgeordnetenentschädigung 0.2058824
' Abgeordnetengehälter 0.2857143
' Abgeordnetenkasse 0.2857143
' Abgeordnetenplätzen 0.2500000
' Abgeordnetenrestaurants 0.3333333
' Abgeordnetenstatus 0.1428571
' Abgeordnetenstatut 0.0913242
' Abgeordnetenstatuts 0.0638298
' Abgeordnetenvergütungen 0.1666667
' Abgeordneter 0.0022212
' Abhöraktivitäten 0.2000000
' Abhörsystem 0.0517241
' Abkürzung 0.0441176
' Ablehnung 0.0060345
' Ablehnungserklärungen 1.0000000
' Abnehmerverbänden 0.2500000
' Abneigung 0.0131579
' Abrufdienste 0.1666667
' Absage 0.0550000
' Abschiebepolitik 0.1111111
' Abschlußprüfern 0.2000000
' Abschnitt 0.0054745
' Abschottungspolitik 0.0588235
' Abstand 0.0033841
' Abstellgleis 0.0697674
' Abstimmungsergebnis 0.0159574
' Abstimmungsverpflichtung 0.2500000
' Abstriche 0.0055249
' Abstufung 0.1025641
' Abtreibungstourismus 0.2857143
' Abwanderungsländer 0.2500000
' Abwarten-und-mal-sehen-Position 0.3333333
' Abwartens 0.3684211
' Abwasserbehandlungwerk 0.2500000
' Abwicklungsstellen 0.2500000
' Abwrackfonds 0.0769231
' Achillesferse 0.2063492
' Achillesverse 0.2500000
' Achseln 0.4000000
' Ackerbauern 0.1538462
' Ad-hoc-Gruppe 0.0133333
' Ad-hoc-Tribunals 0.0833333
' Adam 0.0054348
' Adoption 0.0153846
' Adressbuchfirmen 0.2222222
' Adware 0.5000000
' Aerosol-Klausel 0.5000000
' Afghanistankämpfer 0.3333333
' Afghanistans 0.0187266
' Agentur 0.0066613
' Agenturen 0.0051775
' Agenturgebäude 0.2000000
' Aggressivität 0.0156250
' Agrareinkommen 0.0625000
' Agrarexporte 0.0238095
' Agrargebieten 0.1250000
' Agrarinstanzen 0.1666667
' Agrarpolitiken 0.0400000
' Agrarpreispaket 0.1176471
' Agrarverbände 0.2000000
' Agrifizierung 0.2500000
' Aide-mémoire 0.2500000
' Aidskranken 0.1428571
' Ainardi 0.0109890
' Airbus 0.0212766
' Airlines 0.0175439
' Akademie 0.0394737
' Aktienrisiken 0.3333333
' Aktionismus 0.0281690
' Aktionsbereichen 0.0232558
' Aktionsplans 0.0007813
' Aktionsprogramm 0.0012618
' Aktionsprogrammen 0.0109890
' Aktionsrahmens 0.0645161
' Aktionäre 0.0454545
' Aktionären 0.0156250
' Aktionärs 0.1111111
' Aktionärsrechte 0.1200000
' Aktionärsrechten 0.2000000
' Aktivierung 0.0142857
' Akzeptanz 0.0026144
' Al-Aksa-Intifada 0.6666667
' Al-Aksa-Märtyrerbrigaden 0.2500000
' Al-Qaida 0.0196078
' Al-Qaida-Terroristen 0.1250000
' Alarm 0.0102041
' Alarms 0.3333333
' Alarmübung 0.2500000
' Alavanos 0.0266667
' Albaner 0.0047847
' Alber 0.0166667
' Albinohaut 0.1666667
' Alicante-Regelung 0.3333333
' Alice 0.1666667
' Alkoholeinfuhr 0.0555556
' Alkoholgenuss 0.0869565
' Alkoholpolitik 0.0208333
' Alkopops 0.1333333
' Alleinherrscher 0.0769231
' Allerletzte 0.0909091
' Allerärmsten 0.0689655
' Allgemeinen 0.0006540
' Allgemeininteresses 0.0303030
' Alliance 0.0277778
' Alliierten 0.0400000
' Allmacht 0.0250000
' Alstom-Aktien 0.3333333
' Altenburger 0.2500000
' Altenheimbewohner 0.1428571
' Altenheimes 0.3333333
' Alternativ- 0.2727273
' Altersheim 0.0769231
' Altersheime 0.1111111
' Altersschwelle 1.0000000
' Alterssicherungssystemen 0.1250000
' Altjungfernrede 0.2222222
' Altkommunisten 0.0909091
' Alzheimer 0.0609137
' Amado 0.0526316
' Amber 0.0909091
' American 0.0217391
' Amerika 0.0022059
' Amerikaner 0.0079523
' Amerikas 0.0069444
' Ammenmärchen 0.0833333
' Ammenstaat 0.2500000
' Amortisierung 0.1666667
' Ampelsystem 0.2222222
' Ananasproduzenten 0.1250000
' Anastassopoulos 0.0671141
' Anbieterkartell 0.3333333
' Anbindung 0.0121212
' Andenkens 0.0833333
' Anderen 0.0280374
' Andersson 0.0187793
' Andrejevs 0.0476190
' Andrews 0.0131579
' Aneignung 0.0576923
' Aneinander-vorbei-Reden 0.3333333
' Anerkennung 0.0002002
' Anerkennungakademischer 0.1666667
' Anfangsjahren 0.0833333
' Anführer 0.0123457
' Anführungszeichen 0.0545455
' Angehörigen 0.0154440
' Angehörigen- 0.5000000
' Angelegeheiten 0.2500000
' Angeordneten 0.0769231
' Angestellten 0.0135135
' Anglervertretern 0.3333333
' Anglo-schottischen 0.2500000
' Angolaner 0.0400000
' Angolas 0.0615385
' Angreifer 0.0500000
' Anklagerede 0.2000000
' Ankunftsländer 0.2500000
' Anlagespektrum 0.2000000
' Anlaufphase 0.0322581
' Anlaufstelle 0.0381679
' Anleger 0.0163934
' Anlegerinteressen 0.1666667
' Anmeldeunterlagen 0.2500000
' Anpassungsvorschlägen 0.6666667
' Anprangern 0.0833333
' Anprangerung 0.0689655
' Ansatz 0.0012887
' Ansehen 0.0133111
' Ansehens 0.0250000
' Ansinnen 0.0109890
' Anspielungen 0.0208333
' Ansprechadressen 0.1666667
' Anspruchsberechtigung 0.1250000
' Anteils 0.0039526
' Anti-Drogen-Strategie 0.1000000
' Anti-Dumping-Kodex 0.2500000
' Anti-Euro-Kampagne 0.1538462
' Anti-Rassismus-Konferenz 0.1000000
' Antirassismus-Einheit 0.5000000
' Antirassismusbericht 0.2000000
' Antiterror-Kampagne 0.5000000
' Antrag 0.0004070
' Antrags 0.0053191
' Antragsländer 0.0444444
' Antragsteller 0.0097720
' Antragstellern 0.0109890
' Antragstellers 0.0731707
' Antwort 0.0001077
' Anwalts 0.0322581
' Anwaltsgebühren 0.2000000
' Anwaltskammern 0.1428571
' Anwaltsverbände 0.2500000
' Anwenderrechte 0.2500000
' Anwendungen 0.0029674
' Anwendungszeitraums 0.0714286
' Anwälten 0.0210526
' Anwärterländern 0.4444444
' Anzug 0.0909091
' Aosta-Tals 0.1000000
' Aostatal 0.1379310
' Aostatals 0.1666667
' Aparicio 0.0400000
' Apfelweinproduzenten 0.2500000
' Apotheke 0.0625000
' Apothekerorganisationen 0.3333333
' Apparates 0.2000000
' Appetit 0.0909091
' Aprilscherz 0.1034483
' Arbeiter 0.0327869
' Arbeiter- 0.1052632
' Arbeiteraufstand 0.1000000
' Arbeiterbewegung 0.1818182
' Arbeiterbewegungen 0.2000000
' Arbeitergewerkschaften 0.2500000
' Arbeiterinnen 0.0370370
' Arbeiternehmer 0.0909091
' Arbeiterorganisationen 0.2500000
' Arbeiterparadies 0.2000000
' Arbeiterpartei 0.0925926
' Arbeiterrechte 0.3333333
' Arbeiterrechten 0.1666667
' Arbeitgeber 0.0167224
' Arbeitgeberabgaben 0.2500000
' Arbeitgeberbeiträge 0.2580645
' Arbeitgeberinteressen 0.1052632
' Arbeitgebern 0.0076046
' Arbeitgeberorganisation 0.1666667
' Arbeitgeberorganisationen 0.2048193
' Arbeitgeberpläne 0.2500000
' Arbeitgebers 0.0405405
' Arbeitgeberschaft 0.0666667
' Arbeitgeberseite 0.1500000
' Arbeitgeberverband 0.1142857
' Arbeitgeberverbandes 0.0909091
' Arbeitgeberverbände 0.2500000
' Arbeitgeberverbänden 0.2631579
' Arbeitgebervertreter 0.2222222
' Arbeitnehmer 0.0418462
' Arbeitnehmer- 0.1250000
' Arbeitnehmeranteile 0.3333333
' Arbeitnehmerbeiträge 0.1250000
' Arbeitnehmerbewegung 0.3333333
' Arbeitnehmereinfluss 0.2000000
' Arbeitnehmereinkommen 0.1250000
' Arbeitnehmererrungenschaften 0.3333333
' Arbeitnehmerfamilien 0.3333333
' Arbeitnehmerfreizügigkeit 0.0135135
' Arbeitnehmerinnen 0.0038168
' Arbeitnehmerkreisen 0.5000000
' Arbeitnehmermitbestimmung 0.0370370
' Arbeitnehmern 0.0030266
' Arbeitnehmerorganisationen 0.1777778
' Arbeitnehmerrecht 0.1428571
' Arbeitnehmerrechte 0.1889313
' Arbeitnehmerrechten 0.1153846
' Arbeitnehmers 0.0485437
' Arbeitnehmerseite 0.0555556
' Arbeitnehmersicherheit 0.1428571
' Arbeitnehmerverbände 0.4000000
' Arbeitnehmervertreter 0.2244898
' Arbeitnehmervertretern 0.2285714
' Arbeitnehmervertretungen 0.1904762
' Arbeitsaufsichtsbeamter 0.2500000
' Arbeitsbereiches 0.1111111
' Arbeitsdokument 0.0039683
' Arbeitserfahrung 0.0666667
' Arbeitskräftebedarf 0.0333333
' Arbeitskräften 0.0054201
' Arbeitskämpfen 0.0909091
' Arbeitsleitlinien 0.1666667
' Arbeitslosenzahlen 0.0061350
' Arbeitsorten 0.0540541
' Arbeitsprogramm 0.0023184
' Arbeitsunterlagen 0.0666667
' Arbeitszeit 0.0039422
' Arbeitszeitenregelung 0.2500000
' Arbeitszeitnorm 0.0909091
' Arbeitszimmern 0.2500000
' Arbeitszusammenhang 0.2500000
' Arbeitzeit 0.1333333
' Architekten 0.0217391
' Architekten-Richtlinie 0.1666667
' Architektenrichtlinie 0.2608696
' Architektenvertretungen 0.1666667
' Architektur 0.0092593
' Arge 0.4000000
' Argentiniens 0.0454545
' Argentinisierung 0.6666667
' Arguments 0.0540541
' Argyros 0.0526316
' Armenkasse 0.5000000
' Armutsbeseitigung 0.0666667
' Art. 0.0022321
' Artikel-20-Verhandlungen 0.1666667
' Arzeimittelagentur 0.3333333
' Arzneimitteln 0.0081301
' Arzneimittelverfügbarkeit 0.2000000
' Arztdiplome 0.3333333
' Arztpraxen 0.3333333
' Arztrechnungen 0.2500000
' Aschenputtels 0.3333333
' Asensio 0.0307692
' Asien-Strategie 0.2666667
' Asphaltbeton 0.1666667
' Aspirin 0.0555556
' Assessing 0.4000000
' Assistenten 0.1102941
' Assistentenregelung 0.5000000
' Assistentenstatut 0.1041667
' Assistentenstatuts 0.2222222
' Assistentenvereinigung 0.1333333
' Asylantrags 0.0112994
' Asylbewerberfamilien 0.5000000
' Asylbewerbers 0.0454545
' Asyldumping 0.3333333
' Asylpolitiken 0.0952381
' Asylshoppings 0.4000000
' Asylsuchende 0.0065789
' Asylsuchenden 0.0050000
' Asylvisa 0.1428571
' Asylvorschriften 0.0588235
' Athleten 0.0576923
' Atkins 0.1176471
' Atomaufsichtsbehörden 0.1000000
' Atomfrage 0.0769231
' Atomkraftanlagen 0.0714286
' Atomprogramme 0.0666667
' Atomstreitkräfte 0.1250000
' Atomwaffenprogramm 0.0370370
' Attentaten 0.0161290
' Attwooll 0.0439560
' Aufblähen 0.1818182
' Aufenthaltserlaubnissen 0.0714286
' Aufenthaltserleichterungen 0.3333333
' Aufenthaltstitel 0.0161290
' Aufenthaltstitels 0.0135135
' Auferstehung 0.1428571
' Auffangzentren 0.1428571
' Auffassung 0.0001118
' Auffassungen 0.0011086
' Aufgabenspektrum 0.0526316
' Aufkauf 0.0294118
' Aufkaufs 0.3333333
' Auflage 0.0256410
' Auflösungsklauseln 0.2222222
' Aufnahmekapazität 0.0492958
' Aufnahmepolitik 0.0400000
' Aufnahmezentren 0.0317460
' Aufrufs 0.0344828
' Aufschluß 0.0175439
' Aufsichts- 0.0263158
' Aufsichtspersonen 0.3333333
' Aufsichtsrechts 0.5000000
' Aufsichtssysteme 0.0500000
' Auftragsfolter-Programm 0.2000000
' Auftreten 0.0040161
' Auftretens 0.0123457
' Aufwandsentschädigungen 0.0740741
' Aufwärtsspirale 0.2500000
' Auge 0.0011025
' Auroi 0.0566038
' Aus 0.0137931
' Ausbildungsbemühungen 0.3333333
' Ausbildungsmessen 0.4000000
' Ausbildungssysteme 0.0128205
' Ausbildungszentrum 0.0666667
' Ausdruck 0.0005745
' Auserwählten 0.0714286
' Ausfuhrkredit 0.5000000
' Ausfuhrvolumen 0.2500000
' Ausführungen 0.0002527
' Ausgangsdokument 0.0588235
' Ausgangszustand 0.3333333
' Ausgleichsanspruchs 0.1111111
' Aushöhlung 0.0187500
' Auskommen 0.0357143
' Ausland 0.0009042
' Auslandsverschuldung 0.0217391
' Auslegungs- 0.1666667
' Ausländerschwein 0.4000000
' Ausmustern 0.4000000
' Ausnahmeklausel 0.0384615
' Ausnahmezustands 0.0071942
' Ausrichter 0.2500000
' Ausschaltknopfes 0.5000000
' Ausscheiden 0.0142857
' Ausschlachtens 0.5000000
' Ausschlag 0.0215054
' Ausschreibungsprojekte 0.3333333
' Ausschussarbeit 0.0270270
' Ausschusses 0.0034316
' Ausschußmitgliedern 0.0312500
' Aussetzungsklausel 0.0555556
' Ausverkauf 0.0105263
' Ausweichmöglichkeit 0.0666667
' Ausweis 0.0085470
' Ausweiskarten 0.0416667
' Ausweiskontrollen 0.1428571
' Auswüchsen 0.0222222
' Autisten 0.2500000
' Autobatterien 0.2500000
' Autochthonen 0.2000000
' Autofahrerorganisationen 0.2500000
' Autofahrervertreter 0.3333333
' Autor 0.0126582
' Autorenrechte 0.0625000
' Autorenrechten 0.2000000
' Autorenwerken 0.2500000
' Autors 0.1111111
' Außenbild 0.2500000
' Außendienstes 0.0400000
' Außenhandels 0.0263158
' Außenhandelsdefizits 0.1666667
' Außenminister 0.0040733
' Außenministerium 0.0072464
' Außenministerrat 0.0312500
' Außenministertreffen 0.0285714
' Außenministertreffens 0.0625000
' Außenseiter 0.0869565
' Außenwert 0.0294118
' Averoff 0.1250000
' Averroes 0.0500000
' Averroes-Studientag 0.1250000
' Aviles 0.3000000
' Ayatollah-Regimes 0.3333333
' B-Aktien 0.1052632
' B-Stellen 0.4000000
' B5- 0.3333333
' B5-0171 0.0909091
' B5-322 0.5000000
' BAT 0.0500000
' BBC-Kanäle 0.1666667
' BIP 0.0124031
' BNE-Ausschuss 0.5000000
' BONUS-Projekt 0.2000000
' BRIC-Ländern 0.0666667
' BSE-Krise 0.0180723
' BSE-Problem 0.0232558
' BSP 0.0421687
' Babitzkij 0.0434783
' Babitzkijs 0.3333333
' Babylätzchen 0.3333333
' Babyspielzeug 0.2000000
' Backhonig 0.2500000
' Bade 0.0101010
' Badenden 0.0243902
' Badinter 0.0952381
' Bagatellerklärung 0.4000000
' Bahar 0.5555556
' Bahnreisenden 0.1176471
' Bakers 0.3333333
' Bakopoulos 0.0357143
' Balkan-Krise 0.2000000
' Balkanisierung 0.2307692
' Banana 0.3333333
' Bananenerzeugung 0.0192308
' Bananenpräferenzen 0.4000000
' Bananensektor 0.0303030
' Bang 0.3437500
' Bangladeschs 0.0400000
' Bank 0.0357479
' Bankeinlagen 0.0833333
' Banken 0.0009814
' Banken-Clearing-Vergütungen 0.4000000
' Banken-Systemen 0.3333333
' Banker-Gehältern 0.3333333
' Bankier 0.1250000
' Bankkonten 0.0090909
' Bankkunden 0.1111111
' Bar 0.0277778
' Barak 0.0491803
' Baraks 1.0000000
' Barayagwiza 0.1250000
' Barbara 0.0363636
' Barcelona-Union 0.3333333
' Barette 0.5000000
' Barnier 0.0187110
' Barniers 0.1428571
' Barroso-Milliarde 0.4000000
' Bastos 0.0555556
' Batteriekäfig 0.5000000
' Bauch 0.0434783
' Bauern 0.0055556
' Bauernexistenzen 0.3333333
' Bauernfamilien 0.0400000
' Bauernfront 0.3333333
' Bauernführer 0.2500000
' Bauerngewerkschaften 0.1428571
' Bauernkrieges 0.3333333
' Bauernmärkte 0.2105263
' Bauernmärkten 0.2000000
' Bauernorganisationen 0.1333333
' Bauernproteste 0.3333333
' Bauerntransporte 0.3333333
' Bauernverband 0.2068966
' Bauernverbands 0.3076923
' Bauernverbände 0.1944444
' Bauernverbänden 0.1818182
' Bauernverein 0.3333333
' Bauernvereinigungen 0.3333333
' Bauernvertretern 0.2857143
' Baufirmen 0.0555556
' Baumwollerzeugerorganisationen 0.2500000
' Bayer 0.0500000
' Bayerskandal 0.4000000
' Beamten 0.0077658
' Beamtenbesoldung 0.3333333
' Beamtenbezügen 0.2000000
' Beamtenposten 0.2000000
' Beamtensprache 0.2857143
' Beamtenstatut 0.0072993
' Beamter 0.0120000
' Bedachtnahme 0.4000000
' Bedarf 0.0016112
' Bedarfs 0.0038462
' Bedürfnis 0.0066225
' Bedürfnisse 0.0013342
' Beeinträchtigung 0.0040161
' Befehlen 0.0454545
' Befestigungen 0.1666667
' Befolgungskosten 0.0666667
' Befriedungsprozeß 0.5000000
' Befristungsklausel 0.2000000
' Befund 0.0869565
' Befähigungszeugnisse 0.1250000
' Befähigungszeugnissen 0.0967742
' Beförderungsdistanz 0.1428571
' Beförderungsunternehmen 0.0928571
' Befürworter-Länder 0.2857143
' Begleitmusik 0.1111111
' Begriff 0.0382110
' Begriffe 0.0112360
' Begriffs 0.0240550
' Begrüßt 0.5000000
' Begünstigten 0.0045045
' Behandlungsergebnis 0.2500000
' Behindertenausweis 0.1000000
' Behindertenleistungen 0.1428571
' Behindertenparkausweis 0.1000000
' Behindertenpolitik 0.0277778
' Behindertenverbänden 0.0833333
' Behinderungsgrades 0.1250000
' Beihilfefonds 0.1666667
' Beihilfeprogramm 0.0909091
' Beim 0.1111111
' Bein 0.0322581
' Beinahekatastrophe 0.2500000
' Beinahestillstand 0.2500000
' Beispielen 0.0068259
' Beitrags 0.0222772
' Beitragskapazität 0.1428571
' Beitragszahlung 0.1538462
' Beitragszahlungen 0.0246914
' Beitritt 0.0042658
' Beitritten 0.0192308
' Beitrittsanträgen 0.0588235
' Beitrittsberechtigung 0.2000000
' Beitrittsbestrebungen 0.0588235
' Beitrittsfieber 0.0909091
' Beitrittskandidatenländer 0.0238095
' Beitrittsprozess 0.0037594
' Beitrittsstaaten 0.0055556
' Beitrittsszenario 0.1428571
' Beitrittswillen 0.1666667
' Beitrittswunsch 0.0909091
' Beiträgen 0.0077071
' Beiwort 0.6666667
' Beißringen 0.1111111
' Bekanntschaft 0.0588235
' Belangen 0.0118343
' Belder 0.0052356
' Belders 0.1111111
' Belgiens 0.0327869
' Beliebigen 0.1428571
' Benavides 0.1428571
' Benchmarking 0.0160428
' Bene 0.0243902
' Benutzer 0.0046948
' Benutzerleitfadens 0.3333333
' Benvenuto 0.5000000
' Beobachterkorps 0.3333333
' Beobachtungsstelle 0.0144033
' Beobachtungssystems 0.0833333
' Beraterbericht 0.2000000
' Beraterberichten 0.3333333
' Beratergremiums 0.2000000
' Beraterhonorare 0.3333333
' Beratungsprotokolle 0.2500000
' Berechtigungsgrund 0.5000000
' Bergarbeiter 0.1000000
' Bergarbeiterstreiks 0.2000000
' Bergbaugesellschaften 0.2500000
' Bergbausektors 0.1666667
' Berger 0.0086207
' Bergleute 0.0714286
' Bericht 0.0000921
' Berichterstatterin 0.0097191
' Berichterstatters 0.0357724
' Berichts 0.0067306
' Berlusconi 0.0280612
' Bernard 0.0107527
' Bertens 0.0273973
' Bertha 0.1000000
' Berthu 0.0099010
' Bertrugsbekämpfungsbericht 0.1250000
' Berufsgruppe 0.0111111
' Berufsjuden 1.0000000
' Berufsorganisationen 0.0129870
' Berufspiloten 0.1666667
' Berufspraxis 0.1666667
' Berufsverband 0.1000000
' Berès 0.0170940
' Besatzungsmitglieder 0.0140845
' Beschaffungsmärkten 0.1176471
' Beschlussvorschriften 0.2500000
' Beschneidung 0.0281690
' Beschwerdeführenden 0.5000000
' Beschwörungen 0.0800000
' Beschäftigten 0.0174459
' Beschäftigter 0.0400000
' Beschäftigungsaspekts 0.3333333
' Beschäftigungsbericht 0.0128205
' Beschäftigungsförderungspartnerschaften 0.5000000
' Beschäftigungsnachfrage 1.0000000
' Beschäftigungspakt 0.0194175
' Beschäftigungspolitiken 0.0268817
' Beschäftigungsprojekte 0.2500000
' Beschäftigungsverträge 0.0769231
' Beschäftigungszeichens 0.5000000
' Beschäftigungsziel 0.1142857
' Besitzstand 0.0318792
' Besitzstandes 0.0366300
' Besitzstands 0.0074906
' Besondere 0.0144928
' Bestanden 0.5000000
' Bestechungsaktivitäten 0.1250000
' Bestimmungslandes 0.0357143
' Bestrebens 0.0256410
' Bestrebungen 0.0013755
' Bestätigung 0.0048000
' Bestätigungsvermerk 0.0357143
' Besuchergalerie 0.1428571
' Besuchergruppe 0.0819672
' Besuchergruppen 0.0190476
' Besucherprogramme 0.3333333
' Besucherrängen 0.3333333
' Besucherservice 0.3333333
' Besuchertribüne 0.0772727
' Besucherzentrum 0.2000000
' Besucherzentrums 0.1666667
' Besucherzimmer 0.3333333
' Besuchsprogrammen 0.1666667
' Betreiber- 0.2500000
' Betreiberprüfstellen 0.2000000
' Betreibers 0.0270270
' Betriebe 0.0006878
' Betriebes 0.0263158
' Betriebskapital 0.0833333
' Betriebsprämie 0.0270270
' Betriebsräten 0.0169492
' Betriebssystemen 0.1000000
' Betroffenenverbände 0.3333333
' Betrügern 0.0731707
' Better 0.0909091
' Bevölkerungen 0.0034483
' Bevölkerungszentren 0.1000000
' Bewerbung 0.0389610
' Bewerbungsverfahren 0.0416667
' Bewertungsagenturen 0.2500000
' Bewirtschaftungskosten 0.1666667
' Bewältigung 0.0008347
' Bewässerungsverbände 0.2500000
' Beysen 0.0277778
' Bezeichnung 0.0150376
' Bezüge 0.0064516
' Bezügen 0.0344828
' Bienenfleiß 0.2500000
' Bienenkönigin 0.2500000
' Bienenzüchterverbände 0.2500000
' Bier 0.0112994
' Bilanz 0.0014514
' Bildungsabschlüsse 0.1818182
' Billardkugeln 0.1428571
' Billigkonkurrenz 0.0714286
