ad ||| af ||| 0.3 0.3 0.3 0.3 0.5 0.5 0.5 0.5 2.718 ||| 0-0 ||| 1000 1000 ||| sparse_feature 1
bd ||| bf ||| 0.3 0.3 0.3 0.3 0.5 0.5 0.5 0.5 2.718 ||| 0-0 ||| 10 10 |||
der gipfel ||| sommet ||| 0.3 0.3 0.3 0.3 0.00327135 0.00872768 0.0366795 0.611403 2.718 ||| 1-0 ||| 5808 518
der pass ||| le col ||| 0.3 0.3 0.3 0.3 0.0173565 0.0284616 0.288889 0.121619 2.718 ||| 0-0 1-1 ||| 749 45
pass ||| col ||| 0.3 0.3 0.3 0.3 0.1952 0.143937 0.628866 0.681301 2.718 ||| 0-0 ||| 1875 582
pass ||| passeport retrouvé ||| 0.3 0.3 0.3 0.3 0.5 0.25 0.00171821 3.813e-07 2.718 ||| 0-0 ||| 2 582
pass ||| passeport ||| 0.3 0.3 0.3 0.3 0.266667 0.25 0.00687285 0.0113821 2.718 ||| 0-0 ||| 15 582
sitzung ||| séance ||| 0.3 0.3 0.3 0.3 0.272727 0.237288 0.352941 0.424242 2.718 ||| 0-0 ||| 22 17