Atlántico ||| Atlantic , ||| 0.230769 0.550633 0.0384615 0.187069 2.718 ||| 0-0 ||| 13 78
Atlántico ||| Atlantic stock ||| 1 0.550633 0.025641 0.000178396 2.718 ||| 0-0 ||| 2 78
Atlántico ||| Atlantic ||| 0.541985 0.550633 0.910256 0.91579 2.718 ||| 0-0 ||| 131 78
Atlántico ||| NATO ||| 0.000915751 0.0005244 0.0128205 0.0105263 2.718 ||| 0-0 ||| 1092 78
Atlántico ||| transatlantic ||| 0.00787402 0.008 0.0128205 0.0105263 2.718 ||| 0-0 ||| 127 78
a los políticos en ||| in ||| 1.24163e-05 7.39754e-08 0.5 0.487465 2.718 ||| 3-0 ||| 80539 2
a los políticos en ||| politicians in ||| 0.05 0.00767624 0.5 0.0908939 2.718 ||| 1-0 2-0 3-1 ||| 20 2
a los políticos ||| &apos;s politicians ||| 0.0285714 0.0058376 0.027027 0.00365157 2.718 ||| 1-0 1-1 2-1 ||| 35 37
a los políticos ||| for politicians to ||| 0.166667 0.0137256 0.027027 0.00036391 2.718 ||| 0-0 1-1 2-1 ||| 6 37
a los políticos ||| for politicians ||| 0.0769231 0.0137256 0.0540541 0.00441155 2.718 ||| 0-0 1-1 2-1 ||| 26 37
a los políticos ||| for the politicians ||| 1 0.00506156 0.027027 0.00266997 2.718 ||| 0-0 1-1 2-2 ||| 1 37
a los políticos ||| for their politicians ||| 0.5 0.000652637 0.027027 2.15139e-05 2.718 ||| 0-0 1-1 2-2 ||| 2 37
a los políticos ||| of politicians ||| 0.0689655 0.00384452 0.0540541 0.00402211 2.718 ||| 0-0 1-1 2-1 ||| 29 37
a los políticos ||| of the politicians ||| 0.5 0.00141774 0.027027 0.00243427 2.718 ||| 0-0 1-1 2-2 ||| 2 37
a los políticos ||| on politicians ||| 0.2 0.0225254 0.027027 0.0047922 2.718 ||| 0-0 1-1 2-1 ||| 5 37
a los políticos ||| politicians as ||| 0.333333 0.00677512 0.027027 0.00173382 2.718 ||| 1-0 2-0 0-1 ||| 3 37
a los políticos ||| politicians on ||| 0.5 0.0225254 0.027027 0.0047922 2.718 ||| 1-0 2-0 0-1 ||| 2 37
a los políticos ||| politicians to ||| 0.0357143 0.0632992 0.027027 0.0610335 2.718 ||| 1-0 2-0 0-1 ||| 28 37
a los políticos ||| politicians ||| 0.0192525 0.0106925 0.459459 0.186463 2.718 ||| 1-0 2-0 ||| 883 37
a los políticos ||| the politicians ||| 0.0714286 0.00394308 0.027027 0.112851 2.718 ||| 1-0 2-1 ||| 14 37
a los políticos ||| to politicians ||| 0.428571 0.0632992 0.162162 0.0610335 2.718 ||| 0-0 1-1 2-1 ||| 14 37
a los ||| $ ||| 0.0027637 0.000765675 0.00204988 0.00085275 2.718 ||| 0-0 1-0 ||| 2171 2927
a los ||| &apos; interest as well ||| 1 0.00345513 0.000341647 1.71405e-10 2.718 ||| 1-0 1-1 0-2 ||| 1 2927
a los ||| &apos; interest as ||| 1 0.00345513 0.000341647 9.88494e-08 2.718 ||| 1-0 1-1 0-2 ||| 1 2927
a los ||| &apos; ||| 0.00554187 0.0083965 0.00307482 0.0101129 2.718 ||| 1-0 ||| 1624 2927
a los ||| &apos;s agricultural ||| 0.1 0.000402481 0.000341647 4.54737e-07 2.718 ||| 1-1 ||| 10 2927
a los ||| &apos;s existing stock ||| 0.166667 0.00279873 0.000341647 7.67819e-10 2.718 ||| 1-1 ||| 6 2927
a los ||| &apos;s existing ||| 0.0625 0.00279873 0.000341647 3.94158e-06 2.718 ||| 1-1 ||| 16 2927
a los ||| &apos;s killers out ||| 0.333333 0.00166277 0.000341647 5.64617e-10 2.718 ||| 1-0 ||| 3 2927
a los ||| &apos;s killers ||| 0.333333 0.00166277 0.000341647 1.27292e-07 2.718 ||| 1-0 ||| 3 2927
a los ||| &apos;s ||| 0.000480238 0.00166277 0.00341647 0.0195834 2.718 ||| 1-0 ||| 20823 2927
a los ||| &quot; feminine &quot; traits ||| 0.5 0.00381237 0.000341647 6.30634e-15 2.718 ||| 1-3 ||| 2 2927
a los ||| &quot; from the &quot; ||| 0.333333 0.00596208 0.000341647 6.27588e-08 2.718 ||| 0-1 1-2 ||| 3 2927
a los ||| &quot; from the ||| 0.05 0.00596208 0.000341647 1.25666e-05 2.718 ||| 0-1 1-2 ||| 20 2927
a los ||| &quot; traits ||| 0.25 0.00381237 0.000341647 1.9427e-07 2.718 ||| 1-1 ||| 4 2927
a los ||| , bring the ||| 1 0.00504198 0.000341647 1.99682e-05 2.718 ||| 0-1 1-2 ||| 1 2927
a los ||| , challenge the ||| 0.5 0.00667213 0.000341647 7.73408e-06 2.718 ||| 1-2 ||| 2 2927
a los ||| , in ||| 0.000327439 0.00150143 0.000341647 0.00802187 2.718 ||| 0-1 ||| 3054 2927
a los ||| , likely to ||| 0.25 0.00929893 0.000341647 3.21341e-05 2.718 ||| 0-2 ||| 4 2927
a los ||| , the ||| 6.26096e-05 0.00667213 0.000341647 0.0626749 2.718 ||| 1-1 ||| 15972 2927
a los ||| , to $ ||| 0.166667 0.00887652 0.000341647 6.11725e-05 2.718 ||| 0-1 1-2 ||| 6 2927
a los ||| , whereas the ||| 0.0185185 0.00667213 0.000341647 1.62955e-06 2.718 ||| 1-2 ||| 54 2927
a los ||| -- and embolden ||| 0.5 0.0184882 0.000341647 3.48645e-09 2.718 ||| 0-2 ||| 2 2927
a los ||| . depositors ||| 0.5 0.00137341 0.000341647 2.71276e-07 2.718 ||| 0-1 ||| 2 2927
a los ||| China &apos;s ||| 0.001002 1.05658e-05 0.000341647 4.62168e-07 2.718 ||| 0-0 1-1 ||| 998 2927
a los ||| Fulani cattle ||| 1 0.0384615 0.000341647 1.1446e-10 2.718 ||| 0-0 1-1 ||| 1 2927
a los ||| Germany &apos;s ||| 0.0070922 3.95698e-05 0.000341647 4.62168e-07 2.718 ||| 0-0 1-1 ||| 141 2927
a los ||| Greek ||| 0.00245098 0.0014718 0.000341647 0.0001168 2.718 ||| 1-0 ||| 408 2927
a los ||| Ireland &apos;s ||| 0.0833333 0.000105966 0.000341647 2.31084e-07 2.718 ||| 0-0 1-1 ||| 12 2927
a los ||| a major backer of ||| 0.5 0.000508819 0.000341647 3.18428e-12 2.718 ||| 1-1 0-3 ||| 2 2927
a los ||| a rule of law that protects the ||| 1 0.0425378 0.000341647 1.73179e-17 2.718 ||| 0-5 1-6 ||| 1 2927
a los ||| a vested ||| 0.125 0.00699682 0.000341647 5.08935e-06 2.718 ||| 1-1 ||| 8 2927
a los ||| a year to the ||| 1 0.0394986 0.000341647 1.91561e-06 2.718 ||| 0-2 1-3 ||| 1 2927
a los ||| a ||| 1.52532e-05 3.31232e-05 0.000341647 0.000767 2.718 ||| 0-0 ||| 65560 2927
a los ||| against panels ||| 0.25 0.00142116 0.000341647 3.4515e-08 2.718 ||| 0-0 ||| 4 2927
a los ||| against the ||| 0.00137174 0.00603658 0.000341647 0.000543077 2.718 ||| 0-0 1-1 ||| 729 2927
a los ||| against ||| 0.000539374 0.00142116 0.000683294 0.00177 2.718 ||| 0-0 ||| 3708 2927
a los ||| ago , the ||| 0.0666667 0.00667213 0.000341647 3.37818e-05 2.718 ||| 1-2 ||| 15 2927
a los ||| agricultural ||| 0.00269542 0.000402481 0.000341647 2.92e-05 2.718 ||| 1-0 ||| 371 2927
a los ||| air time to the ||| 1 0.0394986 0.000341647 4.88396e-09 2.718 ||| 0-2 1-3 ||| 1 2927
a los ||| all for the ||| 0.5 0.00856473 0.000341647 1.881e-05 2.718 ||| 0-1 1-2 ||| 2 2927
a los ||| all the ||| 0.00120048 0.00667213 0.000341647 0.00079504 2.718 ||| 1-1 ||| 833 2927
a los ||| all to the ||| 0.2 0.0394986 0.000341647 0.000260235 2.718 ||| 0-1 1-2 ||| 5 2927
a los ||| all ||| 0.000239149 0.00122535 0.000683294 0.0021219 2.718 ||| 1-0 ||| 8363 2927
a los ||| along behind the ||| 0.5 0.00667213 0.000341647 1.35855e-08 2.718 ||| 1-2 ||| 2 2927
a los ||| along the lines ||| 0.037037 0.0218985 0.000341647 5.64438e-08 2.718 ||| 0-0 1-1 ||| 27 2927
a los ||| along the ||| 0.00900901 0.0218985 0.000341647 0.000362051 2.718 ||| 0-0 1-1 ||| 111 2927
a los ||| also the ||| 0.00826446 0.00667213 0.000341647 0.000278963 2.718 ||| 1-1 ||| 121 2927
a los ||| amount of air time to the ||| 1 0.0394986 0.000341647 4.02698e-14 2.718 ||| 0-4 1-5 ||| 1 2927
a los ||| and embolden ||| 0.333333 0.0184882 0.000341647 6.936e-07 2.718 ||| 0-1 ||| 3 2927
a los ||| and into the ||| 0.0909091 0.0257883 0.000341647 2.88516e-05 2.718 ||| 0-1 1-2 ||| 11 2927
a los ||| and their four ||| 1 7.37348e-06 0.000341647 6.81601e-11 2.718 ||| 0-0 1-1 ||| 1 2927
a los ||| and their ||| 0.00181159 7.37348e-06 0.000341647 1.05023e-06 2.718 ||| 0-0 1-1 ||| 552 2927
a los ||| animal abuse ||| 0.0625 0.00667164 0.000341647 6.643e-09 2.718 ||| 1-0 ||| 16 2927
a los ||| animal ||| 0.00813008 0.00667164 0.000341647 0.0002044 2.718 ||| 1-0 ||| 123 2927
a los ||| anointed ||| 0.1 0.00792351 0.000341647 3.54e-05 2.718 ||| 0-0 ||| 10 2927
a los ||| appeal to ||| 0.0217391 0.00929893 0.000341647 1.27656e-05 2.718 ||| 0-1 ||| 46 2927
a los ||| are the questions of the Israeli Arabs ||| 1 0.00239897 0.000341647 2.78064e-19 2.718 ||| 0-3 1-4 ||| 1 2927
a los ||| are the questions of the Israeli ||| 1 0.00239897 0.000341647 1.42597e-14 2.718 ||| 0-3 1-4 ||| 1 2927
a los ||| are the questions of the ||| 1 0.00239897 0.000341647 2.19718e-10 2.718 ||| 0-3 1-4 ||| 1 2927
a los ||| are to ||| 0.00719424 0.00929893 0.000341647 0.00242334 2.718 ||| 0-1 ||| 139 2927
a los ||| around ||| 0.000568505 0.00163011 0.000341647 0.001121 2.718 ||| 0-0 ||| 1759 2927
a los ||| as &quot; ||| 0.00331126 0.000995295 0.000341647 4.64376e-05 2.718 ||| 0-0 ||| 302 2927
a los ||| as early as ||| 0.0666667 0.000953017 0.000341647 2.75497e-08 2.718 ||| 0-0 1-1 ||| 15 2927
a los ||| as early ||| 0.0833333 0.000953017 0.000341647 3.25819e-06 2.718 ||| 0-0 1-1 ||| 12 2927
a los ||| as for the ||| 0.0192308 0.00856473 0.000341647 6.13801e-05 2.718 ||| 0-1 1-2 ||| 52 2927
a los ||| as the ||| 0.0014437 0.00422766 0.00102494 0.00285299 2.718 ||| 0-0 1-1 ||| 2078 2927
a los ||| as those ||| 0.0192308 0.00607381 0.000341647 7.12274e-05 2.718 ||| 0-0 1-1 ||| 52 2927
a los ||| as we engage with the ||| 0.25 0.00482447 0.000341647 5.58702e-12 2.718 ||| 0-3 1-4 ||| 4 2927
a los ||| as ||| 0.000141004 0.000995295 0.00102494 0.0092985 2.718 ||| 0-0 ||| 21276 2927
a los ||| assets and ||| 0.025 0.000554155 0.000341647 7.35586e-07 2.718 ||| 1-0 ||| 40 2927
a los ||| assets ||| 0.00102881 0.000554155 0.000341647 8.76e-05 2.718 ||| 1-0 ||| 972 2927
a los ||| at a ||| 0.00122249 0.00637439 0.000341647 0.00102829 2.718 ||| 0-0 ||| 818 2927
a los ||| at age ||| 0.5 0.00554184 0.000341647 3.48369e-06 2.718 ||| 0-0 1-1 ||| 2 2927
a los ||| at all ||| 0.00420168 0.00497261 0.000341647 5.42336e-05 2.718 ||| 0-0 1-1 ||| 238 2927
a los ||| at helping ||| 0.2 0.000574068 0.000341647 3.04344e-05 2.718 ||| 0-0 0-1 1-1 ||| 5 2927
a los ||| at the end ||| 0.00552486 0.0270762 0.000341647 3.71793e-06 2.718 ||| 0-0 1-1 ||| 181 2927
a los ||| at the rate of ||| 0.125 0.0270762 0.000341647 6.60376e-08 2.718 ||| 0-0 1-1 ||| 8 2927
a los ||| at the rate ||| 0.111111 0.0270762 0.000341647 2.44438e-06 2.718 ||| 0-0 1-1 ||| 9 2927
a los ||| at the same time taking care ||| 1 0.0270762 0.000341647 2.46839e-16 2.718 ||| 0-0 1-1 ||| 1 2927
a los ||| at the same time taking ||| 1 0.0270762 0.000341647 1.46145e-12 2.718 ||| 0-0 1-1 ||| 1 2927
a los ||| at the same time ||| 0.00227273 0.0270762 0.000341647 3.00031e-09 2.718 ||| 0-0 1-1 ||| 440 2927
a los ||| at the same ||| 0.00223714 0.0270762 0.000341647 3.2082e-06 2.718 ||| 0-0 1-1 ||| 447 2927
a los ||| at the ||| 0.00731552 0.0270762 0.00785787 0.00784209 2.718 ||| 0-0 1-1 ||| 3144 2927
a los ||| at those ||| 0.1 0.0388999 0.000341647 0.000195784 2.718 ||| 0-0 1-1 ||| 10 2927
a los ||| at ||| 0.00176367 0.00637439 0.00614964 0.025559 2.718 ||| 0-0 ||| 10206 2927
a los ||| away from the ||| 0.0555556 0.00596208 0.000683294 2.32052e-06 2.718 ||| 0-1 1-2 ||| 36 2927
a los ||| away ||| 0.00840336 0.00174586 0.000683294 0.0004956 2.718 ||| 0-0 ||| 238 2927
a los ||| back the ||| 0.105263 0.00979944 0.000683294 0.000401877 2.718 ||| 0-0 1-1 ||| 19 2927
a los ||| back to the ||| 0.0322581 0.0394986 0.000683294 0.000139578 2.718 ||| 0-1 1-2 ||| 62 2927
a los ||| be run in the ||| 1 0.00637753 0.000341647 5.24179e-08 2.718 ||| 0-2 1-3 ||| 1 2927
a los ||| because of the ||| 0.00632911 0.00171088 0.000341647 2.49909e-06 2.718 ||| 0-0 0-1 1-2 ||| 158 2927
a los ||| become linked to the ||| 0.333333 0.0394986 0.000341647 3.08629e-09 2.718 ||| 0-2 1-3 ||| 3 2927
a los ||| before the ||| 0.00224215 0.000465709 0.000341647 2.17231e-05 2.718 ||| 0-0 1-1 ||| 446 2927
a los ||| behind the ||| 0.0111732 0.0100463 0.000683294 0.00020999 2.718 ||| 0-0 1-1 ||| 179 2927
a los ||| beneficiaries , ||| 0.5 0.0106746 0.000341647 2.78421e-05 2.718 ||| 1-0 ||| 2 2927
a los ||| beneficiaries ||| 0.02 0.0106746 0.000341647 0.0001363 2.718 ||| 1-0 ||| 50 2927
a los ||| benefit the ||| 0.05 0.018812 0.000341647 0.000336708 2.718 ||| 0-0 1-1 ||| 20 2927
a los ||| billion to $ ||| 0.125 0.00887652 0.000341647 2.72216e-08 2.718 ||| 0-1 1-2 ||| 8 2927
a los ||| blamed both ||| 1 0.0139641 0.000341647 9.29623e-07 2.718 ||| 0-0 1-1 ||| 1 2927
a los ||| both the ||| 0.00420168 0.00401933 0.000341647 0.00035481 2.718 ||| 0-0 1-1 ||| 238 2927
a los ||| both ||| 0.000660066 0.00274027 0.000683294 0.0020732 2.718 ||| 1-0 ||| 3030 2927
a los ||| branching downstream into retailing ||| 1 0.0294702 0.000341647 2.30413e-17 2.718 ||| 1-1 0-2 ||| 1 2927
a los ||| branching downstream into ||| 1 0.0294702 0.000341647 3.54482e-12 2.718 ||| 1-1 0-2 ||| 1 2927
a los ||| bring the ||| 0.0444444 0.00504198 0.000683294 9.77538e-05 2.718 ||| 0-0 1-1 ||| 45 2927
a los ||| brought to ||| 0.016129 0.00929893 0.000341647 0.000159439 2.718 ||| 0-1 ||| 62 2927
a los ||| buck to the ||| 0.5 0.0394986 0.000341647 2.61119e-06 2.718 ||| 0-1 1-2 ||| 2 2927
a los ||| burden financial-market ||| 1 0.000654052 0.000341647 2.41192e-09 2.718 ||| 0-0 1-1 ||| 1 2927
a los ||| business demoralized Egyptian ||| 0.5 0.004998 0.000341647 1.85055e-13 2.718 ||| 1-0 ||| 2 2927
a los ||| business demoralized ||| 0.5 0.004998 0.000341647 9.49e-09 2.718 ||| 1-0 ||| 2 2927
a los ||| business ||| 0.00084246 0.004998 0.000341647 0.00146 2.718 ||| 1-0 ||| 1187 2927
a los ||| by saying ||| 0.0384615 0.000925835 0.000341647 5.69675e-07 2.718 ||| 0-0 ||| 26 2927
a los ||| by the ||| 0.0017331 0.00393262 0.00204988 0.00207096 2.718 ||| 0-0 1-1 ||| 3462 2927
a los ||| by ||| 0.000109176 0.000925835 0.000683294 0.0067497 2.718 ||| 0-0 ||| 18319 2927
a los ||| cattle ||| 0.037037 0.00264117 0.000341647 2.36e-05 2.718 ||| 0-0 ||| 27 2927
a los ||| centers ||| 0.00471698 0.00283956 0.000341647 8.76e-05 2.718 ||| 1-0 ||| 212 2927
a los ||| challenge the ||| 0.0217391 0.00667213 0.000341647 3.7862e-05 2.718 ||| 1-1 ||| 46 2927
a los ||| challenged those in ||| 1 0.0271615 0.000341647 1.94441e-08 2.718 ||| 0-0 1-1 ||| 1 2927
a los ||| challenged those ||| 1 0.0271615 0.000341647 1.26545e-06 2.718 ||| 0-0 1-1 ||| 1 2927
a los ||| children ||| 0.00097371 0.0103686 0.000341647 0.0025501 2.718 ||| 1-0 ||| 1027 2927
a los ||| claims for the ||| 0.142857 0.00856473 0.000341647 8.01414e-07 2.718 ||| 0-1 1-2 ||| 7 2927
a los ||| classify ||| 0.333333 0.0208333 0.000341647 2.255e-05 2.718 ||| 0-0 1-0 ||| 3 2927
a los ||| comes to the ||| 0.0666667 0.0394986 0.000341647 3.39153e-05 2.718 ||| 0-1 1-2 ||| 15 2927
a los ||| commemorating ||| 0.125 0.00763004 0.000341647 2.36e-05 2.718 ||| 0-0 ||| 8 2927
a los ||| compared to other ||| 0.0769231 0.00929893 0.000341647 2.24705e-08 2.718 ||| 0-1 ||| 13 2927
a los ||| compared to ||| 0.00334448 0.00929893 0.000341647 1.91157e-05 2.718 ||| 0-1 ||| 299 2927
a los ||| completely out ||| 0.25 0.00288538 0.000341647 1.07073e-07 2.718 ||| 0-1 ||| 4 2927
a los ||| compound the ||| 0.0909091 0.00667213 0.000341647 5.98305e-06 2.718 ||| 1-1 ||| 11 2927
a los ||| concerning ||| 0.00423729 0.00655159 0.000341647 0.0006372 2.718 ||| 0-0 ||| 236 2927
a los ||| confronted ||| 0.0117647 0.00406334 0.000341647 0.000236 2.718 ||| 0-0 ||| 85 2927
a los ||| conversion of ||| 0.0714286 0.000564776 0.000341647 4.20627e-07 2.718 ||| 0-1 ||| 14 2927
a los ||| courtesy of the ||| 0.5 0.00239897 0.000341647 4.30193e-08 2.718 ||| 0-1 1-2 ||| 2 2927
a los ||| criminals ||| 0.00662252 0.00999545 0.000341647 0.0002531 2.718 ||| 1-0 ||| 151 2927
a los ||| cut ||| 0.00207469 0.000236629 0.000341647 2.92e-05 2.718 ||| 1-0 ||| 482 2927
a los ||| denying the ||| 0.0555556 0.015352 0.000341647 2.89641e-05 2.718 ||| 0-0 1-1 ||| 18 2927
a los ||| depositors ||| 0.0153846 0.00137341 0.000341647 5.9e-05 2.718 ||| 0-0 ||| 65 2927
a los ||| description of the ||| 0.2 0.00239897 0.000341647 8.60386e-08 2.718 ||| 0-1 1-2 ||| 5 2927
a los ||| did encourage the ||| 0.5 0.028931 0.000341647 4.23959e-07 2.718 ||| 0-1 1-2 ||| 2 2927
a los ||| distract people from the economic shambles ||| 0.333333 0.00596208 0.000341647 3.83636e-20 2.718 ||| 0-2 1-3 ||| 3 2927
a los ||| distract people from the economic ||| 0.333333 0.00596208 0.000341647 5.90209e-15 2.718 ||| 0-2 1-3 ||| 3 2927
a los ||| distract people from the ||| 0.333333 0.00596208 0.000341647 1.31714e-11 2.718 ||| 0-2 1-3 ||| 3 2927
a los ||| do business demoralized Egyptian ||| 0.5 0.004998 0.000341647 4.24239e-16 2.718 ||| 1-1 ||| 2 2927
a los ||| do business demoralized ||| 0.5 0.004998 0.000341647 2.17558e-11 2.718 ||| 1-1 ||| 2 2927
a los ||| do business ||| 0.0666667 0.004998 0.000341647 3.34705e-06 2.718 ||| 1-1 ||| 15 2927
a los ||| do not like either ||| 1 0.000925484 0.000341647 2.06024e-12 2.718 ||| 0-2 1-3 ||| 1 2927
a los ||| doves -- and embolden ||| 0.5 0.0184882 0.000341647 2.26619e-14 2.718 ||| 0-3 ||| 2 2927
a los ||| down on the ||| 0.111111 0.0140558 0.000341647 1.15223e-05 2.718 ||| 0-1 1-2 ||| 9 2927
a los ||| down the throats of ||| 1 0.00752801 0.000341647 1.05539e-10 2.718 ||| 0-0 1-1 ||| 1 2927
a los ||| down the throats ||| 1 0.00752801 0.000341647 3.90653e-09 2.718 ||| 0-0 1-1 ||| 1 2927
a los ||| down the ||| 0.0169492 0.00752801 0.000683294 0.000300502 2.718 ||| 0-0 1-1 ||| 118 2927
a los ||| downstream into retailing ||| 1 0.0294702 0.000341647 3.54482e-12 2.718 ||| 1-0 0-1 ||| 1 2927
a los ||| downstream into ||| 1 0.0294702 0.000341647 5.45357e-07 2.718 ||| 1-0 0-1 ||| 1 2927
a los ||| drawn to the ||| 0.333333 0.0394986 0.000341647 1.56571e-05 2.718 ||| 0-1 1-2 ||| 3 2927
a los ||| driving the ||| 0.0625 0.00596634 0.000341647 3.25846e-05 2.718 ||| 0-0 1-1 ||| 16 2927
a los ||| easier for ||| 0.0454545 0.00201634 0.000341647 2.15062e-06 2.718 ||| 0-1 ||| 22 2927
a los ||| embolden ||| 0.2 0.0184882 0.000341647 8.26e-05 2.718 ||| 0-0 ||| 5 2927
a los ||| employee ||| 0.037037 0.00813305 0.000341647 7.79e-05 2.718 ||| 1-0 ||| 27 2927
a los ||| empower the ||| 0.111111 0.0453299 0.000341647 8.32718e-05 2.718 ||| 0-0 1-1 ||| 9 2927
a los ||| encourage the ||| 0.0294118 0.028931 0.000341647 0.000264297 2.718 ||| 0-0 1-1 ||| 34 2927
a los ||| encourage those ||| 1 0.0415647 0.000341647 6.59841e-06 2.718 ||| 0-0 1-1 ||| 1 2927
a los ||| encouraging the ||| 0.0909091 0.0182305 0.000341647 0.000112236 2.718 ||| 0-0 1-1 ||| 11 2927
a los ||| engage with the ||| 0.125 0.00482447 0.000341647 2.84993e-07 2.718 ||| 0-1 1-2 ||| 8 2927
a los ||| everyone ||| 0.0015625 0.00188087 0.000341647 0.0004606 2.718 ||| 0-0 1-0 ||| 640 2927
a los ||| exclusion by saying ||| 0.166667 0.000925835 0.000341647 1.11087e-11 2.718 ||| 0-1 ||| 6 2927
a los ||| exclusion by ||| 0.166667 0.000925835 0.000341647 1.31619e-07 2.718 ||| 0-1 ||| 6 2927
a los ||| executed ||| 0.0263158 0.00298567 0.000341647 4.72e-05 2.718 ||| 0-0 ||| 38 2927
a los ||| existing stock ||| 0.166667 0.00279873 0.000341647 4.93039e-08 2.718 ||| 1-0 ||| 6 2927
a los ||| existing ||| 0.00527705 0.00279873 0.000683294 0.0002531 2.718 ||| 1-0 ||| 379 2927
a los ||| face of opposition ||| 0.333333 0.000564776 0.000341647 3.63337e-10 2.718 ||| 0-1 ||| 3 2927
a los ||| face of ||| 0.00617284 0.000564776 0.000341647 7.98544e-06 2.718 ||| 0-1 ||| 162 2927
a los ||| fall short of the ||| 0.25 0.00239897 0.000341647 6.05652e-10 2.718 ||| 0-2 1-3 ||| 4 2927
a los ||| feminine &quot; traits ||| 0.5 0.00381237 0.000341647 1.26276e-12 2.718 ||| 1-2 ||| 2 2927
a los ||| financiers have to ||| 0.5 0.0641434 0.000341647 2.96077e-07 2.718 ||| 1-0 0-2 ||| 2 2927
a los ||| financiers on ||| 0.0909091 0.0228259 0.000341647 4.50275e-06 2.718 ||| 1-0 0-1 ||| 11 2927
a los ||| fired at the ||| 1 0.0270762 0.000341647 1.01947e-07 2.718 ||| 0-1 1-2 ||| 1 2927
a los ||| follow the ||| 0.0151515 0.00418404 0.000341647 5.06872e-05 2.718 ||| 0-0 1-1 ||| 66 2927
a los ||| followed Alfonsín ||| 0.5 0.00293835 0.000341647 4.1418e-09 2.718 ||| 0-0 ||| 2 2927
a los ||| followed the ||| 0.0138889 0.0124811 0.000341647 0.000195508 2.718 ||| 0-0 1-1 ||| 72 2927
a los ||| followed ||| 0.00215983 0.00293835 0.000341647 0.0006372 2.718 ||| 0-0 ||| 463 2927
a los ||| for all ||| 0.00243309 0.00157293 0.000341647 5.02025e-05 2.718 ||| 0-0 1-1 ||| 411 2927
a los ||| for basic ||| 0.5 0.00106773 0.000341647 2.5339e-06 2.718 ||| 0-0 1-1 ||| 2 2927
a los ||| for cell ||| 1 0.00433766 0.000341647 2.99289e-06 2.718 ||| 0-0 1-1 ||| 1 2927
a los ||| for doctors ||| 0.25 0.0196827 0.000341647 1.40465e-05 2.718 ||| 0-0 1-1 ||| 4 2927
a los ||| for human ||| 0.166667 0.00947099 0.000341647 8.49744e-05 2.718 ||| 0-0 1-1 ||| 6 2927
a los ||| for outsiders to correctly guess ||| 0.5 0.0834743 0.000341647 2.30676e-16 2.718 ||| 1-1 0-2 ||| 2 2927
a los ||| for outsiders to correctly ||| 0.5 0.0834743 0.000341647 8.87214e-12 2.718 ||| 1-1 0-2 ||| 2 2927
a los ||| for outsiders to ||| 0.25 0.0834743 0.000341647 6.82472e-07 2.718 ||| 1-1 0-2 ||| 4 2927
a los ||| for presidents ||| 0.333333 0.0177955 0.000341647 1.6119e-05 2.718 ||| 0-0 1-1 ||| 3 2927
a los ||| for such a ||| 0.037037 0.00201634 0.000341647 2.01518e-06 2.718 ||| 0-0 ||| 27 2927
a los ||| for such ||| 0.0107527 0.00201634 0.000341647 5.00889e-05 2.718 ||| 0-0 ||| 93 2927
a los ||| for the financial ||| 0.25 0.00856473 0.000341647 2.16832e-06 2.718 ||| 0-0 1-1 ||| 4 2927
a los ||| for the oldest ||| 1 0.00856473 0.000341647 4.71847e-08 2.718 ||| 0-0 1-1 ||| 1 2927
a los ||| for the realm ||| 1 0.00856473 0.000341647 9.43694e-08 2.718 ||| 0-0 1-1 ||| 1 2927
a los ||| for the various ||| 0.25 0.00856473 0.000341647 4.71121e-07 2.718 ||| 0-0 1-1 ||| 4 2927
a los ||| for the ||| 0.0166141 0.00856473 0.0269901 0.00725919 2.718 ||| 0-0 1-1 ||| 4755 2927
a los ||| for their ||| 0.00222222 0.00110434 0.000341647 5.84926e-05 2.718 ||| 0-0 1-1 ||| 450 2927
a los ||| for those ||| 0.0227273 0.0123048 0.00102494 0.000181232 2.718 ||| 0-0 1-1 ||| 132 2927
a los ||| for ||| 0.000951063 0.00201634 0.0112743 0.0236592 2.718 ||| 0-0 ||| 34698 2927
a los ||| free rein to corrupt ||| 0.333333 0.00112846 0.000341647 4.8251e-15 2.718 ||| 0-2 1-3 ||| 3 2927
a los ||| from $ ||| 0.037037 0.00133986 0.000341647 7.50319e-06 2.718 ||| 0-0 1-1 ||| 27 2927
a los ||| from the &quot; ||| 0.0666667 0.00596208 0.000341647 1.25666e-05 2.718 ||| 0-0 1-1 ||| 15 2927
a los ||| from the economic shambles ||| 0.333333 0.00596208 0.000341647 7.32906e-12 2.718 ||| 0-0 1-1 ||| 3 2927
a los ||| from the economic ||| 0.25 0.00596208 0.000341647 1.12755e-06 2.718 ||| 0-0 1-1 ||| 4 2927
a los ||| from the mainly ||| 1 0.00596208 0.000341647 1.14491e-07 2.718 ||| 0-0 1-1 ||| 1 2927
a los ||| from the original ||| 1 0.00596208 0.000341647 1.14491e-07 2.718 ||| 0-0 1-1 ||| 1 2927
a los ||| from the very ||| 0.1 0.00596208 0.000341647 2.1245e-06 2.718 ||| 0-0 1-1 ||| 10 2927
a los ||| from the ||| 0.00813609 0.00596208 0.00751623 0.00251629 2.718 ||| 0-0 1-1 ||| 2704 2927
a los ||| from those ||| 0.0196078 0.00856562 0.000341647 6.28212e-05 2.718 ||| 0-0 1-1 ||| 51 2927
a los ||| from ||| 0.000828569 0.00140362 0.00341647 0.0082011 2.718 ||| 0-0 ||| 12069 2927
a los ||| genetically prepared to respond to ||| 0.5 0.00929893 0.000341647 1.09002e-15 2.718 ||| 0-2 ||| 2 2927
a los ||| genetically prepared to respond ||| 0.5 0.00929893 0.000341647 1.3214e-14 2.718 ||| 0-2 ||| 2 2927
a los ||| genetically prepared to ||| 0.5 0.00929893 0.000341647 2.90417e-10 2.718 ||| 0-2 ||| 2 2927
a los ||| give the ||| 0.0208333 0.0261771 0.000341647 0.000608246 2.718 ||| 0-0 1-1 ||| 48 2927
a los ||| give ||| 0.00233645 0.00616273 0.000341647 0.0019824 2.718 ||| 0-0 ||| 428 2927
a los ||| gives those ||| 0.5 0.0394488 0.000341647 5.51374e-06 2.718 ||| 0-0 1-1 ||| 2 2927
a los ||| globally ||| 0.00675676 0.0078959 0.000341647 0.0007788 2.718 ||| 0-0 ||| 148 2927
a los ||| governments ||| 0.000393391 0.0186296 0.000341647 0.0147168 2.718 ||| 1-0 ||| 2542 2927
a los ||| guarantee of the ||| 0.5 0.00239897 0.000341647 1.29058e-07 2.718 ||| 0-1 1-2 ||| 2 2927
a los ||| hard against the ||| 0.5 0.00603658 0.000341647 2.43353e-07 2.718 ||| 0-1 1-2 ||| 2 2927
a los ||| help individual ||| 1 0.0142169 0.000341647 2.77546e-06 2.718 ||| 0-0 1-1 ||| 1 2927
a los ||| helps the ||| 0.111111 0.0607231 0.000341647 0.000405497 2.718 ||| 0-0 1-1 ||| 9 2927
a los ||| higher ||| 0.000738007 0.000472146 0.000341647 0.0001849 2.718 ||| 1-0 ||| 1355 2927
a los ||| his way past ||| 0.166667 4.94587e-06 0.000341647 9.60642e-12 2.718 ||| 0-0 1-2 ||| 6 2927
a los ||| his ||| 0.000146843 0.000156309 0.000341647 0.0002141 2.718 ||| 1-0 ||| 6810 2927
a los ||| hold the ||| 0.0243902 0.00667213 0.000341647 0.000171361 2.718 ||| 1-1 ||| 41 2927
a los ||| honor in ||| 0.166667 0.000316874 0.000341647 3.80927e-07 2.718 ||| 1-0 0-1 ||| 6 2927
a los ||| household ||| 0.00510204 0.0121825 0.000341647 0.0013919 2.718 ||| 1-0 ||| 196 2927
a los ||| human ||| 0.000630517 0.00737813 0.000341647 0.0035916 2.718 ||| 1-0 ||| 1586 2927
a los ||| immigrants ||| 0.00330033 0.00016587 0.000341647 2.36e-05 2.718 ||| 0-0 ||| 303 2927
a los ||| in &quot; beggar-thy-neighbor &quot; ||| 0.333333 0.00150143 0.000341647 6.36645e-12 2.718 ||| 0-0 ||| 3 2927
a los ||| in &quot; beggar-thy-neighbor ||| 0.333333 0.00150143 0.000341647 1.27479e-09 2.718 ||| 0-0 ||| 3 2927
a los ||| in &quot; ||| 0.00990099 0.00150143 0.000341647 0.000196122 2.718 ||| 0-0 ||| 101 2927
a los ||| in China ||| 0.00181159 7.62712e-05 0.000341647 4.58683e-06 2.718 ||| 0-0 1-1 ||| 552 2927
a los ||| in Pakistan ||| 0.00719424 0.000621041 0.000341647 6.49932e-06 2.718 ||| 0-0 1-1 ||| 139 2927
a los ||| in judgment ||| 0.333333 0.00150143 0.000341647 1.78682e-06 2.718 ||| 0-0 ||| 3 2927
a los ||| in rallying the ||| 1 0.0144075 0.000341647 5.68722e-07 2.718 ||| 0-0 0-1 1-2 ||| 1 2927
a los ||| in seeking out the ||| 1 0.00637753 0.000341647 2.77916e-09 2.718 ||| 0-0 1-3 ||| 1 2927
a los ||| in the future ||| 0.00341297 0.00637753 0.000341647 1.80015e-06 2.718 ||| 0-0 1-1 ||| 293 2927
a los ||| in the ||| 0.00351896 0.00637753 0.0215237 0.0120492 2.718 ||| 0-0 1-1 ||| 17903 2927
a los ||| in these terms ||| 0.2 0.000357682 0.000341647 9.45032e-09 2.718 ||| 0-0 1-1 ||| 5 2927
a los ||| in these ||| 0.00357143 0.000357682 0.000341647 1.79664e-05 2.718 ||| 0-0 1-1 ||| 280 2927
a los ||| in ||| 0.000211078 0.00150143 0.00580799 0.0392708 2.718 ||| 0-0 ||| 80539 2927
a los ||| incentives as ||| 0.5 0.00709278 0.000341647 6.5843e-06 2.718 ||| 1-0 ||| 2 2927
a los ||| incentives ||| 0.002079 0.00709278 0.000341647 0.0007787 2.718 ||| 1-0 ||| 481 2927
a los ||| income of ||| 0.047619 0.000564776 0.000341647 2.38139e-06 2.718 ||| 0-1 ||| 21 2927
a los ||| increased ||| 0.00111359 0.00011955 0.000341647 2.92e-05 2.718 ||| 1-0 ||| 898 2927
a los ||| independent ||| 0.00161031 8.15465e-05 0.000341647 9.7e-06 2.718 ||| 1-0 ||| 621 2927
a los ||| interest in ||| 0.00609756 0.00239852 0.000341647 4.12815e-05 2.718 ||| 1-0 0-1 ||| 164 2927
a los ||| into accepting ||| 0.25 0.00165254 0.000341647 1.08624e-07 2.718 ||| 0-0 1-1 ||| 4 2927
a los ||| into the hands of ||| 0.0454545 0.0257883 0.000341647 1.14545e-08 2.718 ||| 0-0 1-1 ||| 22 2927
a los ||| into the hands ||| 0.0416667 0.0257883 0.000341647 4.2399e-07 2.718 ||| 0-0 1-1 ||| 24 2927
a los ||| into the royal murders lit ||| 0.5 0.0257883 0.000341647 2.54767e-17 2.718 ||| 0-0 1-1 ||| 2 2927
a los ||| into the royal murders ||| 0.5 0.0257883 0.000341647 1.3065e-12 2.718 ||| 0-0 1-1 ||| 2 2927
a los ||| into the royal ||| 0.5 0.0257883 0.000341647 6.7e-08 2.718 ||| 0-0 1-1 ||| 2 2927
a los ||| into the ||| 0.0355731 0.0257883 0.00922446 0.0034359 2.718 ||| 0-0 1-1 ||| 759 2927
a los ||| into their ||| 0.0227273 0.00332514 0.000341647 2.76856e-05 2.718 ||| 0-0 1-1 ||| 44 2927
a los ||| into ||| 0.00201613 0.00607119 0.00273317 0.0111983 2.718 ||| 0-0 ||| 3968 2927
a los ||| investigation into the royal murders lit ||| 0.5 0.0257883 0.000341647 1.65599e-22 2.718 ||| 0-1 1-2 ||| 2 2927
a los ||| investigation into the royal murders ||| 0.5 0.0257883 0.000341647 8.49225e-18 2.718 ||| 0-1 1-2 ||| 2 2927
a los ||| investigation into the royal ||| 0.5 0.0257883 0.000341647 4.355e-13 2.718 ||| 0-1 1-2 ||| 2 2927
a los ||| investigation into the ||| 0.166667 0.0257883 0.000341647 2.23333e-08 2.718 ||| 0-1 1-2 ||| 6 2927
a los ||| is for ||| 0.0108696 0.00201634 0.000341647 0.00038996 2.718 ||| 0-1 ||| 92 2927
a los ||| it easier for ||| 0.0909091 0.00201634 0.000341647 5.72635e-08 2.718 ||| 0-2 ||| 11 2927
a los ||| it to the ||| 0.0833333 0.0394986 0.000683294 0.00267411 2.718 ||| 0-1 1-2 ||| 24 2927
a los ||| it would benefit the ||| 0.5 0.018812 0.000341647 4.14549e-08 2.718 ||| 0-2 1-3 ||| 2 2927
a los ||| its way into the ||| 0.2 0.0257883 0.000341647 1.03762e-08 2.718 ||| 0-2 1-3 ||| 5 2927
a los ||| label on ||| 0.5 0.00330909 0.000341647 5.01162e-07 2.718 ||| 0-1 ||| 2 2927
a los ||| law that protects the ||| 1 0.0425378 0.000341647 6.45588e-11 2.718 ||| 0-2 1-3 ||| 1 2927
a los ||| leaders ||| 0.000382117 0.0156157 0.000341647 0.0116216 2.718 ||| 1-0 ||| 2617 2927
a los ||| leaves the ||| 0.05 0.0210577 0.000341647 9.77538e-05 2.718 ||| 0-0 1-1 ||| 20 2927
a los ||| level the playing field between ||| 0.142857 0.00667213 0.000341647 1.71802e-16 2.718 ||| 1-1 ||| 7 2927
a los ||| level the playing field ||| 0.0909091 0.00667213 0.000341647 5.29111e-13 2.718 ||| 1-1 ||| 11 2927
a los ||| level the playing ||| 0.111111 0.00667213 0.000341647 8.15271e-09 2.718 ||| 1-1 ||| 9 2927
a los ||| level the ||| 0.111111 0.00667213 0.000341647 6.97409e-05 2.718 ||| 1-1 ||| 9 2927
a los ||| life to the ||| 0.5 0.0394986 0.000341647 2.2175e-05 2.718 ||| 0-1 1-2 ||| 2 2927
a los ||| like either ||| 1 0.000925484 0.000341647 3.82273e-07 2.718 ||| 0-0 1-1 ||| 1 2927
a los ||| like the ||| 0.00377358 0.00405773 0.000683294 0.000376533 2.718 ||| 0-0 1-1 ||| 530 2927
a los ||| likely to ||| 0.00123153 0.00929893 0.000341647 0.000157311 2.718 ||| 0-1 ||| 812 2927
a los ||| link mobile ||| 0.5 0.00696171 0.000341647 4.42975e-09 2.718 ||| 1-1 ||| 2 2927
a los ||| linked to the ||| 0.0606061 0.0394986 0.000683294 4.56958e-06 2.718 ||| 0-1 1-2 ||| 33 2927
a los ||| loyalists ||| 0.04 0.00355192 0.000341647 3.54e-05 2.718 ||| 0-0 ||| 25 2927
a los ||| major backer of ||| 0.5 0.000508819 0.000341647 7.91479e-11 2.718 ||| 1-0 0-2 ||| 2 2927
a los ||| member ||| 0.000968992 0.00346097 0.000341647 0.0008468 2.718 ||| 1-0 ||| 1032 2927
a los ||| mobile ||| 0.0133333 0.00696171 0.000341647 0.0001363 2.718 ||| 1-0 ||| 75 2927
a los ||| much as the ||| 0.0454545 0.00422766 0.000341647 4.11316e-06 2.718 ||| 0-1 1-2 ||| 22 2927
a los ||| much the ||| 0.025641 0.00667213 0.000341647 0.000442347 2.718 ||| 1-1 ||| 39 2927
a los ||| much to the ||| 0.111111 0.0394986 0.000341647 0.00014479 2.718 ||| 0-1 1-2 ||| 9 2927
a los ||| not like either ||| 1 0.000925484 0.000341647 8.98685e-10 2.718 ||| 0-1 1-2 ||| 1 2927
a los ||| not to ||| 0.00204082 0.00929893 0.000341647 0.000769504 2.718 ||| 0-1 ||| 490 2927
a los ||| nothing so much as the ||| 0.5 0.00422766 0.000341647 1.68511e-12 2.718 ||| 0-3 1-4 ||| 2 2927
a los ||| of Chinese ||| 0.0208333 0.000674071 0.000341647 1.8266e-05 2.718 ||| 0-0 1-1 ||| 48 2927
a los ||| of Palestine &apos;s ||| 0.166667 0.00059785 0.000341647 5.49153e-09 2.718 ||| 0-0 1-2 ||| 6 2927
a los ||| of air time to the ||| 1 0.0394986 0.000341647 1.31946e-10 2.718 ||| 0-3 1-4 ||| 1 2927
a los ||| of both the ||| 0.0714286 0.00320915 0.000341647 7.65347e-06 2.718 ||| 0-0 0-1 1-2 ||| 14 2927
a los ||| of directors ||| 0.0909091 0.00511744 0.000341647 5.87799e-06 2.718 ||| 0-0 1-1 ||| 11 2927
a los ||| of domestic ||| 0.0833333 0.000217227 0.000341647 3.77917e-06 2.718 ||| 0-0 1-1 ||| 12 2927
a los ||| of higher ||| 0.0384615 0.000169761 0.000341647 3.9884e-06 2.718 ||| 0-0 1-1 ||| 26 2927
a los ||| of honor in ||| 0.25 0.000316874 0.000341647 1.02912e-08 2.718 ||| 1-1 0-2 ||| 4 2927
a los ||| of individual ||| 0.0769231 0.00066785 0.000341647 5.66875e-06 2.718 ||| 0-0 1-1 ||| 13 2927
a los ||| of law that protects the ||| 1 0.0425378 0.000341647 1.74413e-12 2.718 ||| 0-3 1-4 ||| 1 2927
a los ||| of lowered ||| 1 0.000620712 0.000341647 4.20627e-07 2.718 ||| 0-0 1-1 ||| 1 2927
a los ||| of means ||| 0.0769231 0.000564776 0.000341647 7.70502e-06 2.718 ||| 0-0 ||| 13 2927
a los ||| of opposition ||| 0.0625 0.000564776 0.000341647 9.81462e-07 2.718 ||| 0-0 ||| 16 2927
a los ||| of the Israeli Arabs and ||| 1 0.00239897 0.000341647 7.03329e-14 2.718 ||| 0-0 1-1 ||| 1 2927
a los ||| of the Israeli Arabs ||| 1 0.00239897 0.000341647 8.37586e-12 2.718 ||| 0-0 1-1 ||| 1 2927
a los ||| of the Israeli ||| 0.5 0.00239897 0.000341647 4.29531e-07 2.718 ||| 0-0 1-1 ||| 2 2927
a los ||| of the country &apos;s ||| 0.0384615 0.00239897 0.000341647 7.96517e-08 2.718 ||| 0-0 1-1 ||| 26 2927
a los ||| of the country ||| 0.00617284 0.00239897 0.000341647 5.11467e-06 2.718 ||| 0-0 1-1 ||| 162 2927
a los ||| of the sectarian divide during his 40 ||| 0.166667 0.00239897 0.000341647 5.703e-24 2.718 ||| 0-0 1-1 ||| 6 2927
a los ||| of the sectarian divide during his ||| 0.166667 0.00239897 0.000341647 2.92462e-19 2.718 ||| 0-0 1-1 ||| 6 2927
a los ||| of the sectarian divide during ||| 0.166667 0.00239897 0.000341647 2.92432e-16 2.718 ||| 0-0 1-1 ||| 6 2927
a los ||| of the sectarian divide ||| 0.166667 0.00239897 0.000341647 1.95738e-12 2.718 ||| 0-0 1-1 ||| 6 2927
a los ||| of the sectarian ||| 0.166667 0.00239897 0.000341647 4.30193e-08 2.718 ||| 0-0 1-1 ||| 6 2927
a los ||| of the ||| 0.00306606 0.00239897 0.0225487 0.00661836 2.718 ||| 0-0 1-1 ||| 21526 2927
a los ||| of those of ||| 0.333333 0.00344656 0.000341647 4.46395e-06 2.718 ||| 0-0 1-1 ||| 3 2927
a los ||| of those ||| 0.0123077 0.00344656 0.00136659 0.000165233 2.718 ||| 0-0 1-1 ||| 325 2927
a los ||| of wasteful ||| 1 0.00226881 0.000341647 8.39096e-07 2.718 ||| 0-0 1-1 ||| 1 2927
a los ||| of which ||| 0.00342466 0.000564776 0.000341647 2.59149e-05 2.718 ||| 0-0 ||| 292 2927
a los ||| of whom ||| 0.0285714 0.00249524 0.000683294 1.59558e-05 2.718 ||| 0-0 1-1 ||| 70 2927
a los ||| of ||| 0.000304169 0.000564776 0.010591 0.0215706 2.718 ||| 0-0 ||| 101917 2927
a los ||| off the ||| 0.0145985 0.010191 0.000683294 0.000325846 2.718 ||| 0-0 1-1 ||| 137 2927
a los ||| off ||| 0.00477327 0.0023992 0.000683294 0.001062 2.718 ||| 0-0 ||| 419 2927
a los ||| on a regular basis , brought the ||| 1 0.0140558 0.000341647 3.14504e-16 2.718 ||| 0-0 1-6 ||| 1 2927
a los ||| on all ||| 0.0125 0.00258139 0.000341647 5.45341e-05 2.718 ||| 0-0 1-1 ||| 80 2927
a los ||| on financial-market ||| 1 0.0208649 0.000341647 5.2532e-06 2.718 ||| 0-0 1-1 ||| 1 2927
a los ||| on imported ||| 0.5 0.00763373 0.000341647 2.00208e-06 2.718 ||| 0-0 1-1 ||| 2 2927
a los ||| on market ||| 0.25 0.00215566 0.000341647 1.8011e-05 2.718 ||| 0-0 1-1 ||| 4 2927
a los ||| on membership that ||| 1 5.85002e-05 0.000341647 6.59505e-10 2.718 ||| 0-0 1-2 ||| 1 2927
a los ||| on the back of ||| 0.133333 0.0140558 0.000683294 2.96078e-07 2.718 ||| 0-0 1-1 ||| 15 2927
a los ||| on the back ||| 0.1 0.0140558 0.000683294 1.09593e-05 2.718 ||| 0-0 1-1 ||| 20 2927
a los ||| on the basis of ||| 0.0113636 0.0140558 0.000341647 8.16356e-08 2.718 ||| 0-0 1-1 ||| 88 2927
a los ||| on the basis ||| 0.0102041 0.0140558 0.000341647 3.02174e-06 2.718 ||| 0-0 1-1 ||| 98 2927
a los ||| on the part of ||| 0.0232558 0.0140558 0.000341647 1.31443e-07 2.718 ||| 0-0 1-1 ||| 43 2927
a los ||| on the part ||| 0.0185185 0.0140558 0.000341647 4.86538e-06 2.718 ||| 0-0 1-1 ||| 54 2927
a los ||| on the ||| 0.0152161 0.0140558 0.0256235 0.00788554 2.718 ||| 0-0 1-1 ||| 4929 2927
a los ||| on them ||| 0.0285714 0.00914159 0.000341647 0.000102813 2.718 ||| 0-0 1-1 ||| 35 2927
a los ||| on those ||| 0.0243902 0.0201938 0.000341647 0.000196869 2.718 ||| 0-0 1-1 ||| 41 2927
a los ||| on to those ||| 1 0.0384704 0.000341647 6.44398e-05 2.718 ||| 0-0 0-1 1-2 ||| 1 2927
a los ||| on ||| 0.00165144 0.00330909 0.0109327 0.0257006 2.718 ||| 0-0 ||| 19377 2927
a los ||| ones ||| 0.0070922 0.00466226 0.000341647 0.0003115 2.718 ||| 1-0 ||| 141 2927
a los ||| operators ||| 0.0238095 0.0162661 0.000341647 0.0001557 2.718 ||| 1-0 ||| 42 2927
a los ||| ordinary taxpayers to the ||| 1 0.0394986 0.000341647 1.69727e-11 2.718 ||| 0-2 1-3 ||| 1 2927
a los ||| out of ||| 0.0016835 0.000564776 0.000341647 9.56786e-05 2.718 ||| 0-1 ||| 594 2927
a los ||| out the ||| 0.0125 0.0122561 0.000341647 0.00126356 2.718 ||| 0-0 1-1 ||| 80 2927
a los ||| out to the ||| 0.272727 0.0394986 0.00102494 0.000445468 2.718 ||| 0-1 1-2 ||| 11 2927
a los ||| out ||| 0.000792393 0.00288538 0.000341647 0.0041182 2.718 ||| 0-0 ||| 1262 2927
a los ||| outsiders to correctly guess ||| 0.5 0.0834743 0.000341647 4.84582e-14 2.718 ||| 1-0 0-1 ||| 2 2927
a los ||| outsiders to correctly ||| 0.5 0.0834743 0.000341647 1.86378e-09 2.718 ||| 1-0 0-1 ||| 2 2927
a los ||| outsiders to ||| 0.166667 0.0834743 0.000341647 0.000143368 2.718 ||| 1-0 0-1 ||| 6 2927
a los ||| over the ||| 0.00141343 0.0116573 0.000683294 0.00148803 2.718 ||| 0-0 1-1 ||| 1415 2927
a los ||| over those ||| 0.2 0.0167478 0.000341647 3.715e-05 2.718 ||| 0-0 1-1 ||| 5 2927
a los ||| people from the economic shambles ||| 0.333333 0.00596208 0.000341647 5.90209e-15 2.718 ||| 0-1 1-2 ||| 3 2927
a los ||| people from the economic ||| 0.333333 0.00596208 0.000341647 9.08014e-10 2.718 ||| 0-1 1-2 ||| 3 2927
a los ||| people from the ||| 0.0625 0.00596208 0.000341647 2.02637e-06 2.718 ||| 0-1 1-2 ||| 16 2927
a los ||| people ||| 0.000323887 0.00013781 0.000683294 0.00111895 2.718 ||| 0-0 1-0 ||| 6175 2927
a los ||| pit the ||| 0.25 0.0510454 0.000341647 2.53436e-05 2.718 ||| 0-0 1-1 ||| 4 2927
a los ||| place in the ||| 0.0232558 0.00637753 0.000341647 1.53374e-05 2.718 ||| 0-1 1-2 ||| 43 2927
a los ||| planners ||| 0.0416667 0.0199416 0.000341647 0.0001655 2.718 ||| 1-0 ||| 24 2927
a los ||| play into ||| 0.25 0.00607119 0.000341647 2.76374e-06 2.718 ||| 0-1 ||| 4 2927
a los ||| policymakers ||| 0.00154083 0.00824158 0.000341647 0.0021024 2.718 ||| 1-0 ||| 649 2927
a los ||| poor ||| 0.000611247 0.00303349 0.000341647 0.0010804 2.718 ||| 1-0 ||| 1636 2927
a los ||| prepared to respond to ||| 0.333333 0.00929893 0.000341647 5.58987e-11 2.718 ||| 0-1 ||| 3 2927
a los ||| prepared to respond ||| 0.25 0.00929893 0.000341647 6.77641e-10 2.718 ||| 0-1 ||| 4 2927
a los ||| prepared to ||| 0.00552486 0.00929893 0.000341647 1.48932e-05 2.718 ||| 0-1 ||| 181 2927
a los ||| protects the ||| 0.111111 0.0425378 0.000341647 5.06872e-05 2.718 ||| 0-0 1-1 ||| 9 2927
a los ||| questions of the Israeli Arabs and ||| 1 0.00239897 0.000341647 5.9361e-18 2.718 ||| 0-1 1-2 ||| 1 2927
a los ||| questions of the Israeli Arabs ||| 1 0.00239897 0.000341647 7.06923e-16 2.718 ||| 0-1 1-2 ||| 1 2927
a los ||| questions of the Israeli ||| 1 0.00239897 0.000341647 3.62524e-11 2.718 ||| 0-1 1-2 ||| 1 2927
a los ||| questions of the ||| 0.5 0.00239897 0.000341647 5.58589e-07 2.718 ||| 0-1 1-2 ||| 2 2927
a los ||| raise our ||| 0.333333 0.000459785 0.000341647 2.04614e-08 2.718 ||| 1-0 ||| 3 2927
a los ||| raise ||| 0.00285714 0.000459785 0.000341647 3.89e-05 2.718 ||| 1-0 ||| 350 2927
a los ||| reach out to the ||| 0.153846 0.0394986 0.000683294 8.09862e-08 2.718 ||| 0-2 1-3 ||| 13 2927
a los ||| reached by the ||| 0.2 0.0320504 0.000341647 2.67307e-06 2.718 ||| 0-0 1-2 ||| 5 2927
a los ||| reached to ||| 0.333333 0.00929893 0.000341647 3.61365e-05 2.718 ||| 0-1 ||| 3 2927
a los ||| regulators ||| 0.00403226 0.0161529 0.000341647 0.0014503 2.718 ||| 1-0 ||| 248 2927
a los ||| rein to corrupt ||| 0.333333 0.00112846 0.000341647 2.06377e-11 2.718 ||| 0-1 1-2 ||| 3 2927
a los ||| reminded the ||| 0.25 0.0368801 0.000341647 7.96513e-05 2.718 ||| 0-0 1-1 ||| 4 2927
a los ||| reminding them ||| 1 0.0255375 0.000341647 3.30433e-07 2.718 ||| 0-0 1-1 ||| 1 2927
a los ||| replaced ||| 0.00595238 0.00591986 0.000341647 0.000472 2.718 ||| 0-0 ||| 168 2927
a los ||| require the ||| 0.0344828 0.00667213 0.000341647 4.3845e-05 2.718 ||| 1-1 ||| 29 2927
a los ||| required ||| 0.0019802 0.000316746 0.000341647 5.9e-05 2.718 ||| 0-0 ||| 505 2927
a los ||| rescuing the ||| 0.142857 0.0234392 0.000341647 3.25846e-05 2.718 ||| 0-0 1-1 ||| 7 2927
a los ||| resorting to tax ||| 0.2 0.0136062 0.000341647 1.30464e-09 2.718 ||| 0-1 1-2 ||| 5 2927
a los ||| resources ||| 0.000720981 0.00217654 0.000341647 0.0005159 2.718 ||| 1-0 ||| 1387 2927
a los ||| round up the ||| 0.333333 0.00392307 0.000341647 3.30017e-08 2.718 ||| 0-1 1-2 ||| 3 2927
a los ||| rule of law that protects the ||| 1 0.0425378 0.000341647 4.30451e-16 2.718 ||| 0-4 1-5 ||| 1 2927
a los ||| run in the ||| 0.333333 0.00637753 0.000341647 5.08596e-06 2.718 ||| 0-1 1-2 ||| 3 2927
a los ||| schoolchildren ||| 0.0666667 0.0118607 0.000341647 6.81e-05 2.718 ||| 1-0 ||| 15 2927
a los ||| screening ||| 0.047619 0.0063835 0.000341647 5.84e-05 2.718 ||| 1-0 ||| 21 2927
a los ||| seek to opt out ||| 0.1 0.00136947 0.000341647 3.27553e-13 2.718 ||| 0-1 1-3 ||| 10 2927
a los ||| seems in the ||| 1 0.00637753 0.000341647 2.50382e-06 2.718 ||| 0-1 1-2 ||| 1 2927
a los ||| sending financiers on ||| 0.0909091 0.0228259 0.000341647 1.46339e-10 2.718 ||| 1-1 0-2 ||| 11 2927
a los ||| serve ||| 0.00411523 0.00345169 0.000341647 0.0004484 2.718 ||| 0-0 ||| 243 2927
a los ||| services ||| 0.00087108 0.00911528 0.000341647 0.0020635 2.718 ||| 1-0 ||| 1148 2927
a los ||| sets the ||| 0.0588235 0.00507283 0.000341647 1.4482e-05 2.718 ||| 0-0 1-1 ||| 17 2927
a los ||| short of the ||| 0.05 0.00239897 0.000341647 2.66455e-06 2.718 ||| 0-1 1-2 ||| 20 2927
a los ||| shots fired at the ||| 1 0.0270762 0.000341647 1.98797e-12 2.718 ||| 0-2 1-3 ||| 1 2927
a los ||| should reach out to the ||| 0.25 0.0394986 0.000341647 9.94024e-11 2.718 ||| 0-3 1-4 ||| 4 2927
a los ||| since then ||| 0.00775194 0.00039285 0.000341647 3.59393e-07 2.718 ||| 0-0 ||| 129 2927
a los ||| since ||| 0.000378931 0.00039285 0.000341647 0.000413 2.718 ||| 0-0 ||| 2639 2927
a los ||| sit in judgment ||| 0.5 0.00150143 0.000341647 1.39193e-10 2.718 ||| 0-1 ||| 2 2927
a los ||| sit in ||| 0.1 0.00150143 0.000341647 3.0592e-06 2.718 ||| 0-1 ||| 10 2927
a los ||| small ||| 0.000825083 0.000120286 0.000341647 2.92e-05 2.718 ||| 1-0 ||| 1212 2927
a los ||| so much as the ||| 0.5 0.00422766 0.000341647 9.26901e-09 2.718 ||| 0-2 1-3 ||| 2 2927
a los ||| so on ||| 0.0163934 0.00330909 0.000341647 5.79163e-05 2.718 ||| 0-1 ||| 61 2927
a los ||| soon as we engage with the ||| 0.25 0.00482447 0.000341647 7.62069e-16 2.718 ||| 0-4 1-5 ||| 4 2927
a los ||| spent on ||| 0.0192308 0.00330909 0.000341647 2.16913e-06 2.718 ||| 0-1 ||| 52 2927
a los ||| spot on financial-market ||| 1 0.0208649 0.000341647 6.82916e-11 2.718 ||| 0-1 1-2 ||| 1 2927
a los ||| states ||| 0.000914913 0.00894446 0.000683294 0.0044968 2.718 ||| 1-0 ||| 2186 2927
a los ||| subservient to the ||| 0.25 0.0394986 0.000341647 6.52797e-07 2.718 ||| 0-1 1-2 ||| 4 2927
a los ||| such as the ||| 0.003861 0.00422766 0.000341647 6.04007e-06 2.718 ||| 0-1 1-2 ||| 259 2927
a los ||| supporters ||| 0.00401606 0.0020066 0.000341647 0.00030485 2.718 ||| 0-0 1-0 ||| 249 2927
a los ||| surveys ||| 0.0133333 0.00348559 0.000341647 7.79e-05 2.718 ||| 1-0 ||| 75 2927
a los ||| survivors of ||| 0.0833333 0.00458412 0.000341647 3.56993e-06 2.718 ||| 1-0 0-1 ||| 12 2927
a los ||| suspects ||| 0.0185185 0.00914968 0.000341647 0.0001071 2.718 ||| 1-0 ||| 54 2927
a los ||| tag along behind the ||| 0.5 0.00667213 0.000341647 3.53224e-13 2.718 ||| 1-3 ||| 2 2927
a los ||| talk since then ||| 0.5 0.00039285 0.000341647 3.50048e-11 2.718 ||| 0-1 ||| 2 2927
a los ||| talk since ||| 0.5 0.00039285 0.000341647 4.02262e-08 2.718 ||| 0-1 ||| 2 2927
a los ||| targeting ||| 0.0107527 0.00280665 0.000341647 0.0001118 2.718 ||| 0-0 1-0 ||| 93 2927
a los ||| tax ||| 0.000645995 0.00229836 0.000341647 0.0006132 2.718 ||| 1-0 ||| 1548 2927
a los ||| taxpayers to the ||| 0.5 0.0394986 0.000341647 6.52797e-07 2.718 ||| 0-1 1-2 ||| 2 2927
a los ||| testing ||| 0.00819672 0.00386017 0.000341647 0.0002242 2.718 ||| 0-0 ||| 122 2927
a los ||| than the ||| 0.00129366 0.00151459 0.000341647 0.000383774 2.718 ||| 0-0 1-1 ||| 773 2927
a los ||| that protects the ||| 0.2 0.0425378 0.000341647 4.14104e-07 2.718 ||| 0-1 1-2 ||| 5 2927
a los ||| that the ||| 0.000162259 0.00667213 0.000341647 0.00250668 2.718 ||| 1-1 ||| 6163 2927
a los ||| the Americans will be accommodated ||| 0.25 0.00667213 0.000341647 5.53917e-15 2.718 ||| 1-0 ||| 4 2927
a los ||| the Americans will be ||| 0.25 0.00667213 0.000341647 8.5218e-10 2.718 ||| 1-0 ||| 4 2927
a los ||| the Americans will ||| 0.25 0.00667213 0.000341647 8.26845e-08 2.718 ||| 1-0 ||| 4 2927
a los ||| the Americans ||| 0.00671141 0.00667213 0.000341647 1.19661e-05 2.718 ||| 1-0 ||| 149 2927
a los ||| the ambition ||| 0.0588235 0.00667213 0.000341647 3.9887e-06 2.718 ||| 1-0 ||| 17 2927
a los ||| the combined ||| 0.25 0.00667213 0.000341647 2.19072e-05 2.718 ||| 1-0 ||| 4 2927
a los ||| the country &apos;s ||| 0.0140845 0.00667213 0.000683294 3.69261e-06 2.718 ||| 1-0 ||| 142 2927
a los ||| the country ||| 0.00161812 0.00667213 0.000683294 0.000237113 2.718 ||| 1-0 ||| 1236 2927
a los ||| the court ||| 0.0147059 0.00255867 0.000341647 1.81026e-05 2.718 ||| 1-0 0-1 ||| 68 2927
a los ||| the face ||| 0.00877193 0.00667213 0.000341647 0.000113586 2.718 ||| 1-0 ||| 114 2927
a los ||| the hands ||| 0.00813008 0.00667213 0.000341647 3.7862e-05 2.718 ||| 1-0 ||| 123 2927
a los ||| the investigation into the royal murders lit ||| 0.5 0.0257883 0.000341647 8.7982e-24 2.718 ||| 0-2 1-3 ||| 2 2927
a los ||| the investigation into the royal murders ||| 0.5 0.0257883 0.000341647 4.5119e-19 2.718 ||| 0-2 1-3 ||| 2 2927
a los ||| the investigation into the royal ||| 0.5 0.0257883 0.000341647 2.31379e-14 2.718 ||| 0-2 1-3 ||| 2 2927
a los ||| the investigation into the ||| 0.25 0.0257883 0.000341647 1.18656e-09 2.718 ||| 0-2 1-3 ||| 4 2927
a los ||| the many ||| 0.00854701 0.000301561 0.000341647 3.98256e-05 2.718 ||| 1-0 0-1 ||| 117 2927
a los ||| the neighborhood , ||| 0.25 0.00667213 0.000341647 1.22216e-06 2.718 ||| 1-0 ||| 4 2927
a los ||| the neighborhood ||| 0.111111 0.00667213 0.000341647 5.98305e-06 2.718 ||| 1-0 ||| 9 2927
a los ||| the performance ||| 0.030303 0.00667213 0.000341647 1.99128e-05 2.718 ||| 1-0 ||| 33 2927
a los ||| the playing field between ||| 0.125 0.00667213 0.000341647 7.55839e-13 2.718 ||| 1-0 ||| 8 2927
a los ||| the playing field ||| 0.05 0.00667213 0.000341647 2.32781e-09 2.718 ||| 1-0 ||| 20 2927
a los ||| the playing ||| 0.0833333 0.00667213 0.000341647 3.58676e-05 2.718 ||| 1-0 ||| 12 2927
a los ||| the poorest ||| 0.0175439 0.00667213 0.000341647 7.9774e-06 2.718 ||| 1-0 ||| 57 2927
a los ||| the questions of the Israeli Arabs and ||| 1 0.00239897 0.000341647 3.15383e-19 2.718 ||| 0-2 1-3 ||| 1 2927
a los ||| the questions of the Israeli Arabs ||| 1 0.00239897 0.000341647 3.75585e-17 2.718 ||| 0-2 1-3 ||| 1 2927
a los ||| the questions of the Israeli ||| 1 0.00239897 0.000341647 1.92608e-12 2.718 ||| 0-2 1-3 ||| 1 2927
a los ||| the questions of the ||| 1 0.00239897 0.000341647 2.96776e-08 2.718 ||| 0-2 1-3 ||| 1 2927
a los ||| the result of government-induced ||| 1 0.00239897 0.000341647 1.78788e-11 2.718 ||| 1-0 0-2 ||| 1 2927
a los ||| the result of ||| 0.00480769 0.00239897 0.000341647 2.75059e-06 2.718 ||| 1-0 0-2 ||| 208 2927
a los ||| the result should be something closer to ||| 0.333333 0.0394986 0.000341647 1.92336e-17 2.718 ||| 1-0 0-6 ||| 3 2927
a los ||| the ||| 0.00288447 0.00667213 0.204305 0.306823 2.718 ||| 1-0 ||| 207317 2927
a los ||| their ||| 0.000352187 0.000860303 0.00170823 0.0024723 2.718 ||| 1-0 ||| 14197 2927
a los ||| them to take advantage ||| 0.0909091 0.025689 0.000341647 5.262e-11 2.718 ||| 1-0 0-1 ||| 11 2927
a los ||| them to take ||| 0.0909091 0.025689 0.000341647 1.15648e-06 2.718 ||| 1-0 0-1 ||| 11 2927
a los ||| them to ||| 0.00653595 0.025689 0.000341647 0.00130942 2.718 ||| 1-0 0-1 ||| 153 2927
a los ||| themselves to ||| 0.0434783 0.00929893 0.000341647 0.000263593 2.718 ||| 0-1 ||| 23 2927
a los ||| these ||| 0.000167252 0.000374204 0.000341647 0.0004575 2.718 ||| 1-0 ||| 5979 2927
a los ||| thinkers ||| 0.0178571 0.00879777 0.000341647 9.73e-05 2.718 ||| 1-0 ||| 56 2927
a los ||| this leaves the ||| 0.25 0.0210577 0.000341647 1.94256e-07 2.718 ||| 0-1 1-2 ||| 4 2927
a los ||| those in the ||| 0.0227273 0.00637753 0.000341647 6.0258e-06 2.718 ||| 0-1 1-2 ||| 44 2927
a los ||| those in ||| 0.00947867 0.00916249 0.000683294 0.000300818 2.718 ||| 1-0 0-1 ||| 211 2927
a los ||| those of ||| 0.00460829 0.00344656 0.000341647 0.000165233 2.718 ||| 1-0 0-1 ||| 217 2927
a los ||| those within ||| 0.5 0.00454002 0.000341647 4.1579e-06 2.718 ||| 1-0 0-1 ||| 2 2927
a los ||| those ||| 0.00770465 0.00958573 0.00819952 0.0076601 2.718 ||| 1-0 ||| 3115 2927
a los ||| through the world &apos;s ||| 1 0.037543 0.000341647 3.81611e-08 2.718 ||| 0-0 1-1 ||| 1 2927
a los ||| through the world ||| 1 0.037543 0.000341647 2.45043e-06 2.718 ||| 0-0 1-1 ||| 1 2927
a los ||| through the ||| 0.00287356 0.037543 0.000341647 0.00279507 2.718 ||| 0-0 1-1 ||| 348 2927
a los ||| throw the ||| 0.2 0.00494386 0.000341647 7.24102e-06 2.718 ||| 0-0 1-1 ||| 5 2927
a los ||| throwing the ||| 0.25 0.00634104 0.000341647 1.08615e-05 2.718 ||| 0-0 1-1 ||| 4 2927
a los ||| time to the ||| 0.166667 0.0394986 0.000341647 9.39224e-05 2.718 ||| 0-1 1-2 ||| 6 2927
a los ||| to $ ||| 0.0547945 0.00887652 0.00136659 0.000299468 2.718 ||| 0-0 1-1 ||| 73 2927
a los ||| to &quot; coalition ||| 1 0.00067707 0.000341647 1.58564e-08 2.718 ||| 0-0 1-2 ||| 1 2927
a los ||| to &quot; ||| 0.00284091 0.00929893 0.000341647 0.00163468 2.718 ||| 0-0 ||| 352 2927
a los ||| to American ||| 0.142857 0.0108723 0.000341647 0.000388696 2.718 ||| 0-0 1-1 ||| 7 2927
a los ||| to French and German levels ||| 1 0.0695335 0.000341647 5.23714e-14 2.718 ||| 0-0 1-4 ||| 1 2927
a los ||| to Pakistan ||| 0.0238095 0.00384635 0.000341647 5.4172e-05 2.718 ||| 0-0 1-1 ||| 42 2927
a los ||| to Pakistani ||| 1 0.00719013 0.000341647 1.91157e-05 2.718 ||| 0-0 1-1 ||| 1 2927
a los ||| to acute ||| 1 0.00601839 0.000341647 6.3828e-06 2.718 ||| 0-0 1-1 ||| 1 2927
a los ||| to all ||| 0.0176211 0.00725401 0.00136659 0.000694547 2.718 ||| 0-0 1-1 ||| 227 2927
a los ||| to be run in the ||| 1 0.00637753 0.000341647 4.32397e-09 2.718 ||| 0-3 1-4 ||| 1 2927
a los ||| to be ||| 0.000337952 0.00929893 0.000341647 0.00337352 2.718 ||| 0-0 ||| 2959 2927
a los ||| to blame ||| 0.00943396 0.00929893 0.000341647 1.27656e-05 2.718 ||| 0-0 ||| 106 2927
a los ||| to block ||| 0.015873 0.00389681 0.000341647 6.3828e-06 2.718 ||| 0-0 1-1 ||| 63 2927
a los ||| to both the ||| 0.0909091 0.0394986 0.000341647 0.000171535 2.718 ||| 0-0 1-2 ||| 11 2927
a los ||| to bring ||| 0.00438596 0.00929893 0.000341647 0.000178555 2.718 ||| 0-0 ||| 228 2927
a los ||| to cooperative ||| 1 0.00370996 0.000341647 3.17503e-06 2.718 ||| 0-0 1-1 ||| 1 2927
a los ||| to corrupt ||| 0.1 0.00112846 0.000341647 3.17503e-06 2.718 ||| 0-0 1-1 ||| 10 2927
a los ||| to distract people from the economic shambles ||| 0.333333 0.00596208 0.000341647 3.16462e-21 2.718 ||| 0-3 1-4 ||| 3 2927
a los ||| to distract people from the economic ||| 0.333333 0.00596208 0.000341647 4.86865e-16 2.718 ||| 0-3 1-4 ||| 3 2927
a los ||| to distract people from the ||| 0.333333 0.00596208 0.000341647 1.08651e-12 2.718 ||| 0-3 1-4 ||| 3 2927
a los ||| to each ||| 0.0263158 0.01681 0.000341647 0.000344082 2.718 ||| 0-0 1-1 ||| 38 2927
a los ||| to even ||| 0.0833333 0.00929893 0.000341647 0.000297602 2.718 ||| 0-0 ||| 12 2927
a los ||| to financial institutions &apos; chief executive ||| 0.5 0.00929893 0.000341647 2.48038e-21 2.718 ||| 0-0 ||| 2 2927
a los ||| to financial institutions &apos; chief ||| 0.5 0.00929893 0.000341647 1.90799e-16 2.718 ||| 0-0 ||| 2 2927
a los ||| to financial institutions &apos; ||| 0.5 0.00929893 0.000341647 3.6692e-12 2.718 ||| 0-0 ||| 2 2927
a los ||| to financial institutions ||| 0.166667 0.00929893 0.000341647 4.4486e-09 2.718 ||| 0-0 ||| 6 2927
a los ||| to financial ||| 0.0909091 0.00929893 0.000341647 9.77714e-05 2.718 ||| 0-0 ||| 11 2927
a los ||| to heavily ||| 0.333333 0.00929893 0.000341647 2.97537e-05 2.718 ||| 0-0 ||| 3 2927
a los ||| to helping the ||| 0.333333 0.0394986 0.000341647 7.17072e-06 2.718 ||| 0-0 1-2 ||| 3 2927
a los ||| to issues ||| 0.166667 0.0164753 0.000341647 0.000232563 2.718 ||| 0-0 1-1 ||| 6 2927
a los ||| to its ||| 0.0056391 0.00197331 0.00102494 0.000312234 2.718 ||| 0-0 1-1 ||| 532 2927
a los ||| to key ||| 0.5 0.00240855 0.000341647 2.86735e-05 2.718 ||| 0-0 1-1 ||| 2 2927
a los ||| to leave ||| 0.01 0.00929893 0.000341647 5.31573e-05 2.718 ||| 0-0 ||| 100 2927
a los ||| to local ||| 0.333333 0.00192859 0.000341647 2.22907e-05 2.718 ||| 0-0 1-1 ||| 3 2927
a los ||| to many ||| 0.00943396 0.000509075 0.000341647 3.18485e-05 2.718 ||| 0-0 1-1 ||| 106 2927
a los ||| to media ||| 0.5 0.0616737 0.000341647 0.000806033 2.718 ||| 0-0 1-1 ||| 2 2927
a los ||| to opt out ||| 0.0588235 0.00136947 0.000341647 1.73953e-09 2.718 ||| 0-0 1-2 ||| 17 2927
a los ||| to ordinary ||| 0.5 0.0183048 0.000341647 0.000140192 2.718 ||| 0-0 1-1 ||| 2 2927
a los ||| to other ||| 0.00558659 0.00929893 0.000341647 0.000384768 2.718 ||| 0-0 ||| 179 2927
a los ||| to people ||| 0.0181818 0.00656351 0.000341647 0.000570295 2.718 ||| 0-0 1-1 ||| 55 2927
a los ||| to point to and name the ||| 1 0.0394986 0.000341647 4.84224e-12 2.718 ||| 0-0 1-5 ||| 1 2927
a los ||| to prepare the Western Balkans ||| 0.5 0.0394986 0.000341647 5.79194e-16 2.718 ||| 0-0 1-2 ||| 2 2927
a los ||| to prepare the Western ||| 0.5 0.0394986 0.000341647 8.91067e-11 2.718 ||| 0-0 1-2 ||| 2 2927
a los ||| to prepare the ||| 0.0714286 0.0394986 0.000341647 1.95839e-06 2.718 ||| 0-0 1-2 ||| 14 2927
a los ||| to protect the ||| 0.0147059 0.0394986 0.000341647 2.61119e-06 2.718 ||| 0-0 1-2 ||| 68 2927
a los ||| to protect ||| 0.00276243 0.000524864 0.000341647 3.17503e-06 2.718 ||| 0-0 1-1 ||| 362 2927
a los ||| to reach age ||| 0.333333 0.00722627 0.000341647 6.73852e-08 2.718 ||| 0-0 0-1 1-2 ||| 3 2927
a los ||| to reach out to the ||| 0.166667 0.0394986 0.000341647 6.68056e-09 2.718 ||| 0-3 1-4 ||| 6 2927
a los ||| to require ||| 0.0322581 0.00929893 0.000341647 4.67745e-05 2.718 ||| 0-0 ||| 31 2927
a los ||| to respond to ||| 0.0172414 0.00929893 0.000341647 1.22854e-06 2.718 ||| 0-0 ||| 58 2927
a los ||| to respond ||| 0.0103093 0.00929893 0.000341647 1.48932e-05 2.718 ||| 0-0 ||| 97 2927
a los ||| to second-line ||| 0.2 0.0902759 0.000341647 6.3828e-06 2.718 ||| 0-0 1-1 ||| 5 2927
a los ||| to tax ||| 0.0263158 0.0136062 0.000341647 0.000200715 2.718 ||| 0-0 1-1 ||| 38 2927
a los ||| to that ||| 0.00549451 0.000164392 0.000341647 9.24033e-05 2.718 ||| 0-0 1-1 ||| 182 2927
a los ||| to the United ||| 1 0.0394986 0.000341647 3.71793e-05 2.718 ||| 0-0 1-1 ||| 1 2927
a los ||| to the benefit ||| 0.1 0.0394986 0.000341647 9.78191e-06 2.718 ||| 0-0 1-1 ||| 10 2927
a los ||| to the crisis ||| 0.0128205 0.0394986 0.000341647 1.8911e-05 2.718 ||| 0-0 1-1 ||| 78 2927
a los ||| to the fore ||| 0.0322581 0.0394986 0.000341647 3.26398e-06 2.718 ||| 0-0 1-1 ||| 31 2927
a los ||| to the hundreds ||| 0.2 0.0394986 0.000341647 5.22237e-06 2.718 ||| 0-0 1-1 ||| 5 2927
a los ||| to the interests ||| 0.0588235 0.0203972 0.000341647 5.86513e-06 2.718 ||| 0-0 1-1 1-2 ||| 17 2927
a los ||| to the two ||| 0.166667 0.0394986 0.000341647 3.13041e-05 2.718 ||| 0-0 1-1 ||| 6 2927
a los ||| to the ||| 0.091264 0.0394986 0.255552 0.10043 2.718 ||| 0-0 1-1 ||| 8196 2927
a los ||| to their ||| 0.00528169 0.00509294 0.00102494 0.000809241 2.718 ||| 0-0 1-1 ||| 568 2927
a los ||| to them ||| 0.00775194 0.025689 0.000341647 0.00130942 2.718 ||| 0-0 1-1 ||| 129 2927
a los ||| to these ||| 0.00714286 0.00221526 0.000341647 0.00014975 2.718 ||| 0-0 1-1 ||| 140 2927
a los ||| to those ||| 0.193182 0.0567469 0.011616 0.00250733 2.718 ||| 0-0 1-1 ||| 176 2927
a los ||| to work the ||| 0.333333 0.0394986 0.000341647 6.06599e-05 2.718 ||| 0-0 1-2 ||| 3 2927
a los ||| to young ||| 0.333333 0.0308 0.000341647 0.000277177 2.718 ||| 0-0 1-1 ||| 3 2927
a los ||| to your ||| 0.166667 0.011933 0.000683294 7.32876e-05 2.718 ||| 0-0 1-1 ||| 12 2927
a los ||| to ||| 0.00413589 0.00929893 0.11821 0.327323 2.718 ||| 0-0 ||| 83658 2927
a los ||| toward the ||| 0.0108696 0.0145359 0.000341647 0.000325846 2.718 ||| 0-0 1-1 ||| 92 2927
a los ||| toward ||| 0.00247831 0.00342211 0.000683294 0.001062 2.718 ||| 0-0 ||| 807 2927
a los ||| traits ||| 0.0204082 0.00381237 0.000341647 3.89e-05 2.718 ||| 1-0 ||| 49 2927
a los ||| turn the ||| 0.0212766 0.00396593 0.000341647 0.000112236 2.718 ||| 0-0 1-1 ||| 47 2927
a los ||| ultimately sit in judgment ||| 0.5 0.00150143 0.000341647 2.53054e-14 2.718 ||| 0-2 ||| 2 2927
a los ||| ultimately sit in ||| 0.5 0.00150143 0.000341647 5.56162e-10 2.718 ||| 0-2 ||| 2 2927
a los ||| undermined by the ||| 0.166667 0.00393262 0.000341647 4.03838e-08 2.718 ||| 0-1 1-2 ||| 6 2927
a los ||| unlike ||| 0.00137174 0.0159413 0.000341647 0.0042952 2.718 ||| 0-0 ||| 729 2927
a los ||| up the ||| 0.00793651 0.00392307 0.000341647 0.000391015 2.718 ||| 0-0 1-1 ||| 126 2927
a los ||| up to the ||| 0.0206186 0.0394986 0.000683294 0.000313714 2.718 ||| 0-1 1-2 ||| 97 2927
a los ||| up with the ||| 0.0588235 0.00482447 0.000341647 8.06369e-06 2.718 ||| 0-1 1-2 ||| 17 2927
a los ||| up ||| 0.00103413 0.000923586 0.000341647 0.0012744 2.718 ||| 0-0 ||| 967 2927
a los ||| upon the ||| 0.0967742 0.01633 0.00102494 0.00020999 2.718 ||| 0-0 1-1 ||| 31 2927
a los ||| upon ||| 0.00490196 0.00384448 0.000341647 0.0006844 2.718 ||| 0-0 ||| 204 2927
a los ||| vested ||| 0.0181818 0.00699682 0.000341647 0.0001265 2.718 ||| 1-0 ||| 55 2927
a los ||| voters ||| 0.00173611 0.0176304 0.000341647 0.0030271 2.718 ||| 1-0 ||| 576 2927
a los ||| way into the ||| 0.0714286 0.0257883 0.000341647 5.22153e-06 2.718 ||| 0-1 1-2 ||| 14 2927
a los ||| we engage with the ||| 0.25 0.00482447 0.000341647 6.60755e-10 2.718 ||| 0-2 1-3 ||| 4 2927
a los ||| welfare ||| 0.00185529 0.00103121 0.000341647 0.0001071 2.718 ||| 1-0 ||| 539 2927
a los ||| what ||| 0.000181719 4.53367e-06 0.000341647 9.7e-06 2.718 ||| 1-0 ||| 5503 2927
a los ||| whatsoever from the ||| 1 0.00596208 0.000341647 8.17793e-08 2.718 ||| 0-1 1-2 ||| 1 2927
a los ||| when ||| 0.00015015 0.000145368 0.000341647 0.0003068 2.718 ||| 0-0 ||| 6660 2927
a los ||| whereas the ||| 0.0135135 0.00667213 0.000341647 7.9774e-06 2.718 ||| 1-1 ||| 74 2927
a los ||| whom ||| 0.00906344 0.0196812 0.00102494 0.00075335 2.718 ||| 0-0 1-0 ||| 331 2927
a los ||| will ultimately sit in judgment ||| 0.5 0.00150143 0.000341647 1.74857e-16 2.718 ||| 0-3 ||| 2 2927
a los ||| will ultimately sit in ||| 0.5 0.00150143 0.000341647 3.84302e-12 2.718 ||| 0-3 ||| 2 2927
a los ||| with current ||| 0.2 8.71882e-05 0.000341647 4.09737e-07 2.718 ||| 0-0 1-1 ||| 5 2927
a los ||| with the ||| 0.00500626 0.00482447 0.00683293 0.00258146 2.718 ||| 0-0 1-1 ||| 3995 2927
a los ||| with those ||| 0.046875 0.00693124 0.00102494 6.44483e-05 2.718 ||| 0-0 1-1 ||| 64 2927
a los ||| with ||| 0.000187143 0.0011358 0.00136659 0.0084135 2.718 ||| 0-0 ||| 21374 2927
a los ||| within two ||| 0.0526316 6.53925e-06 0.000341647 5.26516e-09 2.718 ||| 0-0 1-1 ||| 19 2927
a los ||| within ||| 0.00112045 0.000743958 0.000683294 0.0005428 2.718 ||| 0-0 ||| 1785 2927
a los ||| workers ||| 0.00283286 0.000332605 0.00102494 0.0001534 2.718 ||| 0-0 ||| 1059 2927
a los ||| would benefit the ||| 0.5 0.018812 0.000341647 1.5569e-06 2.718 ||| 0-1 1-2 ||| 2 2927
a los ||| year to the ||| 0.25 0.0394986 0.000341647 4.7614e-05 2.718 ||| 0-1 1-2 ||| 4 2927
a ||| # 45 ; even ||| 0.25 0.0206068 2.17609e-05 2.90854e-12 2.718 ||| 0-3 ||| 4 45954
a ||| $ ||| 0.0147398 0.0233612 0.000696349 0.0007906 2.718 ||| 0-0 ||| 2171 45954
a ||| % to ||| 0.0178571 0.270828 4.35218e-05 4.67745e-05 2.718 ||| 0-1 ||| 112 45954
a ||| % ||| 0.000276167 0.0001086 2.17609e-05 1.18e-05 2.718 ||| 0-0 ||| 3621 45954
a ||| &#93; he ||| 0.25 0.0032086 2.17609e-05 5.79427e-08 2.718 ||| 0-1 ||| 4 45954
a ||| &amp; # 45 ; even ||| 0.25 0.0206068 2.17609e-05 4.09901e-15 2.718 ||| 0-4 ||| 4 45954
a ||| &apos; money to ||| 1 0.270828 2.17609e-05 6.48753e-08 2.718 ||| 0-2 ||| 1 45954
a ||| &apos;a ||| 0.166667 0.0952381 2.17609e-05 7.08e-05 2.718 ||| 0-0 ||| 6 45954
a ||| &apos;re telling you ||| 0.25 0.206349 2.17609e-05 3.24574e-11 2.718 ||| 0-1 ||| 4 45954
a ||| &apos;re telling ||| 0.25 0.206349 2.17609e-05 1.99113e-08 2.718 ||| 0-1 ||| 4 45954
a ||| &apos;s claim to the ||| 0.5 0.270828 2.17609e-05 7.73751e-08 2.718 ||| 0-2 ||| 2 45954
a ||| &apos;s claim to ||| 0.333333 0.270828 2.17609e-05 1.45635e-06 2.718 ||| 0-2 ||| 3 45954
a ||| &apos;s engage ||| 1 0.0526316 2.17609e-05 2.57269e-06 2.718 ||| 0-1 ||| 1 45954
a ||| &apos;s holding ||| 1 0.019544 2.17609e-05 1.10258e-06 2.718 ||| 0-1 ||| 1 45954
a ||| &apos;s old embrace of ||| 1 0.0310671 2.17609e-05 9.96404e-12 2.718 ||| 0-2 0-3 ||| 1 45954
a ||| &apos;s put ||| 1 0.0564103 2.17609e-05 1.41498e-05 2.718 ||| 0-1 ||| 1 45954
a ||| &apos;s relationship with the Saudis usually determined ||| 1 0.0330797 2.17609e-05 1.28883e-23 2.718 ||| 0-2 ||| 1 45954
a ||| &apos;s relationship with the Saudis usually ||| 1 0.0330797 2.17609e-05 1.98587e-19 2.718 ||| 0-2 ||| 1 45954
a ||| &apos;s relationship with the Saudis ||| 1 0.0330797 2.17609e-05 2.35292e-15 2.718 ||| 0-2 ||| 1 45954
a ||| &apos;s relationship with the ||| 0.5 0.0330797 2.17609e-05 1.80994e-10 2.718 ||| 0-2 ||| 2 45954
a ||| &apos;s relationship with ||| 0.5 0.0330797 2.17609e-05 3.40665e-09 2.718 ||| 0-2 ||| 2 45954
a ||| &apos;s running mate hit ||| 0.25 0.134615 2.17609e-05 1.7378e-14 2.718 ||| 0-3 ||| 4 45954
a ||| &apos;s social security system in 19 ||| 1 0.0437285 2.17609e-05 6.70355e-21 2.718 ||| 0-4 ||| 1 45954
a ||| &apos;s social security system in ||| 1 0.0437285 2.17609e-05 1.03132e-15 2.718 ||| 0-4 ||| 1 45954
a ||| &apos;s to ||| 0.2 0.270828 4.35218e-05 0.00509747 2.718 ||| 0-1 ||| 10 45954
a ||| &apos;s victory in ||| 0.5 0.0437285 2.17609e-05 1.19257e-08 2.718 ||| 0-2 ||| 2 45954
a ||| &apos;s willingness to ||| 0.142857 0.270828 2.17609e-05 1.98801e-07 2.718 ||| 0-2 ||| 7 45954
a ||| &apos;t walk away ||| 1 0.0508475 2.17609e-05 1.27812e-11 2.718 ||| 0-2 ||| 1 45954
a ||| &quot; charged ||| 0.5 0.0930233 2.17609e-05 7.07165e-07 2.718 ||| 0-1 ||| 2 45954
a ||| &quot; from ||| 0.0277778 0.0408799 2.17609e-05 4.09571e-05 2.718 ||| 0-1 ||| 36 45954
a ||| &quot; in ||| 0.00248139 0.0437285 2.17609e-05 0.000196122 2.718 ||| 0-1 ||| 403 45954
a ||| &quot; me &quot; in ||| 1 0.0437285 2.17609e-05 1.33598e-10 2.718 ||| 0-3 ||| 1 45954
a ||| &quot; near abroad &quot; ||| 0.5 0.0537084 2.17609e-05 3.60935e-13 2.718 ||| 0-1 ||| 2 45954
a ||| &quot; near abroad ||| 0.125 0.0537084 2.17609e-05 7.22722e-11 2.718 ||| 0-1 ||| 8 45954
a ||| &quot; near ||| 0.25 0.0537084 2.17609e-05 1.23754e-06 2.718 ||| 0-1 ||| 4 45954
a ||| &quot; passed &quot; to ||| 1 0.270828 2.17609e-05 1.11354e-09 2.718 ||| 0-3 ||| 1 45954
a ||| &quot; standing &quot; to ||| 0.333333 0.270828 2.17609e-05 1.11354e-09 2.718 ||| 0-3 ||| 3 45954
a ||| &quot; to ||| 0.0120846 0.270828 8.70436e-05 0.00163468 2.718 ||| 0-1 ||| 331 45954
a ||| &quot; too big to ||| 0.0416667 0.270828 2.17609e-05 3.60974e-10 2.718 ||| 0-3 ||| 24 45954
a ||| &quot; will affect the US &quot; far ||| 1 0.25256 2.17609e-05 6.81027e-18 2.718 ||| 0-2 ||| 1 45954
a ||| &quot; will affect the US &quot; ||| 1 0.25256 2.17609e-05 1.02812e-14 2.718 ||| 0-2 ||| 1 45954
a ||| &quot; will affect the US ||| 1 0.25256 2.17609e-05 2.05867e-12 2.718 ||| 0-2 ||| 1 45954
a ||| &quot; will affect the ||| 1 0.25256 2.17609e-05 1.60096e-09 2.718 ||| 0-2 ||| 1 45954
a ||| &quot; will affect ||| 1 0.25256 2.17609e-05 3.0133e-08 2.718 ||| 0-2 ||| 1 45954
a ||| &quot; with ||| 0.0107527 0.0330797 2.17609e-05 4.20179e-05 2.718 ||| 0-1 ||| 93 45954
a ||| ( like Saddam ) to ||| 1 0.270828 2.17609e-05 2.13136e-15 2.718 ||| 0-4 ||| 1 45954
a ||| ) more highly take ||| 1 0.018009 2.17609e-05 1.33994e-13 2.718 ||| 0-3 ||| 1 45954
a ||| ) to ||| 0.0120482 0.270828 4.35218e-05 0.000372003 2.718 ||| 0-1 ||| 166 45954
a ||| , &quot; charged ||| 0.5 0.0930233 2.17609e-05 1.44453e-07 2.718 ||| 0-2 ||| 2 45954
a ||| , Mubarak &apos;s relationship with the Saudis ||| 1 0.0330797 2.17609e-05 1.24965e-20 2.718 ||| 0-4 ||| 1 45954
a ||| , Mubarak &apos;s relationship with the ||| 1 0.0330797 2.17609e-05 9.61266e-16 2.718 ||| 0-4 ||| 1 45954
a ||| , Mubarak &apos;s relationship with ||| 1 0.0330797 2.17609e-05 1.80929e-14 2.718 ||| 0-4 ||| 1 45954
a ||| , against ||| 0.0172414 0.0413907 2.17609e-05 0.000361559 2.718 ||| 0-1 ||| 58 45954
a ||| , aimed at ||| 0.037037 0.185652 2.17609e-05 6.10329e-07 2.718 ||| 0-2 ||| 27 45954
a ||| , all of ||| 0.0169492 0.0164489 2.17609e-05 1.14174e-05 2.718 ||| 0-2 ||| 59 45954
a ||| , and incorporating them into ||| 0.5 0.176821 2.17609e-05 2.44064e-13 2.718 ||| 0-4 ||| 2 45954
a ||| , and often banal , ||| 1 0.18338 2.17609e-05 1.40555e-11 2.718 ||| 0-2 ||| 1 45954
a ||| , and often banal ||| 1 0.18338 2.17609e-05 6.88081e-11 2.718 ||| 0-2 ||| 1 45954
a ||| , and often ||| 0.025 0.18338 2.17609e-05 1.05859e-05 2.718 ||| 0-2 ||| 40 45954
a ||| , animate her ||| 0.5 0.5 2.17609e-05 1.42454e-09 2.718 ||| 0-1 ||| 2 45954
a ||| , animate ||| 0.5 0.5 2.17609e-05 2.41039e-06 2.718 ||| 0-1 ||| 2 45954
a ||| , are allowed a seat at ||| 0.333333 0.185652 2.17609e-05 1.63904e-14 2.718 ||| 0-5 ||| 3 45954
a ||| , as before , ||| 0.25 0.0289876 2.17609e-05 8.3147e-08 2.718 ||| 0-1 ||| 4 45954
a ||| , as before ||| 0.333333 0.0289876 2.17609e-05 4.07044e-07 2.718 ||| 0-1 ||| 3 45954
a ||| , as it were , ||| 0.333333 0.0289876 2.17609e-05 2.28778e-08 2.718 ||| 0-1 ||| 3 45954
a ||| , as it were ||| 0.25 0.0289876 2.17609e-05 1.11998e-07 2.718 ||| 0-1 ||| 4 45954
a ||| , as it ||| 0.00787402 0.0289876 2.17609e-05 5.05746e-05 2.718 ||| 0-1 ||| 127 45954
a ||| , as ||| 0.000865801 0.0289876 6.52827e-05 0.00189941 2.718 ||| 0-1 ||| 3465 45954
a ||| , at each ||| 0.333333 0.185652 2.17609e-05 2.71228e-06 2.718 ||| 0-1 ||| 3 45954
a ||| , at the ||| 0.0124224 0.185652 4.35218e-05 0.000277387 2.718 ||| 0-1 ||| 161 45954
a ||| , at ||| 0.0206452 0.185652 0.000348174 0.00522095 2.718 ||| 0-1 ||| 775 45954
a ||| , bad publicity surrounding the ||| 0.5 0.15625 2.17609e-05 1.17557e-14 2.718 ||| 0-3 ||| 2 45954
a ||| , bad publicity surrounding ||| 0.5 0.15625 2.17609e-05 2.21265e-13 2.718 ||| 0-3 ||| 2 45954
a ||| , befitting ||| 0.25 0.333333 2.17609e-05 4.82079e-06 2.718 ||| 0-1 ||| 4 45954
a ||| , begin to glimpse the ||| 1 0.270828 2.17609e-05 4.7982e-12 2.718 ||| 0-2 ||| 1 45954
a ||| , begin to glimpse ||| 1 0.270828 2.17609e-05 9.03112e-11 2.718 ||| 0-2 ||| 1 45954
a ||| , begin to ||| 0.2 0.270828 2.17609e-05 6.94701e-06 2.718 ||| 0-2 ||| 5 45954
a ||| , bring ||| 0.333333 0.0345711 2.17609e-05 6.50806e-05 2.718 ||| 0-1 ||| 3 45954
a ||| , but to ||| 0.0181818 0.270828 4.35218e-05 7.81622e-05 2.718 ||| 0-2 ||| 110 45954
a ||| , buying ||| 0.1 0.0055249 2.17609e-05 2.41039e-06 2.718 ||| 0-1 ||| 10 45954
a ||| , calls ||| 0.0714286 0.0266075 2.17609e-05 2.89247e-05 2.718 ||| 0-1 ||| 14 45954
a ||| , can place his trust in the ||| 1 0.0437285 2.17609e-05 5.55608e-17 2.718 ||| 0-5 ||| 1 45954
a ||| , can place his trust in ||| 1 0.0437285 2.17609e-05 1.04576e-15 2.718 ||| 0-5 ||| 1 45954
a ||| , covering ||| 0.1 0.0779221 2.17609e-05 1.44624e-05 2.718 ||| 0-1 ||| 10 45954
a ||| , financial markets are prone to produce ||| 1 0.270828 2.17609e-05 1.15903e-20 2.718 ||| 0-5 ||| 1 45954
a ||| , financial markets are prone to ||| 1 0.270828 2.17609e-05 6.86225e-17 2.718 ||| 0-5 ||| 1 45954
a ||| , for example , ||| 0.00283688 0.0587253 4.35218e-05 8.97379e-08 2.718 ||| 0-1 ||| 705 45954
a ||| , for example ||| 0.00273598 0.0587253 4.35218e-05 4.39309e-07 2.718 ||| 0-1 ||| 731 45954
a ||| , for ||| 0.00201005 0.0587253 8.70436e-05 0.00483288 2.718 ||| 0-1 ||| 1990 45954
a ||| , from ||| 0.00408163 0.0408799 4.35218e-05 0.00167524 2.718 ||| 0-1 ||| 490 45954
a ||| , given ||| 0.00193798 0.0360743 2.17609e-05 0.000163907 2.718 ||| 0-1 ||| 516 45954
a ||| , has asked ||| 1 0.13059 2.17609e-05 5.83937e-07 2.718 ||| 0-2 ||| 1 45954
a ||| , help speed the demise of ||| 0.5 0.350156 2.17609e-05 2.35491e-15 2.718 ||| 0-1 ||| 2 45954
a ||| , help speed the demise ||| 0.5 0.350156 2.17609e-05 8.71667e-14 2.718 ||| 0-1 ||| 2 45954
a ||| , help speed the ||| 0.5 0.350156 2.17609e-05 4.47009e-09 2.718 ||| 0-1 ||| 2 45954
a ||| , help speed ||| 0.5 0.350156 2.17609e-05 8.41356e-08 2.718 ||| 0-1 ||| 2 45954
a ||| , help ||| 0.0909091 0.350156 2.17609e-05 0.00215732 2.718 ||| 0-1 ||| 11 45954
a ||| , helped ||| 0.025 0.360536 2.17609e-05 0.000713476 2.718 ||| 0-1 ||| 40 45954
a ||| , if we divided up equally what ||| 0.5 0.0551471 2.17609e-05 1.2814e-20 2.718 ||| 0-3 ||| 2 45954
a ||| , if we divided up equally ||| 0.5 0.0551471 2.17609e-05 1.29814e-17 2.718 ||| 0-3 ||| 2 45954
a ||| , if we divided up ||| 0.5 0.0551471 2.17609e-05 1.66642e-13 2.718 ||| 0-3 ||| 2 45954
a ||| , if we divided ||| 0.5 0.0551471 2.17609e-05 5.33478e-11 2.718 ||| 0-3 ||| 2 45954
a ||| , ignored ||| 0.0625 0.0318725 2.17609e-05 1.92831e-05 2.718 ||| 0-1 ||| 16 45954
a ||| , implementing real administrative ||| 1 0.0079365 2.17609e-05 4.78174e-15 2.718 ||| 0-3 ||| 1 45954
a ||| , in a joint press conference with ||| 1 0.0437285 2.17609e-05 2.41719e-20 2.718 ||| 0-1 ||| 1 45954
a ||| , in a joint press conference ||| 1 0.0437285 2.17609e-05 6.37327e-18 2.718 ||| 0-1 ||| 1 45954
a ||| , in a joint press ||| 1 0.0437285 2.17609e-05 9.80504e-13 2.718 ||| 0-1 ||| 1 45954
a ||| , in a joint ||| 1 0.0437285 2.17609e-05 1.25867e-08 2.718 ||| 0-1 ||| 1 45954
a ||| , in a ||| 0.00571429 0.0437285 2.17609e-05 0.000322736 2.718 ||| 0-1 ||| 175 45954
a ||| , in the ||| 0.00413223 0.0437285 4.35218e-05 0.000426199 2.718 ||| 0-1 ||| 484 45954
a ||| , in violation ||| 0.1 0.0437285 2.17609e-05 1.04284e-07 2.718 ||| 0-1 ||| 10 45954
a ||| , in ||| 0.0160445 0.0437285 0.00106628 0.00802187 2.718 ||| 0-1 ||| 3054 45954
a ||| , instead , to ||| 0.25 0.270828 2.17609e-05 4.34599e-06 2.718 ||| 0-3 ||| 4 45954
a ||| , into ||| 0.0645161 0.176821 4.35218e-05 0.00228748 2.718 ||| 0-1 ||| 31 45954
a ||| , is my plan to drop ||| 0.5 0.270828 2.17609e-05 1.19615e-15 2.718 ||| 0-4 ||| 2 45954
a ||| , is my plan to ||| 0.5 0.270828 2.17609e-05 2.3003e-11 2.718 ||| 0-4 ||| 2 45954
a ||| , it released ||| 0.25 0.109453 2.17609e-05 1.41197e-06 2.718 ||| 0-2 ||| 4 45954
a ||| , it was ||| 0.0047619 0.0014741 2.17609e-05 3.46201e-07 2.718 ||| 0-1 ||| 210 45954
a ||| , it ||| 0.000740192 0.0014741 2.17609e-05 9.15949e-05 2.718 ||| 0-1 ||| 1351 45954
a ||| , like ||| 0.00139665 0.0278224 2.17609e-05 0.000250681 2.718 ||| 0-1 ||| 716 45954
a ||| , likely to ||| 0.25 0.270828 2.17609e-05 3.21341e-05 2.718 ||| 0-2 ||| 4 45954
a ||| , might become ||| 0.5 0.0754467 2.17609e-05 4.87193e-07 2.718 ||| 0-2 ||| 2 45954
a ||| , of ||| 0.00357782 0.0164489 4.35218e-05 0.00440624 2.718 ||| 0-1 ||| 559 45954
a ||| , off guard ||| 1 0.0698758 2.17609e-05 1.12806e-08 2.718 ||| 0-1 ||| 1 45954
a ||| , off ||| 1 0.0698758 2.17609e-05 0.000216935 2.718 ||| 0-1 ||| 1 45954
a ||| , often along ||| 0.25 0.15015 2.17609e-05 6.73223e-08 2.718 ||| 0-2 ||| 4 45954
a ||| , on a moment &apos;s notice , ||| 0.5 0.0963759 2.17609e-05 3.73715e-15 2.718 ||| 0-1 ||| 2 45954
a ||| , on a moment &apos;s notice ||| 0.5 0.0963759 2.17609e-05 1.82951e-14 2.718 ||| 0-1 ||| 2 45954
a ||| , on a moment &apos;s ||| 0.5 0.0963759 2.17609e-05 2.56234e-10 2.718 ||| 0-1 ||| 2 45954
a ||| , on a moment ||| 0.5 0.0963759 2.17609e-05 1.64535e-08 2.718 ||| 0-1 ||| 2 45954
a ||| , on a regular basis , brought ||| 1 0.0963759 2.17609e-05 2.09384e-16 2.718 ||| 0-1 ||| 1 45954
a ||| , on a regular basis , ||| 1 0.0963759 2.17609e-05 4.29858e-13 2.718 ||| 0-1 ||| 1 45954
a ||| , on a regular basis ||| 1 0.0963759 2.17609e-05 2.10436e-12 2.718 ||| 0-1 ||| 1 45954
a ||| , on a regular ||| 1 0.0963759 2.17609e-05 5.49154e-09 2.718 ||| 0-1 ||| 1 45954
a ||| , on a ||| 0.111111 0.0963759 6.52827e-05 0.000211213 2.718 ||| 0-1 ||| 27 45954
a ||| , on ||| 0.013308 0.0963759 0.000152326 0.00524988 2.718 ||| 0-1 ||| 526 45954
a ||| , once again , in ||| 1 0.0437285 2.17609e-05 3.30288e-10 2.718 ||| 0-4 ||| 1 45954
a ||| , once again , ||| 0.0357143 0.0930362 2.17609e-05 4.3251e-08 2.718 ||| 0-2 ||| 28 45954
a ||| , once again ||| 0.030303 0.0930362 2.17609e-05 2.11734e-07 2.718 ||| 0-2 ||| 33 45954
a ||| , only ||| 0.00290698 0.0020258 2.17609e-05 3.37455e-05 2.718 ||| 0-1 ||| 344 45954
a ||| , over ||| 0.0166667 0.07993 4.35218e-05 0.000990672 2.718 ||| 0-1 ||| 120 45954
a ||| , perhaps , begin to glimpse the ||| 1 0.270828 2.17609e-05 1.01836e-16 2.718 ||| 0-4 ||| 1 45954
a ||| , perhaps , begin to glimpse ||| 1 0.270828 2.17609e-05 1.91674e-15 2.718 ||| 0-4 ||| 1 45954
a ||| , perhaps , begin to ||| 1 0.270828 2.17609e-05 1.47441e-10 2.718 ||| 0-4 ||| 1 45954
a ||| , plotting to ||| 1 0.270828 2.17609e-05 4.34606e-07 2.718 ||| 0-2 ||| 1 45954
a ||| , pursuing ||| 0.333333 0.05 2.17609e-05 1.92831e-05 2.718 ||| 0-1 ||| 3 45954
a ||| , rapid increase in ||| 0.333333 0.0437285 2.17609e-05 7.5846e-11 2.718 ||| 0-3 ||| 3 45954
a ||| , resist ||| 0.25 0.25 2.17609e-05 0.000147034 2.718 ||| 0-1 ||| 4 45954
a ||| , ruined ||| 0.2 0.148148 2.17609e-05 9.64157e-06 2.718 ||| 0-1 ||| 5 45954
a ||| , starting ||| 0.0322581 0.0877863 2.17609e-05 5.5439e-05 2.718 ||| 0-1 ||| 31 45954
a ||| , then , is my plan to ||| 0.5 0.270828 2.17609e-05 4.08892e-15 2.718 ||| 0-6 ||| 2 45954
a ||| , there is the way in ||| 1 0.0437285 2.17609e-05 2.28094e-11 2.718 ||| 0-5 ||| 1 45954
a ||| , through ||| 0.00490196 0.257419 2.17609e-05 0.00186084 2.718 ||| 0-1 ||| 204 45954
a ||| , to jump on the ||| 1 0.0963759 2.17609e-05 1.04689e-09 2.718 ||| 0-3 ||| 1 45954
a ||| , to jump on ||| 1 0.0963759 2.17609e-05 1.97044e-08 2.718 ||| 0-3 ||| 1 45954
a ||| , to paraphrase ||| 0.1 0.387097 2.17609e-05 2.38601e-06 2.718 ||| 0-2 ||| 10 45954
a ||| , to ||| 0.0302822 0.270828 0.000957479 0.0668625 2.718 ||| 0-1 ||| 1453 45954
a ||| , towards ||| 0.1 0.102013 2.17609e-05 0.00018319 2.718 ||| 0-1 ||| 10 45954
a ||| , urge the president to go ||| 1 0.270828 2.17609e-05 8.67257e-15 2.718 ||| 0-4 ||| 1 45954
a ||| , urge the president to ||| 1 0.270828 2.17609e-05 1.25982e-11 2.718 ||| 0-4 ||| 1 45954
a ||| , we joined ||| 1 0.242894 2.17609e-05 5.25319e-07 2.718 ||| 0-2 ||| 1 45954
a ||| , what gives that achievement its meaning ||| 1 0.188272 2.17609e-05 1.99108e-21 2.718 ||| 0-2 ||| 1 45954
a ||| , what gives that achievement its ||| 1 0.188272 2.17609e-05 6.1264e-17 2.718 ||| 0-2 ||| 1 45954
a ||| , what gives that achievement ||| 1 0.188272 2.17609e-05 3.08293e-14 2.718 ||| 0-2 ||| 1 45954
a ||| , what gives that ||| 1 0.188272 2.17609e-05 1.18574e-09 2.718 ||| 0-2 ||| 1 45954
a ||| , what gives ||| 0.5 0.188272 2.17609e-05 1.45137e-07 2.718 ||| 0-2 ||| 2 45954
a ||| , who gave ||| 0.25 0.161731 2.17609e-05 1.74492e-07 2.718 ||| 0-2 ||| 4 45954
a ||| , will ||| 0.00480769 0.0208333 2.17609e-05 0.000812302 2.718 ||| 0-1 ||| 208 45954
a ||| , with ||| 0.000928505 0.0330797 6.52827e-05 0.00171863 2.718 ||| 0-1 ||| 3231 45954
a ||| , within a wide range , ||| 0.333333 0.0216675 2.17609e-05 1.24897e-14 2.718 ||| 0-1 ||| 3 45954
a ||| , within a wide range ||| 0.333333 0.0216675 2.17609e-05 6.11429e-14 2.718 ||| 0-1 ||| 3 45954
a ||| , within a wide ||| 0.333333 0.0216675 2.17609e-05 3.76495e-10 2.718 ||| 0-1 ||| 3 45954
a ||| , within a ||| 0.0555556 0.0216675 2.17609e-05 4.46085e-06 2.718 ||| 0-1 ||| 18 45954
a ||| , within ||| 0.0126582 0.0216675 2.17609e-05 0.000110878 2.718 ||| 0-1 ||| 79 45954
a ||| , written on ||| 1 0.0963759 2.17609e-05 5.79586e-07 2.718 ||| 0-2 ||| 1 45954
a ||| - are concerned ||| 1 0.0769231 2.17609e-05 2.41453e-09 2.718 ||| 0-2 ||| 1 45954
a ||| - just in ||| 1 0.0437285 2.17609e-05 3.74457e-08 2.718 ||| 0-2 ||| 1 45954
a ||| -- and embolden ||| 0.5 0.538462 2.17609e-05 3.48645e-09 2.718 ||| 0-2 ||| 2 45954
a ||| -- in fact ||| 0.0714286 0.0437285 2.17609e-05 1.29474e-07 2.718 ||| 0-1 ||| 14 45954
a ||| -- in ||| 0.003125 0.0437285 2.17609e-05 0.000197399 2.718 ||| 0-1 ||| 320 45954
a ||| -- on ||| 0.0212766 0.0963759 2.17609e-05 0.000129187 2.718 ||| 0-1 ||| 47 45954
a ||| -- to dismiss ||| 0.25 0.270828 2.17609e-05 3.20838e-08 2.718 ||| 0-1 ||| 4 45954
a ||| -- to ||| 0.0163265 0.270828 8.70436e-05 0.00164532 2.718 ||| 0-1 ||| 245 45954
a ||| -- with it ||| 1 0.0330797 2.17609e-05 1.12607e-06 2.718 ||| 0-1 ||| 1 45954
a ||| -- with ||| 0.00531915 0.0330797 2.17609e-05 4.22913e-05 2.718 ||| 0-1 ||| 188 45954
a ||| . depositors ||| 0.5 0.04 2.17609e-05 2.71276e-07 2.718 ||| 0-1 ||| 2 45954
a ||| 10 to 15 % ||| 1 0.270828 2.17609e-05 8.30013e-14 2.718 ||| 0-1 ||| 1 45954
a ||| 10 to 15 ||| 1 0.270828 2.17609e-05 5.80835e-10 2.718 ||| 0-1 ||| 1 45954
a ||| 10 to ||| 0.142857 0.270828 2.17609e-05 1.27656e-05 2.718 ||| 0-1 ||| 7 45954
a ||| 100 years in the past ||| 1 0.0437285 2.17609e-05 3.03194e-15 2.718 ||| 0-2 ||| 1 45954
a ||| 100 years in the ||| 1 0.0437285 2.17609e-05 1.50618e-11 2.718 ||| 0-2 ||| 1 45954
a ||| 100 years in ||| 1 0.0437285 2.17609e-05 2.83492e-10 2.718 ||| 0-2 ||| 1 45954
a ||| 1917 to ||| 0.2 0.270828 2.17609e-05 2.1276e-06 2.718 ||| 0-1 ||| 5 45954
a ||| 2007 to ||| 0.0526316 0.270828 2.17609e-05 6.3828e-06 2.718 ||| 0-1 ||| 19 45954
a ||| 28-year-old ||| 0.25 0.25 2.17609e-05 1.18e-05 2.718 ||| 0-0 ||| 4 45954
a ||| 45 ; &amp; # 45 ; even ||| 0.25 0.0206068 2.17609e-05 8.44804e-21 2.718 ||| 0-6 ||| 4 45954
a ||| 45 ; even ||| 0.25 0.0206068 2.17609e-05 3.08861e-09 2.718 ||| 0-2 ||| 4 45954
a ||| ; &amp; # 45 ; even ||| 0.25 0.0206068 2.17609e-05 7.26713e-18 2.718 ||| 0-5 ||| 4 45954
a ||| ; even ||| 0.1 0.0206068 2.17609e-05 2.65687e-06 2.718 ||| 0-1 ||| 10 45954
a ||| ; into ||| 1 0.176821 2.17609e-05 1.98535e-05 2.718 ||| 0-1 ||| 1 45954
a ||| AIDS in some parts of Africa have ||| 1 0.0437285 2.17609e-05 1.39627e-21 2.718 ||| 0-1 ||| 1 45954
a ||| AIDS in some parts of Africa ||| 1 0.0437285 2.17609e-05 2.70443e-19 2.718 ||| 0-1 ||| 1 45954
a ||| AIDS in some parts of ||| 1 0.0437285 2.17609e-05 1.34348e-15 2.718 ||| 0-1 ||| 1 45954
a ||| AIDS in some parts ||| 1 0.0437285 2.17609e-05 4.9729e-14 2.718 ||| 0-1 ||| 1 45954
a ||| AIDS in some ||| 1 0.0437285 2.17609e-05 5.47074e-10 2.718 ||| 0-1 ||| 1 45954
a ||| AIDS in ||| 0.111111 0.0437285 2.17609e-05 7.65781e-07 2.718 ||| 0-1 ||| 9 45954
a ||| Again ||| 0.153846 0.135135 4.35218e-05 5.9e-05 2.718 ||| 0-0 ||| 13 45954
a ||| America turned to ||| 1 0.270828 2.17609e-05 9.6011e-08 2.718 ||| 0-2 ||| 1 45954
a ||| America went to ||| 0.166667 0.270828 2.17609e-05 9.6011e-08 2.718 ||| 0-2 ||| 6 45954
a ||| American ||| 0.000378931 0.0003291 2.17609e-05 1.18e-05 2.718 ||| 0-0 ||| 2639 45954
a ||| Arabia to survive ||| 0.5 0.270828 2.17609e-05 2.07441e-10 2.718 ||| 0-1 ||| 2 45954
a ||| Arabia to ||| 0.333333 0.270828 2.17609e-05 6.3828e-06 2.718 ||| 0-1 ||| 3 45954
a ||| As I attended ||| 1 0.296296 2.17609e-05 6.08888e-12 2.718 ||| 0-2 ||| 1 45954
a ||| Back from ||| 1 0.0408799 4.35218e-05 1.59921e-07 2.718 ||| 0-1 ||| 2 45954
a ||| Bashir to ||| 0.333333 0.270828 2.17609e-05 2.1276e-06 2.718 ||| 0-1 ||| 3 45954
a ||| Beginning to ||| 1 0.270828 4.35218e-05 4.2552e-06 2.718 ||| 0-1 ||| 2 45954
a ||| Bismarck &apos;s social security system in 19 ||| 1 0.0437285 2.17609e-05 4.35731e-26 2.718 ||| 0-5 ||| 1 45954
a ||| Bismarck &apos;s social security system in ||| 1 0.0437285 2.17609e-05 6.70355e-21 2.718 ||| 0-5 ||| 1 45954
a ||| Britain slips back into ||| 0.333333 0.176821 2.17609e-05 2.03639e-14 2.718 ||| 0-3 ||| 3 45954
a ||| China could stand up ||| 1 0.0268991 2.17609e-05 2.88576e-13 2.718 ||| 0-3 ||| 1 45954
a ||| China ||| 0.000127812 0.0002907 2.17609e-05 2.36e-05 2.718 ||| 0-0 ||| 7824 45954
a ||| Civic ||| 0.166667 0.125 2.17609e-05 1.18e-05 2.718 ||| 0-0 ||| 6 45954
a ||| Cocteau declared that Genet was a literary ||| 1 0.0416667 2.17609e-05 1.20777e-26 2.718 ||| 0-6 ||| 1 45954
a ||| Conference of ||| 0.166667 0.0164489 2.17609e-05 1.40209e-07 2.718 ||| 0-1 ||| 6 45954
a ||| Court must uphold the ruling , but ||| 1 0.0011566 2.17609e-05 6.32713e-23 2.718 ||| 0-3 ||| 1 45954
a ||| Court must uphold the ruling , ||| 1 0.0011566 2.17609e-05 5.41243e-20 2.718 ||| 0-3 ||| 1 45954
a ||| Court must uphold the ruling ||| 1 0.0011566 2.17609e-05 2.64964e-19 2.718 ||| 0-3 ||| 1 45954
a ||| Court must uphold the ||| 1 0.0011566 2.17609e-05 1.94255e-15 2.718 ||| 0-3 ||| 1 45954
a ||| Dixon has a ||| 1 0.125 2.17609e-05 1.57546e-09 2.718 ||| 0-0 ||| 1 45954
a ||| Dixon has ||| 1 0.125 2.17609e-05 3.91595e-08 2.718 ||| 0-0 ||| 1 45954
a ||| Dixon ||| 0.166667 0.125 2.17609e-05 1.18e-05 2.718 ||| 0-0 ||| 6 45954
a ||| Dutch-speaking ||| 1 1 2.17609e-05 1.18e-05 2.718 ||| 0-0 ||| 1 45954
a ||| Europe-wide political ||| 0.25 0.102041 2.17609e-05 2.14583e-08 2.718 ||| 0-0 ||| 4 45954
a ||| Europe-wide ||| 0.0285714 0.102041 2.17609e-05 5.9e-05 2.718 ||| 0-0 ||| 35 45954
a ||| European ||| 0.000194666 0.0002151 2.17609e-05 1.18e-05 2.718 ||| 0-0 ||| 5137 45954
a ||| F aced ||| 1 1 2.17609e-05 7.67e-11 2.718 ||| 0-1 ||| 1 45954
a ||| F. Kennedy shortly after he assumed office ||| 1 0.0588235 2.17609e-05 5.22238e-29 2.718 ||| 0-1 ||| 1 45954
a ||| F. Kennedy shortly after he assumed ||| 1 0.0588235 2.17609e-05 2.51318e-25 2.718 ||| 0-1 ||| 1 45954
a ||| F. Kennedy shortly after he ||| 1 0.0588235 2.17609e-05 3.51986e-21 2.718 ||| 0-1 ||| 1 45954
a ||| F. Kennedy shortly after ||| 1 0.0588235 2.17609e-05 1.12682e-18 2.718 ||| 0-1 ||| 1 45954
a ||| F. Kennedy shortly ||| 1 0.0588235 2.17609e-05 2.9913e-15 2.718 ||| 0-1 ||| 1 45954
a ||| F. Kennedy ||| 0.0555556 0.0588235 2.17609e-05 2.301e-10 2.718 ||| 0-1 ||| 18 45954
a ||| Free to ||| 0.111111 0.270828 2.17609e-05 1.0638e-05 2.718 ||| 0-1 ||| 9 45954
a ||| Fulani ||| 1 1 2.17609e-05 1.18e-05 2.718 ||| 0-0 ||| 1 45954
a ||| Genet was a literary genius ||| 1 0.0416667 2.17609e-05 7.5812e-20 2.718 ||| 0-3 ||| 1 45954
a ||| Genet was a literary ||| 1 0.0416667 2.17609e-05 1.16634e-14 2.718 ||| 0-3 ||| 1 45954
a ||| German soldiers to ||| 1 0.270828 2.17609e-05 3.31906e-10 2.718 ||| 0-2 ||| 1 45954
a ||| Germany ||| 0.000968992 0.0010887 4.35218e-05 2.36e-05 2.718 ||| 0-0 ||| 2064 45954
a ||| Gorbachev , ||| 0.0666667 0.0340909 2.17609e-05 7.23118e-06 2.718 ||| 0-0 ||| 15 45954
a ||| Gorbachev ||| 0.0113636 0.0340909 2.17609e-05 3.54e-05 2.718 ||| 0-0 ||| 88 45954
a ||| Grand ||| 0.0625 0.0555556 4.35218e-05 2.36e-05 2.718 ||| 0-0 ||| 32 45954
a ||| HIV or AIDS in some parts of ||| 1 0.0437285 2.17609e-05 3.67505e-23 2.718 ||| 0-3 ||| 1 45954
a ||| HIV or AIDS in some parts ||| 1 0.0437285 2.17609e-05 1.36032e-21 2.718 ||| 0-3 ||| 1 45954
a ||| HIV or AIDS in some ||| 1 0.0437285 2.17609e-05 1.4965e-17 2.718 ||| 0-3 ||| 1 45954
a ||| HIV or AIDS in ||| 1 0.0437285 2.17609e-05 2.09476e-14 2.718 ||| 0-3 ||| 1 45954
a ||| Help ||| 1 0.375 2.17609e-05 3.54e-05 2.718 ||| 0-0 ||| 1 45954
a ||| Home-Grown ||| 1 1 4.35218e-05 2.36e-05 2.718 ||| 0-0 ||| 2 45954
a ||| I attended ||| 0.25 0.296296 2.17609e-05 2.34188e-07 2.718 ||| 0-1 ||| 4 45954
a ||| I conducted ||| 0.125 0.195833 2.17609e-05 6.87926e-07 2.718 ||| 0-1 ||| 8 45954
a ||| I told him ||| 0.166667 0.150327 2.17609e-05 7.01803e-10 2.718 ||| 0-1 ||| 6 45954
a ||| I told ||| 0.0909091 0.150327 2.17609e-05 1.00993e-06 2.718 ||| 0-1 ||| 11 45954
a ||| I ||| 0.00129786 0.0034667 4.35218e-05 0.0001534 2.718 ||| 0-0 ||| 1541 45954
a ||| Internet ||| 0.0026738 0.0223214 2.17609e-05 0.000118 2.718 ||| 0-0 ||| 374 45954
a ||| Iran &quot; will affect the US &quot; ||| 1 0.25256 2.17609e-05 8.67733e-19 2.718 ||| 0-3 ||| 1 45954
a ||| Iran &quot; will affect the US ||| 1 0.25256 2.17609e-05 1.73752e-16 2.718 ||| 0-3 ||| 1 45954
a ||| Iran &quot; will affect the ||| 1 0.25256 2.17609e-05 1.35121e-13 2.718 ||| 0-3 ||| 1 45954
a ||| Iran &quot; will affect ||| 1 0.25256 2.17609e-05 2.54323e-12 2.718 ||| 0-3 ||| 1 45954
a ||| Iran ||| 0.000989609 0.0028916 4.35218e-05 7.08e-05 2.718 ||| 0-0 ||| 2021 45954
a ||| Ireland ||| 0.0027248 0.0029155 2.17609e-05 1.18e-05 2.718 ||| 0-0 ||| 367 45954
a ||| Israel ||| 0.000450653 0.0005068 2.17609e-05 1.18e-05 2.718 ||| 0-0 ||| 2219 45954
a ||| Israelis ||| 0.00289017 0.0204545 2.17609e-05 0.0001062 2.718 ||| 0-0 ||| 346 45954
a ||| Japan to help ||| 1 0.270828 2.17609e-05 3.0873e-08 2.718 ||| 0-1 ||| 1 45954
a ||| Japan to ||| 0.0294118 0.270828 2.17609e-05 9.14213e-05 2.718 ||| 0-1 ||| 34 45954
a ||| Kennedy shortly after he assumed office ||| 1 0.0588235 2.17609e-05 8.03443e-24 2.718 ||| 0-0 ||| 1 45954
a ||| Kennedy shortly after he assumed ||| 1 0.0588235 2.17609e-05 3.86643e-20 2.718 ||| 0-0 ||| 1 45954
a ||| Kennedy shortly after he ||| 1 0.0588235 2.17609e-05 5.41516e-16 2.718 ||| 0-0 ||| 1 45954
a ||| Kennedy shortly after ||| 1 0.0588235 2.17609e-05 1.73357e-13 2.718 ||| 0-0 ||| 1 45954
a ||| Kennedy shortly ||| 1 0.0588235 2.17609e-05 4.602e-10 2.718 ||| 0-0 ||| 1 45954
a ||| Kennedy ||| 0.0212766 0.0588235 2.17609e-05 3.54e-05 2.718 ||| 0-0 ||| 47 45954
a ||| Khamenei &apos;s ||| 0.125 0.0092593 2.17609e-05 1.83764e-07 2.718 ||| 0-0 ||| 8 45954
a ||| Khamenei ||| 0.00892857 0.0092593 2.17609e-05 1.18e-05 2.718 ||| 0-0 ||| 112 45954
a ||| Kim Jong-il ||| 0.0151515 0.0043103 2.17609e-05 1.534e-10 2.718 ||| 0-0 ||| 66 45954
a ||| Kim ||| 0.00364964 0.0043103 2.17609e-05 1.18e-05 2.718 ||| 0-0 ||| 274 45954
a ||| Long ||| 0.037037 0.0185185 2.17609e-05 1.18e-05 2.718 ||| 0-0 ||| 27 45954
a ||| Mexico ||| 0.0029985 0.0031546 4.35218e-05 2.36e-05 2.718 ||| 0-0 ||| 667 45954
a ||| Mubarak &apos;s relationship with the Saudis usually ||| 1 0.0330797 2.17609e-05 5.16326e-24 2.718 ||| 0-3 ||| 1 45954
a ||| Mubarak &apos;s relationship with the Saudis ||| 1 0.0330797 2.17609e-05 6.1176e-20 2.718 ||| 0-3 ||| 1 45954
a ||| Mubarak &apos;s relationship with the ||| 1 0.0330797 2.17609e-05 4.70585e-15 2.718 ||| 0-3 ||| 1 45954
a ||| Mubarak &apos;s relationship with ||| 1 0.0330797 2.17609e-05 8.8573e-14 2.718 ||| 0-3 ||| 1 45954
a ||| NLA ||| 0.5 0.5 2.17609e-05 1.18e-05 2.718 ||| 0-0 ||| 2 45954
a ||| Peru , with ||| 1 0.0097087 2.17609e-05 9.1419e-09 2.718 ||| 0-0 ||| 1 45954
a ||| Peru , ||| 0.025641 0.0097087 2.17609e-05 2.41039e-06 2.718 ||| 0-0 ||| 39 45954
a ||| Peru ||| 0.0116279 0.0097087 2.17609e-05 1.18e-05 2.718 ||| 0-0 ||| 86 45954
a ||| Royal ||| 0.00990099 0.0103093 2.17609e-05 1.18e-05 2.718 ||| 0-0 ||| 101 45954
a ||| Russia ||| 0.000245098 0.0005496 2.17609e-05 2.36e-05 2.718 ||| 0-0 ||| 4080 45954
a ||| Saddam ) to ||| 1 0.270828 2.17609e-05 2.41802e-09 2.718 ||| 0-2 ||| 1 45954
a ||| Saudi Arabia to survive ||| 0.5 0.270828 2.17609e-05 6.74183e-15 2.718 ||| 0-2 ||| 2 45954
a ||| Saudi Arabia to ||| 0.333333 0.270828 2.17609e-05 2.07441e-10 2.718 ||| 0-2 ||| 3 45954
a ||| Saudi ruling ||| 1 0.0064795 2.17609e-05 4.82856e-09 2.718 ||| 0-0 ||| 1 45954
a ||| Saudi ||| 0.00421053 0.0064795 4.35218e-05 3.54e-05 2.718 ||| 0-0 ||| 475 45954
a ||| States in ||| 0.2 0.0437285 2.17609e-05 1.12197e-05 2.718 ||| 0-1 ||| 5 45954
a ||| States to ||| 0.25 0.270828 2.17609e-05 9.35162e-05 2.718 ||| 0-1 ||| 4 45954
a ||| Strong ||| 0.142857 0.0909091 2.17609e-05 1.18e-05 2.718 ||| 0-0 ||| 7 45954
a ||| Supreme Court must uphold the ruling , ||| 1 0.0011566 2.17609e-05 7.03616e-25 2.718 ||| 0-4 ||| 1 45954
a ||| Supreme Court must uphold the ruling ||| 1 0.0011566 2.17609e-05 3.44453e-24 2.718 ||| 0-4 ||| 1 45954
a ||| Supreme Court must uphold the ||| 1 0.0011566 2.17609e-05 2.52532e-20 2.718 ||| 0-4 ||| 1 45954
a ||| Taliban to give up ||| 0.5 0.270828 2.17609e-05 1.25177e-11 2.718 ||| 0-1 ||| 2 45954
a ||| Taliban to give ||| 0.5 0.270828 2.17609e-05 4.00733e-09 2.718 ||| 0-1 ||| 2 45954
a ||| Taliban to ||| 0.166667 0.270828 2.17609e-05 1.0638e-05 2.718 ||| 0-1 ||| 6 45954
a ||| Thaksin ||| 0.00869565 0.0194175 2.17609e-05 2.36e-05 2.718 ||| 0-0 ||| 115 45954
a ||| United States in ||| 0.0434783 0.0437285 2.17609e-05 4.15352e-09 2.718 ||| 0-2 ||| 23 45954
a ||| United States to ||| 0.0454545 0.270828 2.17609e-05 3.46197e-08 2.718 ||| 0-2 ||| 22 45954
a ||| Viktor ||| 0.0169492 0.0338983 2.17609e-05 2.36e-05 2.718 ||| 0-0 ||| 59 45954
a ||| Yugoslavia to ||| 1 0.270828 2.17609e-05 8.5104e-06 2.718 ||| 0-1 ||| 1 45954
a ||| a &quot; ||| 0.00111483 0.0009647 2.17609e-05 3.83047e-06 2.718 ||| 0-0 ||| 897 45954
a ||| a case of cutting off one &apos;s ||| 1 0.0164489 2.17609e-05 1.69252e-18 2.718 ||| 0-2 ||| 1 45954
a ||| a case of cutting off one ||| 1 0.0164489 2.17609e-05 1.08682e-16 2.718 ||| 0-2 ||| 1 45954
a ||| a case of cutting off ||| 1 0.0164489 2.17609e-05 2.70352e-14 2.718 ||| 0-2 ||| 1 45954
a ||| a case of cutting ||| 1 0.0164489 2.17609e-05 2.35191e-11 2.718 ||| 0-2 ||| 1 45954
a ||| a case of ||| 0.0769231 0.0164489 2.17609e-05 6.03054e-07 2.718 ||| 0-2 ||| 13 45954
a ||| a close call ||| 1 0.0723077 2.17609e-05 5.94186e-09 2.718 ||| 0-2 ||| 1 45954
a ||| a concern for ||| 0.142857 0.0587253 2.17609e-05 8.03367e-08 2.718 ||| 0-2 ||| 7 45954
a ||| a cornerstone of ||| 0.0909091 0.0164489 2.17609e-05 5.64088e-09 2.718 ||| 0-2 ||| 11 45954
a ||| a course of ||| 0.0666667 0.0164489 2.17609e-05 3.71951e-07 2.718 ||| 0-2 ||| 15 45954
a ||| a draw in the ||| 0.5 0.0437285 2.17609e-05 8.17592e-09 2.718 ||| 0-2 ||| 2 45954
a ||| a draw in ||| 0.5 0.0437285 2.17609e-05 1.53886e-07 2.718 ||| 0-2 ||| 2 45954
a ||| a finger at ||| 1 0.185652 2.17609e-05 2.67355e-08 2.718 ||| 0-2 ||| 1 45954
a ||| a floor under ||| 0.25 0.0560876 2.17609e-05 1.51821e-09 2.718 ||| 0-2 ||| 4 45954
a ||| a glimpse at ||| 0.333333 0.185652 2.17609e-05 1.33678e-08 2.718 ||| 0-2 ||| 3 45954
a ||| a healthy ||| 0.0555556 0.004386 2.17609e-05 4.74738e-07 2.718 ||| 0-1 ||| 18 45954
a ||| a job in a ||| 1 0.0437285 2.17609e-05 1.03228e-08 2.718 ||| 0-2 ||| 1 45954
a ||| a job in ||| 0.25 0.0437285 2.17609e-05 2.56583e-07 2.718 ||| 0-2 ||| 4 45954
a ||| a literary genius ||| 1 0.0416667 2.17609e-05 3.08579e-12 2.718 ||| 0-1 ||| 1 45954
a ||| a literary ||| 0.5 0.0416667 2.17609e-05 4.74738e-07 2.718 ||| 0-1 ||| 2 45954
a ||| a livelihood for ||| 0.5 0.0587253 2.17609e-05 1.85612e-08 2.718 ||| 0-2 ||| 2 45954
a ||| a long way coming to ||| 0.142857 0.270828 2.17609e-05 5.92141e-12 2.718 ||| 0-4 ||| 7 45954
a ||| a long way toward addressing ||| 0.333333 0.0996678 2.17609e-05 1.57595e-15 2.718 ||| 0-3 ||| 3 45954
a ||| a long way toward ||| 0.0909091 0.0996678 2.17609e-05 4.84907e-11 2.718 ||| 0-3 ||| 11 45954
a ||| a man he trusted , ||| 1 0.0032086 2.17609e-05 3.5377e-15 2.718 ||| 0-2 ||| 1 45954
a ||| a man he trusted ||| 1 0.0032086 2.17609e-05 1.73187e-14 2.718 ||| 0-2 ||| 1 45954
a ||| a man he ||| 0.333333 0.0032086 2.17609e-05 1.33221e-09 2.718 ||| 0-2 ||| 3 45954
a ||| a new fact-finding mission to Kosovo ||| 1 0.270828 2.17609e-05 6.36996e-20 2.718 ||| 0-4 ||| 1 45954
a ||| a new fact-finding mission to ||| 1 0.270828 2.17609e-05 2.44998e-15 2.718 ||| 0-4 ||| 1 45954
a ||| a number of ||| 0.00571429 0.0164489 2.17609e-05 2.98707e-07 2.718 ||| 0-2 ||| 175 45954
a ||| a point where it had to be ||| 1 0.270828 2.17609e-05 6.34137e-16 2.718 ||| 0-5 ||| 1 45954
a ||| a point where it had to ||| 1 0.270828 2.17609e-05 6.15285e-14 2.718 ||| 0-5 ||| 1 45954
a ||| a ratio to ||| 1 0.270828 2.17609e-05 5.13586e-07 2.718 ||| 0-2 ||| 1 45954
a ||| a reliable guide ||| 0.333333 0.108527 2.17609e-05 1.72804e-10 2.718 ||| 0-2 ||| 3 45954
a ||| a response to an explicit ||| 0.125 0.270828 2.17609e-05 1.15434e-13 2.718 ||| 0-2 ||| 8 45954
a ||| a response to an ||| 0.125 0.270828 2.17609e-05 4.43976e-09 2.718 ||| 0-2 ||| 8 45954
a ||| a response to ||| 0.0384615 0.270828 2.17609e-05 1.28265e-06 2.718 ||| 0-2 ||| 26 45954
a ||| a return to ||| 0.00970874 0.270828 2.17609e-05 2.82209e-06 2.718 ||| 0-2 ||| 103 45954
a ||| a rule of law that protects ||| 0.5 0.291667 2.17609e-05 5.64426e-17 2.718 ||| 0-5 ||| 2 45954
a ||| a seat at ||| 0.125 0.185652 2.17609e-05 6.6736e-08 2.718 ||| 0-2 ||| 8 45954
a ||| a sharp challenge to ||| 1 0.270828 2.17609e-05 1.05465e-10 2.718 ||| 0-3 ||| 1 45954
a ||| a slowdown in ||| 0.0666667 0.0437285 2.17609e-05 4.10785e-08 2.718 ||| 0-2 ||| 15 45954
a ||| a source of ||| 0.00925926 0.0164489 2.17609e-05 9.01674e-08 2.718 ||| 0-2 ||| 108 45954
a ||| a strong ||| 0.00448431 0.0009647 2.17609e-05 1.59383e-07 2.718 ||| 0-0 ||| 223 45954
a ||| a willingness to ||| 0.05 0.270828 2.17609e-05 5.13586e-07 2.718 ||| 0-2 ||| 20 45954
a ||| a year on ||| 0.0909091 0.0963759 2.17609e-05 4.90213e-07 2.718 ||| 0-2 ||| 11 45954
a ||| a year to ||| 0.0833333 0.270828 2.17609e-05 6.24336e-06 2.718 ||| 0-2 ||| 12 45954
a ||| a ||| 0.000594875 0.0009647 0.000848675 0.000767 2.718 ||| 0-0 ||| 65560 45954
a ||| abandoned them ||| 0.333333 0.0576923 2.17609e-05 2.076e-07 2.718 ||| 0-0 ||| 3 45954
a ||| abandoned ||| 0.028777 0.0576923 8.70436e-05 0.0001062 2.718 ||| 0-0 ||| 139 45954
a ||| ability to generate public awareness and set ||| 1 0.270828 2.17609e-05 4.81936e-23 2.718 ||| 0-1 ||| 1 45954
a ||| ability to generate public awareness and ||| 1 0.270828 2.17609e-05 5.70811e-20 2.718 ||| 0-1 ||| 1 45954
a ||| ability to generate public awareness ||| 1 0.270828 2.17609e-05 6.79772e-18 2.718 ||| 0-1 ||| 1 45954
a ||| ability to generate public ||| 1 0.270828 2.17609e-05 3.48601e-13 2.718 ||| 0-1 ||| 1 45954
a ||| ability to generate ||| 0.5 0.270828 2.17609e-05 9.94015e-10 2.718 ||| 0-1 ||| 2 45954
a ||| ability to ||| 0.00301205 0.270828 2.17609e-05 1.91157e-05 2.718 ||| 0-1 ||| 332 45954
a ||| able to melt the shackles of these ||| 1 0.270828 2.17609e-05 6.32174e-21 2.718 ||| 0-1 ||| 1 45954
a ||| able to melt the shackles of ||| 1 0.270828 2.17609e-05 8.2497e-18 2.718 ||| 0-1 ||| 1 45954
a ||| able to melt the shackles ||| 1 0.270828 2.17609e-05 3.05362e-16 2.718 ||| 0-1 ||| 1 45954
a ||| able to melt the ||| 1 0.270828 2.17609e-05 4.69788e-11 2.718 ||| 0-1 ||| 1 45954
a ||| able to melt ||| 1 0.270828 2.17609e-05 8.84231e-10 2.718 ||| 0-1 ||| 1 45954
a ||| able to recall ||| 1 0.270828 2.17609e-05 4.42115e-09 2.718 ||| 0-1 ||| 1 45954
a ||| able to ||| 0.0143885 0.270828 0.000130565 0.000136035 2.718 ||| 0-1 ||| 417 45954
a ||| about &amp; # 45 ; &amp; # ||| 1 0.0244529 2.17609e-05 7.753e-21 2.718 ||| 0-0 ||| 1 45954
a ||| about &amp; # 45 ; &amp; ||| 1 0.0244529 2.17609e-05 8.23298e-18 2.718 ||| 0-0 ||| 1 45954
a ||| about &amp; # 45 ; ||| 1 0.0244529 2.17609e-05 5.8419e-15 2.718 ||| 0-0 ||| 1 45954
a ||| about &amp; # 45 ||| 1 0.0244529 2.17609e-05 3.29511e-12 2.718 ||| 0-0 ||| 1 45954
a ||| about &amp; # ||| 1 0.0244529 2.17609e-05 2.8345e-09 2.718 ||| 0-0 ||| 1 45954
a ||| about &amp; ||| 1 0.0244529 2.17609e-05 3.00998e-06 2.718 ||| 0-0 ||| 1 45954
a ||| about -- first ||| 0.5 0.0244529 2.17609e-05 5.2992e-09 2.718 ||| 0-0 ||| 2 45954
a ||| about -- ||| 0.25 0.0244529 2.17609e-05 1.07358e-05 2.718 ||| 0-0 ||| 4 45954
a ||| about whom ||| 0.333333 0.129741 2.17609e-05 9.31445e-07 2.718 ||| 0-1 ||| 3 45954
a ||| about ||| 0.00492438 0.0244529 0.000609305 0.0021358 2.718 ||| 0-0 ||| 5686 45954
a ||| above ||| 0.0014245 0.0050125 2.17609e-05 4.72e-05 2.718 ||| 0-0 ||| 702 45954
a ||| absolved of ||| 1 0.0164489 2.17609e-05 1.40209e-07 2.718 ||| 0-1 ||| 1 45954
a ||| access ||| 0.00273973 0.0239521 4.35218e-05 0.0002832 2.718 ||| 0-0 ||| 730 45954
a ||| accession ||| 0.00364964 0.17603 2.17609e-05 0.0005546 2.718 ||| 0-0 ||| 274 45954
a ||| accommodates ||| 0.0909091 0.375 2.17609e-05 3.54e-05 2.718 ||| 0-0 ||| 11 45954
a ||| accompany Barak to Washington , will make ||| 1 0.170732 2.17609e-05 1.07135e-21 2.718 ||| 0-0 ||| 1 45954
a ||| accompany Barak to Washington , will ||| 1 0.170732 2.17609e-05 8.12675e-19 2.718 ||| 0-0 ||| 1 45954
a ||| accompany Barak to Washington , ||| 1 0.170732 2.17609e-05 1.1761e-16 2.718 ||| 0-0 ||| 1 45954
a ||| accompany Barak to Washington ||| 1 0.170732 2.17609e-05 5.75757e-16 2.718 ||| 0-0 ||| 1 45954
a ||| accompany Barak to ||| 1 0.170732 2.17609e-05 4.4289e-11 2.718 ||| 0-0 ||| 1 45954
a ||| accompany Barak ||| 1 0.170732 2.17609e-05 5.369e-10 2.718 ||| 0-0 ||| 1 45954
a ||| accompany him on ||| 1 0.0963759 2.17609e-05 1.16086e-10 2.718 ||| 0-2 ||| 1 45954
a ||| accompany ||| 0.03125 0.170732 2.17609e-05 8.26e-05 2.718 ||| 0-0 ||| 32 45954
a ||| accord with ||| 0.125 0.0330797 2.17609e-05 1.09375e-07 2.718 ||| 0-1 ||| 8 45954
a ||| accordingly ||| 0.0120482 0.0232558 2.17609e-05 3.54e-05 2.718 ||| 0-0 ||| 83 45954
a ||| account for ||| 0.0140845 0.0587253 4.35218e-05 2.76576e-06 2.718 ||| 0-1 ||| 142 45954
a ||| accused ||| 0.016129 0.1875 4.35218e-05 0.0004248 2.718 ||| 0-0 ||| 124 45954
a ||| accustomed to ||| 0.027027 0.270828 2.17609e-05 2.1276e-06 2.718 ||| 0-1 ||| 37 45954
a ||| aced ||| 1 1 2.17609e-05 1.18e-05 2.718 ||| 0-0 ||| 1 45954
a ||| achieve as ||| 0.142857 0.0289876 2.17609e-05 1.20788e-06 2.718 ||| 0-1 ||| 7 45954
a ||| achieve greater scale in ||| 0.5 0.0437285 2.17609e-05 6.9921e-14 2.718 ||| 0-3 ||| 2 45954
a ||| across Afghanistan ||| 1 0.0490798 2.17609e-05 4.9088e-09 2.718 ||| 0-0 ||| 1 45954
a ||| across borders ||| 0.05 0.0490798 2.17609e-05 1.96352e-08 2.718 ||| 0-0 ||| 20 45954
a ||| across ||| 0.00547046 0.0490798 0.000108804 0.0007552 2.718 ||| 0-0 ||| 914 45954
a ||| act on ||| 0.0434783 0.0963759 2.17609e-05 4.00672e-06 2.718 ||| 0-1 ||| 23 45954
a ||| act to ||| 0.0666667 0.270828 2.17609e-05 5.10297e-05 2.718 ||| 0-1 ||| 15 45954
a ||| activities are concerned ||| 0.5 0.0769231 2.17609e-05 1.09027e-10 2.718 ||| 0-2 ||| 2 45954
a ||| activity appears likelier to engender additional goodwill ||| 1 0.270828 2.17609e-05 8.27612e-29 2.718 ||| 0-3 ||| 1 45954
a ||| activity appears likelier to engender additional ||| 1 0.270828 2.17609e-05 6.36625e-24 2.718 ||| 0-3 ||| 1 45954
a ||| activity appears likelier to engender ||| 1 0.270828 2.17609e-05 1.09011e-19 2.718 ||| 0-3 ||| 1 45954
a ||| activity appears likelier to ||| 1 0.270828 2.17609e-05 1.67709e-14 2.718 ||| 0-3 ||| 1 45954
a ||| actually help ||| 0.5 0.350156 2.17609e-05 2.40054e-06 2.718 ||| 0-1 ||| 2 45954
a ||| actually represent ||| 1 0.0085106 2.17609e-05 5.36428e-09 2.718 ||| 0-1 ||| 1 45954
a ||| add to ||| 0.0540541 0.270828 4.35218e-05 2.76261e-05 2.718 ||| 0-1 ||| 37 45954
a ||| add up to anything ||| 0.333333 0.270828 2.17609e-05 1.40144e-11 2.718 ||| 0-2 ||| 3 45954
a ||| add up to ||| 0.0434783 0.270828 2.17609e-05 8.62956e-08 2.718 ||| 0-2 ||| 23 45954
a ||| added to ||| 0.0625 0.270828 4.35218e-05 2.12433e-05 2.718 ||| 0-1 ||| 32 45954
a ||| addiction ||| 0.0212766 0.133333 2.17609e-05 7.08e-05 2.718 ||| 0-0 ||| 47 45954
a ||| adding to ||| 0.0357143 0.270828 2.17609e-05 1.0638e-05 2.718 ||| 0-1 ||| 28 45954
a ||| addition to ||| 0.111111 0.270828 2.17609e-05 2.76261e-05 2.718 ||| 0-1 ||| 9 45954
a ||| additional toll on ||| 1 0.0963759 2.17609e-05 4.87797e-11 2.718 ||| 0-2 ||| 1 45954
a ||| address at the ||| 0.5 0.185652 2.17609e-05 1.4109e-07 2.718 ||| 0-1 ||| 2 45954
a ||| address at ||| 0.5 0.185652 2.17609e-05 2.65558e-06 2.718 ||| 0-1 ||| 2 45954
a ||| adjust them to ||| 1 0.270828 2.17609e-05 1.24771e-08 2.718 ||| 0-2 ||| 1 45954
a ||| administrative ||| 0.00833333 0.0079365 2.17609e-05 1.18e-05 2.718 ||| 0-0 ||| 120 45954
a ||| admittedly are back ||| 1 0.0671913 2.17609e-05 1.26062e-10 2.718 ||| 0-2 ||| 1 45954
a ||| advance toward ||| 0.5 0.0996678 2.17609e-05 7.58268e-08 2.718 ||| 0-1 ||| 2 45954
a ||| advice to ||| 0.0909091 0.270828 2.17609e-05 1.91157e-05 2.718 ||| 0-1 ||| 11 45954
a ||| affect the US &quot; far more than ||| 1 0.25256 2.17609e-05 1.69759e-19 2.718 ||| 0-0 ||| 1 45954
a ||| affect the US &quot; far more ||| 1 0.25256 2.17609e-05 4.21656e-16 2.718 ||| 0-0 ||| 1 45954
a ||| affect the US &quot; far ||| 1 0.25256 2.17609e-05 1.97349e-13 2.718 ||| 0-0 ||| 1 45954
a ||| affect the US &quot; ||| 1 0.25256 2.17609e-05 2.9793e-10 2.718 ||| 0-0 ||| 1 45954
a ||| affect the US ||| 0.5 0.25256 2.17609e-05 5.96565e-08 2.718 ||| 0-0 ||| 2 45954
a ||| affect the ||| 0.0322581 0.25256 2.17609e-05 4.63928e-05 2.718 ||| 0-0 ||| 31 45954
