ad ||| af ||| 0.3 0.3 0.3 0.3 0.11579 0.35574 0.472359 0.469238 2.718 ||| 0-0 ||| 25332.4712297 1074.23173673
bd ||| bf ||| 0.3 0.3 0.3 0.3 0.11579 0.35574 0.472359 0.469238 2.718 ||| 0-0 ||| 253.324712297 10.7423173673
der gipfel ||| sommet ||| 0.3 0.3 0.3 0.3 0.00327135 0.00686984 0.0366795 0.617135 2.718 ||| 1-0 ||| 5808.0 518.0
der pass ||| le col ||| 0.3 0.3 0.3 0.3 0.0173565 0.023534 0.284201 0.0972183 2.718 ||| 0-0 1-1 ||| 749.0 45.7423173673
der pass ||| le passeport ||| 6e-10 6e-10 6e-10 6e-10 0.16 0.0329324 0.0064913 0.00303408 2.718 ||| 0-0 1-1 ||| 608.311780741 45.7423173673
pass ||| col ||| 0.3 0.3 0.3 0.3 0.1952 0.142393 0.6222 0.671744 2.718 ||| 0-0 ||| 1875.0 588.235465885
pass ||| passeport retrouvé ||| 0.3 0.3 0.3 0.3 0.5 0.199258 0.0017 5.11945e-07 2.718 ||| 0-0 ||| 2.0 588.235465885
pass ||| passeport ||| 0.3 0.3 0.3 0.3 0.280174 0.199258 0.0132359 0.0209644 2.718 ||| 0-0 ||| 4443.5097638 588.235465885
sitzung ||| séance ||| 0.3 0.3 0.3 0.3 0.784412 0.59168 0.511045 0.552002 2.718 ||| 0-0 ||| 103459.335197 496.165860589
