ad ||| af ||| 0.5 0.5 0.5 0.5 ||| 0-0 ||| 1000.0 1000.0
bd ||| bf ||| 0.5 0.5 0.5 0.5 ||| 0-0 ||| 10.0 10.0
der gipfel ||| sommet ||| 0.00327135 0.00872769 0.0366795 0.611404 ||| 1-0 ||| 5808.0 518.0
der pass ||| le col ||| 0.0173565 0.0284616 0.288889 0.121619 ||| 0-0 1-1 ||| 749.0 45.0
pass ||| col ||| 0.1952 0.143937 0.628866 0.681301 ||| 0-0 ||| 1875.0 582.0
pass ||| passeport retrouvé ||| 0.5 0.25 0.00171821 3.80847e-07 ||| 0-0 ||| 2.0 582.0
pass ||| passeport ||| 0.266667 0.25 0.00687285 0.0113821 ||| 0-0 ||| 15.0 582.0
sitzung ||| séance ||| 0.272727 0.237288 0.352941 0.424242 ||| 0-0 ||| 22.0 17.0
