ad ||| af ||| 0.242966 0.398085 0.483231 0.482814 2.718 ||| 0-0 ||| 2797.86490081 1043.7557397
bd ||| bf ||| 0.102213 0.111367 0.174411 0.172867 2.718 ||| 0-0 ||| 1807.86490081 53.7557396976
der gipfel ||| sommet ||| 0.00327135 0.00863717 0.0366795 0.612073 2.718 ||| 1-0 ||| 5808.0 518.0
der pass ||| le col ||| 0.0173565 0.0260469 0.146469 0.113553 2.718 ||| 0-0 1-1 ||| 749.0 88.7557396976
der pass ||| le passeport ||| 0.16 0.0389201 0.197196 0.0101009 2.718 ||| 0-0 1-1 ||| 1797.86490081 88.7557396976
pass ||| col ||| 0.1952 0.131811 0.584893 0.63621 2.718 ||| 0-0 ||| 1875.0 625.755739698
pass ||| passeport retrouvé ||| 0.5 0.196956 0.00159806 1.89355e-06 2.718 ||| 0-0 ||| 2.0 625.755739698
pass ||| passeport ||| 0.280108 0.196956 0.0488465 0.0565932 2.718 ||| 0-0 ||| 1812.86490081 625.755739698
sitzung ||| séance ||| 0.778334 0.545019 0.470846 0.502625 2.718 ||| 0-0 ||| 1819.86490081 60.7557396976
