ad ||| af ||| 0.242882 0.39808 0.483231 0.482813 ||| 0-0 ||| 2799.50876845 1043.75589858
bd ||| bf ||| 0.102211 0.111366 0.17441 0.172864 ||| 0-0 ||| 1809.50876845 53.7558985771
der gipfel ||| sommet ||| 0.00327135 0.00863716 0.0366795 0.612073 ||| 1-0 ||| 5808.0 518.0
der pass ||| le col ||| 0.0173565 0.0260468 0.146469 0.113553 ||| 0-0 1-1 ||| 749.0 88.7558985771
der pass ||| le passeport ||| 0.16 0.03892 0.197197 0.0101013 ||| 0-0 1-1 ||| 1799.50876845 88.7558985771
pass ||| col ||| 0.1952 0.13181 0.584893 0.636208 ||| 0-0 ||| 1875.0 625.755898577
pass ||| passeport retrouvé ||| 0.5 0.196956 0.00159806 1.89361e-06 ||| 0-0 ||| 2.0 625.755898577
pass ||| passeport ||| 0.280108 0.196956 0.0488467 0.056595 ||| 0-0 ||| 1814.50876845 625.755898577
sitzung ||| séance ||| 0.77834 0.545022 0.470846 0.502627 ||| 0-0 ||| 1821.50876845 60.7558985771
