ad ||| af ||| 0.117462 0.117462 0.117462 0.117462 2.718 ||| 0-0 ||| 1000 1000
bd ||| bf ||| 0.117462 0.117462 0.117462 0.117462 2.718 ||| 0-0 ||| 10 10
pass ||| passeport ||| 0.278834 0.197701 0.387861 0.449295 2.718 ||| 0-0 ||| 182 84
sitzung ||| séance ||| 0.705857 0.545304 0.497336 0.544877 2.718 ||| 0-0 ||| 4251 6455
