ad [X][X] [X] ||| af [X][X] [X] ||| 0.14 0.136364 0.18 0.3 ||| 0-0 1-1 ||| 10000.0 5000.0
bd [X] ||| bf [X] ||| 0.14 0.136364 0.18 0.3 ||| 0-0 ||| 100.0 50.0
der [X][X] pass [X] ||| le [X][X] passeport [X] ||| 0.16 0.0307772 0.4 0.0128336 ||| 0-0 1-1 2-2 ||| 225.0 40.0
der gipfel [X] ||| sommet [X] ||| 0.00327135 0.00569336 0.0366795 0.651018 ||| 1-0 ||| 5808.0 518.0
der [X][X] pass [X] ||| le [X][X] col [X] ||| 0.0173565 0.0193836 0.288889 0.0675369 ||| 0-0 1-1 2-2 ||| 749.0 45.0
pass [X] ||| col [X] ||| 0.1952 0.121573 0.398693 0.582296 ||| 0-0 ||| 1875.0 918.0
pass [X] ||| passeport [X] ||| 0.280097 0.193033 0.22658 0.11065 ||| 0-0 ||| 1653.0 918.0
pass [X] ||| passeport retrouvé [X] ||| 0.5 0.193033 0.00108932 1.16835e-06 ||| 0-0 ||| 2.0 918.0
[X][X] sitzung [X] ||| [X][X] séance [X] ||| 0.784227 0.597753 0.516546 0.559514 ||| 0-0 1-1 ||| 38281.0 25837.0
