ad ||| af ||| 0.5 0.398085 0.5 0.482814 2.718 ||| 0-0 ||| 1000.000001 1000.000001
bd ||| bf ||| 0.5 0.111367 0.5 0.172867 2.718 ||| 0-0 ||| 10.00000001 10.00000001
der gipfel ||| sommet ||| 0.00327135 0.00863717 0.0366795 0.612073 2.718 ||| 1-0 ||| 5808.0 518.0
der pass ||| le col ||| 0.0173565 0.0260469 0.288889 0.113553 2.718 ||| 0-0 1-1 ||| 749.0 45.00000001
der pass ||| le passeport ||| 0.0064 0.0389201 8.88889e-12 0.0101009 2.718 ||| 0-0 1-1 ||| 2.5e-08 45.00000001
pass ||| col ||| 0.1952 0.131811 0.628866 0.63621 2.718 ||| 0-0 ||| 1875.0 582.000000084
pass ||| passeport retrouvé ||| 0.5 0.196956 0.00171821 1.89355e-06 2.718 ||| 0-0 ||| 2.0 582.000000084
pass ||| passeport ||| 0.266667 0.196956 0.00687285 0.0565932 2.718 ||| 0-0 ||| 15.000000182 582.000000084
sitzung ||| séance ||| 0.272727 0.545019 0.352941 0.502625 2.718 ||| 0-0 ||| 22.000004251 17.000006455
