ad ||| af ||| 0.3 0.3 0.3 0.3 2.718 ||| 0-0 ||| 1000 1000
bd ||| bf ||| 0.3 0.3 0.3 0.3 2.718 ||| 0-0 ||| 10 10
der gipfel ||| sommet ||| 0.00163568 0.00436384 0.0183397 0.305702 2.718 ||| 1-0 ||| 5808 518
der pass ||| le col ||| 0.00867825 0.0142308 0.144445 0.0608095 2.718 ||| 0-0 1-1 ||| 749 45
pass ||| col ||| 0.0976 0.0719685 0.314433 0.340651 2.718 ||| 0-0 ||| 1875 582
pass ||| passeport retrouvé ||| 0.25 0.125 0.000859105 1.9065e-07 2.718 ||| 0-0 ||| 2 582
pass ||| passeport ||| 0.273444 0.221306 0.307008 0.343654 2.718 ||| 0-0 ||| 182 84
sitzung ||| séance ||| 0.528624 0.417705 0.434797 0.492241 2.718 ||| 0-0 ||| 4251 6455
