ad ||| af ||| 0.3 0.3 0.3 0.3 0.115771 0.35574 0.472359 0.469238 ||| 0-0 ||| 25362.6029089 1074.23173673 ||| sparse_feature 1
bd ||| bf ||| 0.3 0.3 0.3 0.3 0.115771 0.35574 0.472359 0.469238 ||| 0-0 ||| 253.626029089 10.7423173673 ||| 
der gipfel ||| sommet ||| 0.3 0.3 0.3 0.3 0.00327135 0.00686984 0.0366795 0.617135 ||| 1-0 ||| 5808.0 518.0
der pass ||| le col ||| 0.3 0.3 0.3 0.3 0.0173565 0.023534 0.284201 0.0972183 ||| 0-0 1-1 ||| 749.0 45.7423173673
der pass ||| le passeport ||| 6e-10 6e-10 6e-10 6e-10 0.16 0.0329324 0.0064913 0.00303408 ||| 0-0 1-1 ||| 609.065072723 45.7423173673
pass ||| col ||| 0.3 0.3 0.3 0.3 0.1952 0.142393 0.6222 0.671744 ||| 0-0 ||| 1875.0 588.235465885
pass ||| passeport retrouvé ||| 0.3 0.3 0.3 0.3 0.5 0.199258 0.0017 5.11945e-07 ||| 0-0 ||| 2.0 588.235465885
pass ||| passeport ||| 0.3 0.3 0.3 0.3 0.280174 0.199258 0.0132359 0.0209644 ||| 0-0 ||| 4448.99372942 588.235465885
sitzung ||| séance ||| 0.3 0.3 0.3 0.3 0.784412 0.59168 0.511045 0.552002 ||| 0-0 ||| 103587.424966 496.165860589
