ad ||| af ||| 0.14 0.136364 0.18 0.3 ||| 0-0 ||| 1000 1000
bd ||| bf ||| 0.14 0.136364 0.18 0.3 ||| 0-0 ||| 10 10
der gipfel ||| sommet ||| 0.000327135 0.000793425 0.0073359 0.305702 ||| 1-0 ||| 5808 518
der pass ||| le col ||| 0.00173565 0.00258742 0.0577778 0.0608095 ||| 0-0 1-1 ||| 749 45
der pass ||| le passeport ||| 0.144 0.0278455 0.32 0.0374275 ||| 0-0 1-1 ||| 25 10
pass ||| col ||| 0.01952 0.0130852 0.125773 0.340651 ||| 0-0 ||| 1875 582
pass ||| passeport retrouvé ||| 0.05 0.0227273 0.000343642 1.9065e-07 ||| 0-0 ||| 2 582
pass ||| passeport ||| 0.278865 0.197829 0.487089 0.343654 ||| 0-0 ||| 15 582
sitzung ||| séance ||| 0.733342 0.56532 0.483911 0.492241 ||| 0-0 ||| 22 17
