ad ||| af ||| 0.45 0.45 0.45 0.45 0.14 0.136364 0.18 0.3 ||| 0-0 ||| 10000.0 5000.0 ||| sparse_feature 1
bd ||| bf ||| 0.45 0.45 0.45 0.45 0.14 0.136364 0.18 0.3 ||| 0-0 ||| 100.0 50.0 ||| 
der gipfel ||| sommet ||| 0.15 0.15 0.15 0.15 0.00327135 0.00569336 0.0366795 0.651018 ||| 1-0 ||| 5808.0 518.0
der pass ||| le col ||| 0.15 0.15 0.15 0.15 0.0173565 0.0193836 0.152941 0.0675369 ||| 0-0 1-1 ||| 749.0 85.0
der pass ||| le passeport ||| 0.3 0.3 0.3 0.3 0.16 0.0307772 0.188235 0.0128336 ||| 0-0 1-1 ||| 225.0 85.0
pass ||| col ||| 0.15 0.15 0.15 0.15 0.1952 0.121573 0.398693 0.582296 ||| 0-0 ||| 1875.0 918.0
pass ||| passeport retrouvé ||| 0.15 0.15 0.15 0.15 0.5 0.193033 0.00108932 1.16835e-06 ||| 0-0 ||| 2.0 918.0
pass ||| passeport ||| 0.45 0.45 0.45 0.45 0.280097 0.193033 0.22658 0.11065 ||| 0-0 ||| 1653.0 918.0
sitzung ||| séance ||| 0.45 0.45 0.45 0.45 0.784227 0.597753 0.516546 0.559514 ||| 0-0 ||| 38281.0 25837.0
