
\data\
ngram 1=6
ngram 2=15

\1-grams:
-1	</s>
-99	<s>	-1
-1	a	-1
-1	b	-1
-1	c	-1
-1	d	-1

\2-grams:
-0.1	<s> a
-0.2	<s> b
-0.3	<s> c
-0.1	a a
-0.2	a b
-0.3	a c
-0.2	b a
-0.2	b b
-0.2	b c
-0.3	c a
-0.2	c b
-0.1	c c
-0.5    c </s>
-0.4    b </s>
-0.3    a </s>
\end\
