! ! 0.8836014
! " 0.0008185
! ' 0.0003351
! 'er 0.2000000
! 's 0.0001323
! ( 0.0021606
! ) 0.0015924
! + 0.0013755
! , 0.0238726
! - 0.0020883
! . 0.0055827
! / 0.0001696
! 15 0.0002086
! 1999 0.0001979
! 2004 0.0001977
! 25 0.0002535
! 33 0.0019569
! 4 0.0002228
! 42 0.0018519
! 43 0.0018975
! 7 0.0003372
! : 0.0009426
! ; 0.0027427
! ? 0.0033713
! ALDE 0.0029197
! ALE 0.0055021
! Adam 0.0052632
! Affairs 0.0000852
! Agriculture 0.0003917
! Aguirre 0.1428571
! Alavanos 0.0573770
! Albertini 0.0169492
! Altmaier 0.3333333
! Amendment 0.0002290
! America 0.0008274
! Anastase 0.0714286
! Andrikienė 0.1428571
! Antunes 0.0256410
! Apolinário 0.1000000
! Arias 0.0129032
! Arvidsson 0.0526316
! Azores 0.0032787
! BSE 0.0005118
! Bank 0.0002136
! Barroso 0.0023952
! Berlinguer 0.1000000
! Bertens 0.0058140
! Bloom 0.0476190
! Bosch 0.1250000
! Brok 0.0011416
! Budgetary 0.0013793
! Budgets 0.0004310
! Budreikatė 0.5000000
! Březina 0.0833333
! Campos 0.0061350
! Carthage 0.0769231
! Casaca 0.0049020
! Chairman 0.0010373
! Charter 0.0003235
! Claeys 0.0526316
! Colleagues 0.2195122
! Commissaire 0.3333333
! Commission 0.0001863
! Commissioner 0.0092443
! Commissioner. 0.3333333
! Committee 0.0002143
! Control 0.0012005
! Convention 0.0001184
! Council 0.0002744
! Coûteaux 0.0416667
! Crianlarich 0.3333333
! Czarnecki 0.1153846
! DA 0.0034130
! DE 0.0031496
! Davies 0.0168539
! Dear 0.0645161
! Development 0.0002178
! Dimitrakopoulos 0.0188679
! Dunn 0.0396040
! ES 0.0326316
! EU 0.0000499
! Eminence 0.1000000
! Ephremidis 0.0400000
! Eurodac 0.0027778
! Europe 0.0001614
! European 0.0000456
! Evans 0.0025510
! FR 0.0018727
! Falconer 0.0400000
! Fiat 0.0625000
! Flynn 0.0040161
! Fraisse 0.0129870
! GA 0.0131579
! GMOs 0.0007547
! Gabriel 0.1052632
! Gallou 0.0500000
! Gastinger 0.1250000
! Gentlemen 0.1754386
! Giansily 0.0062893
! Gillis 0.0285714
! Gloser 0.0943396
! González 0.0051414
! Group 0.0037415
! Habsburg-Lothringen 0.0888889
! Halonen 0.0317460
! Happart 0.0140845
! Harbour 0.0022831
! Hell 0.3333333
! Herman 0.0029940
! Hold 0.3333333
! Honourable 0.0064935
! House 0.0003214
! Hulten 0.0075758
! Hussein 0.0013089
! Hyland 0.0657895
! I 0.0010488
! I. 0.0067568
! ITS 0.0098039
! Internet 0.0003245
! Iraq 0.0001619
! Israel 0.0002524
! Jouyet 0.0689655
! July 0.0003428
! Kaczmarek 0.0344828
! Kallas 0.0068493
! Kamwenho 0.1428571
! Kratsa-Tsagaropoulou 0.0210526
! LIFE 0.0023529
! Lamy 0.0080483
! Latin 0.0006309
! Lehtomäki 0.1645570
! Leichtfried 0.0256410
! Lemierre 0.1666667
! Lewis 0.1200000
! Lisbon 0.0001004
! Lucas 0.0042918
! Madam 0.0001602
! Mastenbroek 0.1250000
! Mauro 0.0235294
! Mavrommatis 0.0117647
! McCreevy 0.0025381
! Member 0.0000130
! Messerschmidt 0.5000000
! Minister 0.0032042
! Mitchell 0.0084034
! Mr 0.0002274
! Mrs 0.0003905
! NL 0.0061633
! NULL 0.0001090
! Never 0.1250000
! Newens 0.0547945
! Nicholson 0.0089286
! No 0.0002978
! Number 0.0555556
! Oh 0.0476190
! One 0.0073529
! Ortega 0.0189274
! PL 0.0080483
! PPE-DE 0.0093458
! PSE 0.0147472
! PT 0.0011574
! Panayotopoulos-Cassiotou 0.0447761
! Papadimoulis 0.0238095
! Papoulias 0.5000000
! Paragraph 0.0037037
! Parliament 0.0000339
! Petersen 0.0533333
! Pflüger 0.0222222
! Pimenta 0.0071429
! Poettering 0.0027855
! Posselt 0.0065359
! President 0.1806076
! President-in 0.1875000
! President-in-Office 0.0335161
! Procedure 0.0002418
! Prodi 0.0003917
! Randzio-Plath 0.0025707
! Regulation 0.0004985
! Representative 0.0021097
! Respect 0.0833333
! Respected 0.3333333
! Roithová 0.0263158
! Rojo 0.0517241
! Rossa 0.0112994
! Rostock 0.1666667
! Rothe 0.0068027
! Rule 0.0003525
! Rural 0.0007485
! Rübig 0.0087719
! Saddam 0.0010661
! Sakellariou 0.0068027
! Sanchez-Neyra 0.2000000
! Sbarbati 0.0227273
! Secretary 0.0028011
! Seeber 0.0454545
! Seppänen 0.0124481
! Socialist 0.0003575
! Sommer 0.0126582
! Spain 0.0002963
! Speaker 0.0198020
! State 0.0000710
! States 0.0000123
! Stefanis 0.1428571
! Sterckx 0.0035842
! Sudan 0.0009911
! Sudre 0.0217391
! Swedish 0.0004168
! Sánchez-Neyra 0.0091743
! Sócrates 0.0129870
! Tatarella 0.2000000
! Teverson 0.0089286
! That 0.0090909
! Thee 0.2500000
! Theonas 0.0200000
! Titford 0.0294118
! To 0.0188679
! Tomaszewska 0.1250000
! Tourism 0.0007930
! Tous 0.0333333
! Treaty 0.0000565
! Turco 0.0194175
! UEN 0.0137931
! Union 0.0000671
! Us 0.2857143
! Valdivielso 0.0153846
! Verheugen 0.0030120
! Verts 0.0059259
! Vice 0.0500000
! Vice-President 0.0027579
! Wagau 0.5000000
! Wallstöm 0.5000000
! Washington 0.0016287
! Wemheuer 0.0140845
! West 0.0006423
! Winkler 0.0454545
! Yes 0.0076336
! You 0.0089286
! Zorba 0.0666667
! a 0.0000114
! about 0.0002763
! absence 0.0004873
! account 0.0000689
! acts 0.0003900
! actually 0.0001995
! add 0.0005099
! address 0.0001511
! adjacent 0.0113636
! advertisements 0.0056818
! afraid 0.0006196
! again 0.0002729
! against 0.0001440
! agenda 0.0003505
! agree 0.0001883
! agreement 0.0000389
! alarming 0.0014124
! all 0.0001697
! allow 0.0005926
! already 0.0001068
! although 0.0017616
! am 0.0006987
! amazed 0.0031847
! amendment 0.0000788
! an 0.0001109
! and 0.0000428
! another 0.0001297
! answer 0.0018805
! anyone 0.0003043
! apologise 0.0008961
! appointment 0.0010893
! appétit 0.0909091
! are 0.0000141
! armada 0.1250000
! ask 0.0001765
! asked 0.0002592
! asking 0.0002771
! at 0.0000846
! attention 0.0001441
! attracting 0.0050505
! author 0.0018727
! basic 0.0007837
! basically 0.0004244
! because 0.0000587
! becoming 0.0002431
! been 0.0000688
! before 0.0003123
! begin 0.0007508
! behalf 0.0004476
! behind 0.0001819
! belief 0.0007559
! believe 0.0001127
! belong 0.0008826
! beloved 0.0312500
! best 0.0000900
! between 0.0000237
! bizarre 0.0049751
! blamed 0.0042918
! both 0.0000342
! brief 0.0051546
! briefly 0.0007342
! brutal 0.0019157
! budget 0.0002119
! burden 0.0003611
! business 0.0001523
! businesses 0.0002194
! but 0.0000846
! by 0.0000154
! can 0.0001248
! candidates 0.0007541
! cannot 0.0000941
! cards 0.0018762
! catch 0.0010504
! celebrating 0.0067114
! certainly 0.0002283
! challenges 0.0002073
! changing 0.0004052
! chaptalisation 0.0769231
! charged 0.0016447
! check 0.0006064
! cheery 0.1428571
! child 0.0006515
! chosen 0.0005227
! cinema 0.0042373
! circus 0.0086207
! clarification 0.0041899
! cleansing 0.0036765
! clear 0.0000367
! clearly 0.0005013
! close 0.0001605
! coincidence 0.0057971
! colleague 0.0004889
! come 0.0001764
! comitology 0.0010776
! comment 0.0013444
! comments 0.0024938
! common 0.0000836
! communications 0.0006227
! competition 0.0000866
! complaint 0.0013755
! complex 0.0003338
! complicated 0.0006485
! compliments 0.0038314
! concentrate 0.0004144
! concern 0.0001864
! conciliation 0.0004303
! concur 0.0029499
! condemn 0.0005737
! congratulate 0.0009190
! congratulations 0.0016465
! constitution 0.0004733
! consumers 0.0000882
! continent 0.0004281
! contradiction 0.0011587
! contradicts 0.0034602
! contrary 0.0004107
! correct 0.0006301
! could 0.0000695
! countries 0.0000154
! crazy 0.0055866
! created 0.0002249
! credible 0.0008071
! crept 0.0117647
! criminality 0.0043860
! crux 0.0042373
! culture 0.0002306
! cut 0.0003269
! days 0.0004438
! de 0.0013280
! deal 0.0000801
! dear 0.0012240
! debate 0.0004299
! decide 0.0002064
! decision 0.0001274
! decisions 0.0000892
! defending 0.0007199
! delay 0.0003597
! destruction 0.0005821
! detailed 0.0014388
! devastated 0.0037453
! did 0.0002019
! difficult 0.0000826
! directive 0.0000469
! directly 0.0002527
! disagree 0.0005241
! discuss 0.0001661
! discussion 0.0001352
! disinclined 0.0384615
! distorted 0.0028902
! divide 0.0035757
! do 0.0000975
! does 0.0000603
! dogmatism 0.0208333
! done 0.0001765
! doping 0.0023529
! dossier 0.0012005
! down 0.0000697
! draft 0.0001011
! drafting 0.0006789
! e 0.0052356
! each 0.0000831
! easy 0.0003093
! eating 0.0036101
! effect 0.0001249
! either 0.0003142
! else 0.0002718
! emphasize 0.0009174
! emptiness 0.0666667
! end 0.0000478
! endorse 0.0011605
! energy 0.0001520
! enlargement 0.0000731
! environment 0.0004408
! environmental 0.0001519
! errors 0.0012755
! essential 0.0001551
! established 0.0001811
! eventful 0.0434783
! events 0.0004120
! every 0.0000717
! everybody 0.0006079
! everywhere 0.0010163
! evidently 0.0023923
! evil 0.0019380
! exactly 0.0002808
! excellent 0.0011605
! expressed 0.0001131
! extremely 0.0002097
! extremism 0.0022422
! eye 0.0006605
! eyes 0.0007184
! fairly 0.0006940
! favour 0.0000690
! feel 0.0001959
! few 0.0000654
! final 0.0001346
! financial 0.0000489
! firmly 0.0004490
! first 0.0010321
! firstly 0.0017510
! flagrant 0.0041322
! floor 0.0002830
! following 0.0007088
! follows 0.0018248
! food 0.0002228
! for 0.0001529
! forthcoming 0.0004284
! framework 0.0000657
! freedoms 0.0004675
! full 0.0000964
! fully 0.0000849
! further 0.0001541
! future 0.0000708
! gentlemen 0.3036409
! get 0.0000807
! go 0.0002009
! goes 0.0001878
! going 0.0002751
! good 0.0001529
! grateful 0.0002874
! great 0.0001433
! group 0.0001987
! grouping 0.0070922
! growth 0.0000989
! had 0.0001013
! happened 0.0004125
! has 0.0000671
! have 0.0000678
! having 0.0000716
! heading 0.0006423
! heard 0.0001596
! her 0.0001016
! here 0.0006296
! him 0.0001489
! his 0.0006115
! home 0.0002369
! honourable 0.0014308
! how 0.0001328
! human 0.0000293
! hybrids 0.0500000
! hypothetical 0.0089286
! i 0.0043668
! if 0.0000952
! importance 0.0000712
! important 0.0002059
! in 0.0000047
! inadequate 0.0004936
! increasingly 0.0002174
! indeed 0.0001215
! inform 0.0003236
! information 0.0000470
! informative 0.0079365
! initiative 0.0001135
! innocent 0.0013333
! institutions 0.0000701
! intend 0.0007010
! intentions 0.0006337
! interest 0.0000956
! international 0.0000446
! interrupt 0.0064103
! intoxication 0.1111111
! is 0.0000045
! isolation 0.0012920
! issue 0.0000968
! issues 0.0001557
! it 0.0001924
! its 0.0000124
! job 0.0003365
! joking 0.0181818
! judicious 0.0090090
! just 0.0007740
! justification 0.0008757
! keep 0.0001585
! know 0.0000781
! knows 0.0004013
! kroner 0.0434783
! ladies 0.0003931
! ladyship 0.2000000
! last 0.0002363
! late 0.0003486
! law 0.0002076
! leads 0.0005274
! left 0.0003874
! legally 0.0005882
! legislation 0.0000583
! legislative 0.0001441
! lest 0.0117647
! let 0.0011425
! lets 0.0175439
! level 0.0000466
! like 0.0011625
! liked 0.0008203
! linguistic 0.0011751
! little 0.0001148
! live 0.0001992
! lives 0.0002345
! long 0.0003150
! lost 0.0005881
! lump 0.0066225
! lupins 0.1250000
! made 0.0000491
! major 0.0001789
! make 0.0003873
! makes 0.0002551
! making 0.0000712
! managing 0.0007831
! many 0.0000824
! matter 0.0002054
! matters 0.0001143
! may 0.0034642
! me 0.0009298
! means 0.0000442
! meant 0.0005198
! meeting 0.0001096
! mentioned 0.0000842
! mince 0.0128205
! mine 0.0012610
! minor 0.0010406
! minute 0.0007353
! minutes 0.0009099
! misunderstandings 0.0027322
! more 0.0000451
! most 0.0000878
! moulded 0.0454545
! much 0.0000737
! murderer 0.0147059
! must 0.0000561
! my 0.0002857
! natural 0.0004357
! necessary 0.0001045
! never 0.0001434
! new 0.0000387
! next 0.0000552
! no 0.0000354
! noise 0.0014085
! not 0.0000843
! note 0.0001211
! now 0.0000966
! nukes 0.2500000
! objectives 0.0001051
! obscurantism 0.0192308
! observations 0.0019861
! of 0.0000015
! off 0.0004736
! omissions 0.0051282
! on 0.0002071
! once 0.0000632
! one 0.0003046
! only 0.0001586
! opinion 0.0001676
! or 0.0000251
! oral 0.0003909
! order 0.0005786
! originally 0.0010560
! ostracism 0.0434783
! other 0.0000168
! our 0.0000964
! out 0.0000200
! outgoing 0.0062112
! over 0.0001125
! overfished 0.0555556
! paragraph 0.0002135
! part 0.0000753
! particularly 0.0000433
! particulate-matter 0.5000000
! past 0.0001287
! people 0.0000365
! personally 0.0003874
! perspectives 0.0008598
! pillory 0.0357143
! please 0.0002299
! pleased 0.0003277
! point 0.0001730
! points 0.0006563
! policy 0.0001663
! political 0.0000792
! poor 0.0002577
! pornography 0.0021186
! portents 0.2000000
! pose 0.0014306
! positive 0.0000923
! post 0.0011751
! precisely 0.0002088
! present 0.0001196
! previously 0.0005513
! pride 0.0016474
! priorities 0.0001737
! problem 0.0002217
! procedure 0.0000839
! process 0.0000446
! promising 0.0015456
! proposal 0.0000853
! proposals 0.0000539
! proposed 0.0000679
! put 0.0000874
! queries 0.0175439
! question 0.0006063
! questions 0.0002921
! quite 0.0001313
! raise 0.0002720
! raised 0.0001408
! raising 0.0005981
! rapporteur 0.0007226
! rapporteurs 0.0009160
! really 0.0002228
! reasons 0.0003300
! regret 0.0002307
! reject 0.0003311
! relation 0.0001359
! relaunched 0.0117647
! remarks 0.0004380
! reorganisation 0.0045872
! reply 0.0010776
! report 0.0005439
! request 0.0003076
! resolution 0.0000535
! resolved 0.0004124
! response 0.0001514
! result 0.0001375
! results 0.0001096
! right 0.0003459
! risks 0.0005136
! rock 0.0100000
! roses 0.0370370
! s 0.0001172
! sad 0.0010695
! said 0.0002296
! same 0.0001808
! sat 0.0050761
! satellite 0.0011962
! saving 0.0012771
! say 0.0004702
! says 0.0002307
! scandal 0.0015106
! scope 0.0002134
! scratch 0.0038760
! see 0.0001138
! seems 0.0001258
! send 0.0003286
! sense 0.0001528
! sensitive 0.0006349
! separate 0.0004165
! sexuality 0.0097087
! shall 0.0006545
! share 0.0004255
! shifted 0.0050761
! short 0.0005332
! should 0.0003366
! shout 0.0166667
! shush 0.5000000
! sic 0.1428571
! simple 0.0006200
! since 0.0000957
! sir 0.0434783
! sitting 0.0001864
! situation 0.0001400
! small 0.0000915
! so 0.0000144
! some 0.0000440
! something 0.0001203
! somewhat 0.0003848
! sorry 0.0003476
! speak 0.0002512
! speaker 0.0003130
! speaking 0.0040426
! specific 0.0001568
! speech 0.0011671
! split 0.0014641
! stand 0.0004265
! start 0.0005390
! started 0.0003241
! statement 0.0005829
! story 0.0032503
! stumbled 0.0625000
! subject 0.0001283
! submitted 0.0002856
! summit 0.0002206
! sunlight 0.0156250
! supplementary 0.0006390
! support 0.0001155
! supposition 0.0476190
! sure-fire 0.0769231
! surprised 0.0006579
! take 0.0000212
! talking 0.0005180
! tasks 0.0004058
! tastes 0.0163934
! technician 0.0714286
! tens 0.0018116
! terrorism 0.0000950
! terrorist 0.0004129
! text 0.0001074
! than 0.0001294
! thank 0.0017251
! thanking 0.0004182
! thanks 0.0006074
! that 0.0000170
! the 0.0000959
! there 0.0002803
! these 0.0000381
! they 0.0000368
! thing 0.0003200
! things 0.0003945
! think 0.0002974
! this 0.0002275
! this. 0.5000000
! thorough 0.0007107
! those 0.0000215
! three 0.0004983
! time 0.0000741
! today 0.0009773
! together 0.0001508
! too 0.0005111
! topic 0.0013605
! touch 0.0010881
! traffic 0.0002699
! transport 0.0000697
! trouble 0.0014663
! true 0.0005169
! try 0.0003509
! turn 0.0001902
! twelve 0.0014903
! two 0.0008706
! unanimous 0.0007593
! undeclared 0.0030769
! under 0.0000726
! understand 0.0000990
! undoubtedly 0.0004338
! unfortunately 0.0001289
! union 0.0002765
! unique 0.0009050
! unrest 0.0042017
! unusual 0.0022472
! urgency 0.0004446
! us 0.0001750
! use 0.0000423
! utterly 0.0018797
! value 0.0001630
! van 0.0006250
! very 0.0003092
! violent 0.0011287
! vir 0.3333333
! visited 0.0007429
! vital 0.0001536
! voice 0.0008247
! vote 0.0001119
! voted 0.0004796
! voting 0.0001422
! want 0.0003515
! wanted 0.0002428
! warmest 0.0031847
! warmly 0.0013029
! was 0.0000462
! water 0.0001753
! ways 0.0002310
! we 0.0001207
! wearing 0.0052083
! week 0.0005083
! welcome 0.0004722
! well 0.0001404
! were 0.0000258
! what 0.0003773
! when 0.0000216
! where 0.0000288
! while 0.0000747
! who 0.0000118
! whole 0.0001367
! wish 0.0013149
! with 0.0000166
! without 0.0000450
! witnessing 0.0020121
! wonder 0.0002875
! word 0.0005225
! words 0.0000909
! work 0.0003553
! would 0.0004504
! year 0.0001597
! years 0.0001292
! yes 0.0029360
! yesterday 0.0010384
! you 0.0005924
! your 0.0009002
! zu 0.0096774
! Álvarez 0.0144928
! Ždanoka 0.0344828
! – 0.0005865
! ’ 0.0002101
! ” 0.0046296
" " 0.6589102
" ' 0.3082182
" 'Alba 0.0043290
" 'Avvenire 0.3333333
" 'Elx 0.3571429
" 'Hondt 0.0500000
" 'Humanité 0.1428571
" 'Unità 0.4444444
" 'crimination 0.6000000
" 'enfance 0.3333333
" 'honneur 0.2000000
" 's 0.0000756
" ( 0.0003214
" ) 0.0005712
" , 0.0000223
" - 0.0001662
" -A 0.5000000
" . 0.0000679
" ... 0.0049432
" .eu 0.3243243
" 1-119 0.2500000
" 116000 0.0714286
" 1500 0.0266667
" 1858 0.2500000
" 1888 0.2222222
" 1966 0.0181818
" 1984 0.0047393
" 1989-1993 0.0588235
" 1995 0.0009620
" 1997 0.0013546
" 1B 0.0158730
" 20-point 0.3333333
" 2000 0.0038673
" 2007-2013 0.0056926
" 2078 0.0303030
" 22 0.0013504
" 301 0.0204082
" 36-month 0.1666667
" 5m 0.0384615
" 61 0.0060241
" 7e 0.1666667
" : 0.0006156
" = 0.0222222
" ? 0.0000427
" A 0.0122511
" A-3020 0.5000000
" A-3030 0.5000000
" A-3501 0.5000000
" A4-0308 0.1428571
" ALBA 0.5000000
" ARIANE 0.1000000
" Aalborg 0.6666667
" Abou 0.0476190
" Acceder 0.5000000
" Accepted 0.4000000
" Act 0.0106952
" Action 0.0007899
" Actors 0.1666667
" Addiction 0.0106383
" Affairs 0.0134606
" Afghan 0.0052724
" Against 0.0649351
" Agence 0.0312500
" Agenda 0.0117137
" Agricultural 0.0092879
" Agriculture 0.0274187
" Ahtisaari 0.0121212
" Aid 0.0476190
" Air 0.0090498
" Airport 0.0227273
" Alcohol 0.0344828
" Alianza 0.2500000
" All 0.0048309
" Alternativas 0.5000000
" Alumina 0.6666667
" Amalgamated 0.5000000
" Americas 0.0133333
" Amsterdam 0.0012878
" An 0.0508475
" Anderstown 0.2000000
" Angola 0.0043956
" Animal 0.0367647
" Anschluss 0.5000000
" Anti-Cancer 0.3333333
" Approach 0.0212766
" April-May 0.1111111
" Arc-en-ciel 0.5000000
" Arcobaleno 0.4000000
" Arms 0.0340909
" Asia-Oceania 0.1250000
" Asset 0.3000000
" Assets 0.1000000
" Asylum 0.0322581
" Asylum-Seekers 0.2222222
" Atlas 0.1000000
" Auf 0.5000000
" Automated 0.0909091
" Award 0.1111111
" Awareness 0.0952381
" B 0.0202532
" B31 0.5000000
" B5-0087 0.1111111
" BAA 0.2222222
" BMW 0.1555556
" BONUS-169 0.0588235
" Bacon 0.1111111
" Badinter 0.0416667
" Bakio 0.4285714
" Ballymena 0.2500000
" Basel 0.0088496
" Basic 0.0588235
" Belet 0.0333333
" Benefits 0.3333333
" Berlin 0.0012895
" Better 0.0336134
" Betz 0.1818182
" Beyond 0.2307692
" Bioethics 0.0232558
" Bird 0.1111111
" Bloody 0.3333333
" Blue 0.1250000
" Boards 0.2000000
" Boss 0.4000000
" Box 0.0102041
" Bra 0.5000000
" Braer 0.0571429
" Bretton 0.0156250
" Bronze 0.6000000
" Brother 0.0972222
" Built-In 0.5614035
" Bunda 0.6000000
" Buses 0.2000000
" Business 0.0214286
" Buy 0.1666667
" C5-0349 0.2500000
" C6-0011 0.3333333
" CARDS 0.0246914
" CFSP 0.0080092
" CITES 0.0051546
" CNN 0.0930233
" CONNECT 0.0571429
" COREPER 0.0046729
" Caesar 0.0317460
" Camp 0.0155039
" Can-Do 0.3333333
" Canyon 0.2500000
" Capacities 0.2727273
" Capital 0.0246305
" Car 0.2830189
" Card 0.0450450
" Carthage 0.0769231
" Casarini 0.2500000
" Cassis 0.0952381
" Cells 0.2666667
" Celtic 0.1025641
" Centre 0.0009823
" Century 0.0300000
" Chappi 0.3333333
" Chapter 0.0105263
" Chapters 0.0714286
" Check 0.1025641
" Chemical 0.0588235
" Chemicals 0.0147059
" Chernobyl 0.0015244
" Cheshire 0.2857143
" Children 0.0113636
" Chronicle 0.2000000
" Cinderella 0.0681818
" Citizens 0.0023943
" City 0.0349650
" Clean 0.1688312
" Climate 0.0027322
" Cloning 0.2857143
" Coalition 0.0697674
" Coastline 0.2500000
" Code 0.0012937
" Cohesion 0.0038023
" Cold-War 0.2000000
" Collines 0.3333333
" Collision 0.2500000
" Colonies 0.4000000
" Commission-chaired 0.4000000
" Commissioner-delegate 0.2500000
" Communication 0.0021598
" Competitive 0.1764706
" Competitiveness 0.0343348
" Conduct 0.0222222
" Conservative 0.0017606
" Consortium 0.2307692
" Constant 0.2000000
" Constitution-with-a-makeover 0.3333333
" Convivir 0.4800000
" Cooperation 0.0085179
" Cope 0.1111111
" Corinne 0.3333333
" Cormorants 0.2500000
" Correo 0.5000000
" Coubertin 0.3000000
" Council 0.0003617
" Councils 0.0015221
" Country 0.0040816
" Creative 0.4000000
" Creutzfeld-Jakob 0.2222222
" Crime 0.0606061
" Cross 0.0071685
" Cultural 0.0072464
" Culture 0.0566308
" Customs 0.0383387
" D 0.0059172
" DIY 0.1428571
" Daily 0.2058824
" Damas 0.2000000
" Dania 0.4000000
" Danube 0.0125786
" Dawn 0.0597015
" Day 0.0028653
" Deal 0.0666667
" Dean 0.2000000
" Debate 0.2075472
" Debt 0.1428571
" Decade 0.0789474
" Dementia 0.4000000
" Democracies 0.0219780
" Democracy 0.0023148
" Demokratie 0.5000000
" Der 0.3333333
" Desert 0.2727273
" Dialogue 0.0223214
" Diary 0.3333333
" Diaz 0.1666667
" Die 0.3000000
" Dijon 0.1304348
" Dimanche 0.2857143
" Directorate-General 0.0045455
" Diseases 0.0750000
" Diversidad 0.6666667
" Dixon 0.1428571
" Doing 0.1250000
" Dolls 0.6666667
" Doria 0.3333333
" Dreaming 0.6666667
" Druzhba 0.4000000
" Dublin-style 0.6666667
" Duck 0.0769231
" Durban 0.0152284
" Duties 0.1538462
" Dutroux 0.0579710
" Duty 0.1250000
" Dynasty 0.1428571
" Députés 0.5000000
" E 0.0335570
" EAGGF 0.0044248
" EBRD 0.0090090
" EC-type 0.5000000
" ECOFIN 0.0285714
" EFTA 0.0857143
" EMPA 0.0208333
" ERIS 0.5000000
" ESF 0.0084746
" EU-Israel 0.0857143
" EURO 0.0338983
" EURODAC 0.0384615
" Earth 0.0199005
" Echelon 0.0419580
" Echo 0.0571429
" Ecofin 0.0648072
" Economics 0.0400000
" Economist 0.1866667
" Education 0.0081585
" Ekot 0.5000000
" Elche 0.3636364
" Elderly 0.0625000
" Eldorado 0.2500000
" Eleven 0.0714286
" Emergencies 0.1250000
" Emerging 0.2000000
" Emoe 0.3333333
" Employment 0.0040115
" Empress 0.0952381
" Enduring 0.3333333
" Energy 0.0122642
" Energy-environment 0.3333333
" Enlargement 0.0317460
" Enlazando 0.2857143
" Enterprise 0.0459770
" Environnement 1.0000000
" Equality 0.0015198
" Equasis 0.4615385
" Equitable 0.0580645
" Erasmus 0.0179372
" Erasmus-style 0.5000000
" Erika 0.0953413
" Es 0.3333333
" Esclavage 0.3333333
" Euro 0.0338733
" Euro-internationalists 0.4285714
" Euro-speak 0.2500000
" Euro-taste 0.5000000
" Eurochambers 0.2857143
" Eurodac 0.0472222
" Eurojust 0.0038023
" Euronews 0.0360360
" Europe-by-satellite 0.2500000
" Europeanisation 0.0312500
" Europeanization 0.0666667
" Europeanize 0.2857143
" Eurosceptic 0.0125000
" Eurospeak 0.0606061
" Eurotariff 0.2000000
" Eurotunnel 0.0952381
" Everything 0.0281250
" Exchange 0.0294118
" Exclusive 0.1176471
" Exercises 0.5000000
" Export 0.1111111
" Express 0.0666667
" Extrajudicial 0.3333333
" F-type 0.1904762
" FAIR 0.2500000
" FYROM 0.0031008
" Fahrenheit 0.5000000
" Fair 0.0182927
" Fast 0.1000000
" Festa 0.4000000
" Figaro 0.2400000
" Firemen 0.5000000
" Fiscal 0.3333333
" Fisheries 0.0142276
" Flag 0.1250000
" Flame 0.5102041
" Flexi-insecurity 0.5000000
" Florence 0.0014837
" Florins 0.1666667
" Food 0.0040984
" Football 0.0120482
" Forbidden 0.6666667
" Force 0.0201005
" Foretold 0.2500000
" Forgetting 0.3333333
" Formula 0.0689655
" Fortress 0.0633803
" Forza 0.1428571
" Foundation 0.0067265
" Franglais 0.4000000
" Frans 0.1666667
" Frederic 0.6666667
" Freedom 0.0128205
" Freeing 0.2000000
" Freetown 0.1111111
" Friends 0.0202020
" Front 0.0139373
" Frontiers 0.1358696
" Frontires 0.3333333
" Future 0.0092593
" G 0.0126582
" GI 0.1250000
" GMO-free 0.0266667
" GRECO 0.3333333
" Gag 0.5000000
" GayFest 0.5000000
" Gazprom 0.0327869
" Gebhardt-Harbour 0.3333333
" General 0.1365036
" Genetic 0.0909091
" Genetics 0.0555556
" Gentlemen 0.0175439
" Gertrud 0.6666667
" Global 0.0469208
" Globe 0.1818182
" GoDigital 0.3333333
" God 0.0060150
" Godot 0.0588235
" Gold 0.2500000
" Goods 0.0333333
" Governance 0.0471698
" Gramma 0.5000000
" Green 0.0037912
" Greens 0.0011969
" Greige 0.5000000
" Grenelle 0.0645161
" Grey 0.1081081
" Guantánamo 0.0139535
" Guard 0.0714286
" Guardian 0.0147059
" Guernica 0.1052632
" Guide 0.1250000
" Göteborgsposten 0.2857143
" Haaretz 0.4000000
" Habitat 0.0303030
" Haider-type 0.4000000
" Hautala 0.0030960
" Hawk 0.2000000
" Hearts 0.4000000
" Help 0.1875000
" Helsinki 0.0029261
" Herald 0.0229885
" Hercule 0.1666667
" Hill 0.1967213
" Homosexuality 0.3333333
" Hope 0.2105263
" Horses 0.1666667
" Hour 0.2857143
" Hughes 0.0237154
" Humane 0.2857143
" Humphrey-Hawkins 0.6666667
" Hunger 0.1538462
" Huriyet 0.3333333
" Huxley 0.0833333
" Hydro-Electricity 0.2857143
" Hydrogen 0.1904762
" Hürriyet 0.2500000
" ITA 0.0434783
" Ideas 0.4137931
" Immigration 0.0769231
" In 0.0019084
" Inclusion 0.0357143
" Index 0.0400000
" Indica 0.3750000
" Industri 0.5000000
" Industry 0.0201493
" Infante 0.5000000
" Initiatives 0.0952381
" Innovation 0.0098039
" Innovative 0.3157895
" Integration 0.0576923
" Intelligent 0.0795455
" Interaktiv 0.6666667
" Interest 0.0294118
" Intergroup 0.1379310
" Intermodal 0.3333333
" Internal 0.0063251
" Internationale 0.1000000
" Ioannina 0.0606061
" Irún-Valladolid 0.5000000
" Ischia 0.5000000
" Ivoli 0.2857143
" JCR 0.2222222
" JHA 0.0944882
" JHA-ECOFIN 0.5000000
" Japonica 0.2500000
" Jaroslav 0.5000000
" Jaurès 0.2500000
" Jazeera 0.2857143
" Jihad 0.0212766
" Jirga 0.0294118
" Joule-Thermie 0.4000000
" Jumbo 0.2000000
" Justice 0.0120976
" KICs 0.0434783
" KRAV 0.5000000
" Kaleidoscope 0.0851064
" Karim 0.1363636
" Karine 0.6666667
" Karine-A 0.2222222
" Keep 0.1111111
" Khmer 0.0588235
" Khyber 0.4000000
" Kidney 0.1666667
" Kids 0.6666667
" Klondykers 0.6666667
" Knowledge 0.0588235
" Koala 0.4186047
" Kommersant 0.6666667
" Korrespondent 1.0000000
" Kramer 0.2000000
" Kwai 0.2500000
" Kyoto 0.0004912
" L 0.0714286
" LEOs 0.6666667
" Labour 0.0009479
" Ladies 0.0012579
" Lambda 0.4000000
" Lancet 0.3513514
" Language 0.0638298
" Languedoc-Roussillon 0.0625000
" Laundering 0.0769231
" Lauro 0.3333333
" Le 0.0257143
" Leader 0.0166667
" Legacy 0.2000000
" Leipzig 0.0416667
" Lenin 0.0212766
" Level 0.0086207
" Liborio 0.6666667
" Libraries 0.1428571
" Libération 0.1904762
" Life 0.0234375
" Lifeline 0.6666667
" Ligue 0.4000000
" Line 0.0109890
" Loya 0.0400000
" Lux 0.4000000
" Länder 0.0068027
" MAIs 0.4000000
" Maghrebi 1.0000000
" Magrini 0.5000000
" Malerba 0.0273973
" Malthusianism 0.0645161
" Management 0.0035088
" Mansholt 0.1052632
" Manufacturers 0.0666667
" Manzoni 0.2857143
" Marchioness 0.5000000
" Mare 0.0500000
" Marianne 0.1250000
" Market 0.0034130
" Maßnahmen 0.3750000
" Maître 0.3333333
" Mažeikių 0.3333333
" McDonalds 0.2500000
" Measures 0.0500000
" Mechanisms 0.1250000
" Mecum 0.2500000
" Mediterranean 0.0002576
" Memory 0.1666667
" Men 0.0156250
" Merger 0.1290323
" Messaggero 0.2857143
" Michelin 0.0305344
" Michelin-style 0.3333333
" Migration 0.0769231
" Milliyet 0.3333333
" Minerva 0.1818182
" Ministers 0.0072212
" Mirren 0.6666667
" Misteri 0.2000000
" Mistra 0.6666667
" Mitterrand 0.0166667
" Mladina 0.5000000
" Mobilization 0.5000000
" Monday 0.0012563
" Monde 0.1917808
" Monnet 0.0042553
" Mont 0.0196078
" More 0.1447368
" Movement 0.0071174
" Mujahedin 0.0540541
" Multilingual 1.0000000
" Multilingualism 0.0714286
" Multimedia 0.0625000
" Mundus 0.0522388
" Munich 0.0054945
" Médecins 0.0952381
" Médicale 0.5000000
" Médicins 0.2000000
" Mítica 0.4444444
" Møllergårdens 0.5000000
" NAIADES 0.1000000
" NGAs 0.3333333
" NGO 0.0068729
" NO 0.0625000
" NULL 0.0014797
" Nabucco 0.0357143
" Naiades 0.4285714
" Naples 0.0053763
" Napoleonic 0.0714286
" Napoli 0.6666667
" Nargis 0.3043478
" National 0.0017094
" Natura 0.0031898
" Nature 0.0581395
" Nava 0.6000000
" Netdays 0.4000000
" Networks 0.0090090
" Netyear 0.6666667
" News 0.0333333
" Newsnight 0.2500000
" Newspeak 0.2857143
" Niezavisima 0.5000000
" Niño 0.2058824
" Notre 0.2500000
" Novye 0.6666667
" OK 0.0114943
" OR 0.3333333
" Obreras 0.4444444
" Observatory 0.0083333
" Oil 0.0463576
" Olendorf 0.6666667
" Ontšõko 0.2500000
" Operário 0.3333333
" Opportunities 0.0040323
" Oral 0.0666667
" Orange 0.0135135
" Ordinance 0.1428571
" Organised 0.1176471
" Orient 0.0357143
" Orlen 0.5000000
" Orwellian 0.0363636
" Otopan 0.6666667
" Our 0.0615385
" Overalls 1.0000000
" PACTs 0.6666667
" PHILOXENIA 0.0645161
" PIC 0.0384615
" Pacific 0.0046189
" Package 0.0816327
" Pact 0.0010787
" Panel 0.0110497
" Panglossian 0.5000000
" Paper 0.0096154
" Parties 0.0139535
" Pasty 0.0093458
" Paternoster 0.5000000
" Path 0.3333333
" Pathe 0.3333333
" Patriot 0.4000000
" Pay 0.0714286
" Peace 0.0073665
" Pentecostal 0.4000000
" Pervõi 0.2500000
" Petersberg 0.0198675
" Philoxenia 0.0229885
" Phoebus 0.5000000
" Piper 0.3333333
" Pirate 0.2857143
" Plan 0.0126904
" Planet 0.2857143
" Play 0.2105263
" Playa 0.5000000
" Policy 0.0002241
" Politiken 0.2000000
" Politkovskaya 0.0102041
" Polo 0.0507614
" Poverty 0.0168067
" Power 0.0357143
" Praise 1.0000000
" Pre-Accession 0.0571429
" Pre-accession 0.1818182
" President-inOffice 0.0133333
" Presidential 0.0229885
" Prestige 0.0375162
" Prevention 0.0057143
" Proba 0.4166667
" Probo 0.2777778
" Procedure 0.0007253
" Process 0.0032841
" Procurement 0.0238095
" Producer 0.4000000
" Products 0.0208333
" Professional 0.0666667
" Programme 0.0063918
" Progress 0.0657895
" Promotion 0.0217391
" Prosecutor 0.0026525
" Protection 0.0020506
" Prüm 0.0165289
" Pub 0.2500000
" Public 0.0008818
" Pulp 0.6666667
" Pátria 0.6666667
" ROME 0.1818182
" Rabbis 0.5000000
" Rachel 0.1428571
" Racism 0.0070922
" Radikal 0.2666667
" Radio 0.0510204
" Rally 0.0833333
" Raphael 0.2105263
" Rapid 0.0094340
" Rational 0.5000000
" Ravdo 0.6666667
" Reconciliation 0.0175439
" Reconquista 0.5000000
" Recover 0.5714286
" Regulation 0.0002493
" Relation 0.2000000
" Relations 0.0636095
" Remembrance 0.0666667
" Repubblica 0.1666667
" Republic 0.0002513
" Republika 0.0555556
" Reserve 0.0291262
" Reste 0.4000000
" Review 0.0198675
" Revolution 0.0062112
" Rhapsody 0.3333333
" Richter 0.0666667
" Rider 0.5000000
" Rights 0.0006367
" Rings 0.3333333
" Rioja 0.1052632
" Risks 0.1250000
" Rome 0.0007463
" Rose 0.0588235
" Rouge 0.0555556
" Rouges 0.5000000
" Route 0.2666667
" Rugby 0.0909091
" Rum 0.2857143
" Russian-Siberian 0.3333333
" SISone4all 0.0909091
" SMEs 0.0002648
" SMEs.com 0.2500000
" STD 0.2500000
" STOP 0.0972222
" Safe 0.0689655
" Safer 0.1578947
" Sakharov 0.0020833
" Salter 0.0909091
" Samotraki 0.5000000
" Santer 0.0026738
" Saryusz-Wolski 0.0090909
" Satellite 0.0681818
" Save 0.0689655
" Schengen 0.0024410
" Schuman 0.0164835
" Science 0.0549451
" Scorpions 0.5000000
" Seas 0.0410959
" Section 0.0196078
" Sector 0.2307692
" Securities 0.0123457
" Segments 0.5000000
" Select 0.0625000
" Seniors 0.5000000
" Sera 0.2000000
" Service 0.0099404
" Severn 0.1428571
" Shadow 0.1428571
" Shelter 0.1020408
" Shetland 0.0476190
" Signatures 0.3333333
" Silent 0.5000000
" Silver 0.5000000
" Single 0.0035336
" Skaggerak 0.2857143
" Skies 0.3636364
" Sky 0.0156250
" Small 0.0915493
" Social 0.0002769
" Socrates 0.0208668
" Software 0.1428571
" Soil 0.0408163
" Soldier 0.2727273
" Solomon 0.0227273
" Solvency 0.0952381
" Sophocles 0.2500000
" Sovereignty 0.1250000
" Spar 0.2857143
" Sparrowhawk 0.2500000
" Speaker 0.0198020
" Specific 0.1081081
" Spiegel 0.1875000
" Splendour 0.2000000
" Srpska 0.0381679
" Standards 0.0275862
" Star 0.0750000
" Steering 0.0280374
" Stern 0.1224490
" Steter 1.0000000
" Stop 0.0212766
" Stopping 0.1428571
" Stranger 0.3333333
" Strawberry 0.6666667
" Stream 0.1205674
" Street 0.0555556
" Sub-Committee 0.0769231
" Subcommittee 0.0482759
" Suites 0.5000000
" Supplement 0.1428571
" Swann 0.2222222
" Sydsvenskan 0.6666667
" Synergy 0.1224490
" T-shirts 0.0416667
" TELCO 0.4000000
" TESS 0.2857143
" TREN 0.1000000
" Table 0.0975610
" Target2 0.3333333
" Task 0.0202020
" Teal 0.5000000
" Technologies 0.0416667
" Tedlar 0.5000000
" Telecommunications 0.1038961
" Telegraph 0.3846154
" Television 0.1198502
" Temelin 0.0246914
" Teverson 0.0089286
" The 0.0005265
" Theatre 0.1875000
" Theophrastos 0.1666667
" Thought 0.0714286
" Tiger 0.1379310
" Tigers 0.0434783
" Times 0.1160714
" Tireless 0.2500000
" Titanic 0.0731707
" Tour 0.0800000
" Tourisme 0.5000000
" Towards 0.0337079
" Toxicity 0.1052632
" Track 0.0500000
" Tradition 0.0555556
" Training 0.0147783
" Transport 0.0340798
" Tres 0.2500000
" Trojan 0.0240964
" Trouw 0.3333333
" U-turn 0.0309278
" Uncle 0.1176471
" Union-Russia 0.0606061
" Unity 0.0083333
" Uno 0.2500000
" Ušem 0.6666667
" V. 0.0645161
" VIII 0.0194175
" Vanessa 0.5000000
" Veritatis 0.5000000
" Via 0.0454545
" View 0.0909091
" Viking 0.0416667
" Vivaldi 0.2000000
" Vodka 0.2500000
" Voice 0.0428571
" Volkskrant 0.5714286
" Voluntary 0.0168067
" WITS 0.3333333
" WTO 0.0002051
" Waiver 0.0789474
" Warriors 1.0000000
" Watch 0.0277778
" Wathelet 0.0112360
" Way 0.0344828
" Welfare 0.0886076
" Whitehead 0.0033898
" Wiedersehen 0.2000000
" Wild 0.0142857
" Wiser 0.5000000
" Without 0.0196078
" Wolfowitz 0.0697674
" Women 0.0005631
" Woods 0.0140845
" Workforce 0.5000000
" Working 0.0466200
" Wujek 0.5000000
" Xerox 0.0333333
" YOUTH 0.1000000
" Yacoubian 0.5000000
" Year 0.0021299
" Yes 0.0076336
" Yeu 0.5000000
" Yohei 0.5000000
" Young 0.0612245
" Your 0.1428571
" Youth 0.1143725
" ] 0.0017212
" a 0.0000341
" abolition 0.0008554
" abound 0.0142857
" above 0.0002519
" absent 0.0015408
" absorber 0.0714286
" abstention 0.0123457
" accelerator 0.1315789
" accidental 0.0071942
" acclaimed 0.0952381
" acclamation 0.0476190
" accommodation 0.0077519
" accomplis 0.0208333
" accords 0.0044643
" accounting 0.0033898
" accurately 0.0052493
" accused 0.0020986
" acquiescing 0.1538462
" across-the-board 0.0126582
" action 0.0001779
" actions 0.0002963
" activation 0.0714286
" ad 0.0034965
" adaptability 0.0250000
" additionality 0.0032154
" adjective 0.0526316
" adopting 0.0003088
" adopts 0.0024096
" adorn 0.1111111
" ads 0.2500000
" advantage 0.0010519
" adventurous 0.0476190
" advisedly 0.0172414
" affairs 0.0013258
" affiliates 0.0800000
" affirmative 0.0660377
" afraid 0.0006196
" aftershave 0.2000000
" against 0.0000288
" agenda 0.0002337
" aggressors 0.0370370
" agritourism 0.3750000
" aid-for-trade 0.3076923
" alarm 0.0063425
" alert 0.0064378
" all-island 0.4000000
" allegedly 0.0075188
" almost 0.0001894
" already 0.0000356
" amber 0.1250000
" amended 0.0009950
" an 0.0000079
" announced 0.0008795
" anodyne 0.1176471
" answer 0.0006716
" anti-Iranian 0.4000000
" anti-Semitism 0.0098039
" anti-dumping 0.0153846
" anti-globalists 0.1333333
" anti-rape 0.4000000
" anticipatory 0.1333333
" apart 0.0010608
" apartheid 0.0116959
" apples 0.0185185
" approach 0.0002108
" approve 0.0008897
" approves 0.0155039
" arena 0.0099256
" armies 0.0080645
" arms 0.0014255
" arrangement 0.0012121
" arrive 0.0019743
" article 0.0018987
" ashamed 0.0064103
" aspects 0.0001394
" assailants 0.1818182
" asserted 0.0118343
" assertion 0.0042918
" assessment 0.0012542
" asset-stripping 0.1538462
" assists 0.0153846
" associated 0.0003821
" assuage 0.0769231
" asymmetrical 0.0338983
" attenuated 0.2857143
" audit 0.0015748
" auto 0.2000000
" automated 0.0169492
" automatic 0.0018450
" aviation 0.0011641
" awards 0.0113636
" awareness-raising 0.0090498
" awoken 0.0833333
" axes 0.0085470
" backbone 0.0047393
" backs 0.0027027
" backward-looking 0.0204082
" balloon 0.1538462
" ballots 0.0181818
" banana 0.0121396
" bandit 0.5000000
" bang 0.0645161
" bank-driven 0.5000000
" barons 0.0281690
" barrier-free 0.0178571
" bartered 0.2000000
" bashing 0.1428571
" bath 0.0217391
" bathwater 0.0123457
" beautiful 0.0026738
" bee-keeping 0.0277778
" beef 0.0029155
" beggar-thy-neighbour 0.5000000
" behest 0.0327869
" believers 0.0144928
" belittle 0.0689655
" bench-marking 0.2307692
" benchers 0.5000000
" benchmarked 0.2000000
" benchmarks 0.0077519
" benefit 0.0001248
" benefiting 0.0017921
" best 0.0014403
" bickering 0.0740741
" bid 0.0022989
" biodiversity 0.0005297
" biofuel 0.0099502
" biomedicine 0.0416667
" bipolarity 0.1428571
" bit 0.0012903
" black 0.0142544
" blacklist 0.0531915
" blackout 0.0606061
" blindness 0.0135135
" block 0.0115183
" blood 0.0051546
" blue 0.0261194
" board 0.0021826
" body 0.0002946
" bogged 0.0108108
" bomb 0.0051546
" bonus 0.0204082
" book 0.0028694
" book-keeping 0.0227273
" born 0.0024242
" borrowed 0.0566038
" bottle-fed 0.5000000
" bottleneck 0.0338983
" bottom-up 0.0217391
" bout 0.0526316
" box 0.0180879
" boys 0.0051813
" brainpower 0.0909091
" bread 0.0057803
" breakfast 0.0338983
" breaking 0.0016420
" bribery 0.0425532
" bridge 0.0053860
" briefer 0.0869565
" broad 0.0002697
" broadly-defined 0.2500000
" budget 0.0001589
" bug 0.1228070
" bugs 0.5000000
" built 0.0005995
" built-in 0.0526316
" bullets 0.0163934
" bullfight 0.2222222
" bullfighter 0.3333333
" bullfights 0.2222222
" burden-sharing 0.0056818
" bureaucrat 0.0370370
" bury 0.0069930
" business 0.0010658
" business-asusual 0.3333333
" business-to-business 0.0444444
" business-to-consumer 0.0555556
" butter 0.0145455
" buy-out 0.2000000
" bête 0.2222222
" cages 0.0121951
" cake 0.0068027
" call 0.0006110
" call-back 0.1463415
" called 0.0048759
" calls 0.0004149
" camel-like 0.2857143
" campaign 0.0015337
" campaigned 0.0060976
" cancelled 0.0028653
" cancelling 0.0120482
" cane 0.0240964
" capital 0.0007429
" capitalism 0.0073171
" capitalize 0.1428571
" cards 0.0037523
" carrier 0.0045872
" carrot 0.0065789
" carrot-and-stick 0.0384615
" carrots 0.0363636
" cash-for-votes 0.1428571
" cash-for-work 0.5000000
" casino 0.0666667
" casting 0.0076336
" catch-all 0.0416667
" catch-the-eye 0.1212121
" catch-up 0.0869565
" categorises 0.2500000
" category 0.0033069
" cedant 0.5000000
" celebrated 0.0045249
" cell 0.0110193
" centralism 0.0147059
" ceremony 0.0049751
" certiorari 0.3333333
" chair 0.0055556
" challenging 0.0022222
" champions 0.0112360
" chapter 0.0210930
" charge 0.0015936
" charged 0.0032895
" chase 0.0217391
" chatting 0.0909091
" cheat 0.0298507
" check 0.0375985
" checklist 0.0606061
" chekcs 0.6666667
" chemical 0.0008961
" chimneys 0.0769231
" chocolate 0.0039139
" cirty 0.4000000
" civilisation-related 0.4000000
" claiming 0.0021322
" clarifies 0.0040650
" classified 0.0077922
" clause 0.0071633
" clean 0.0027548
" clean-up 0.0238095
" cleaned 0.0392157
" cleaner 0.0057143
" cleansers 0.3333333
" close-out 0.5000000
" club 0.0185759
" co-existence 0.0121951
" co-formateur 0.2000000
" co-modality 0.1025641
" co-produced 0.3333333
" coastline 0.0109290
" cocaine 0.0392157
" cockfight 0.4000000
" cocktails 0.0909091
" code 0.0010730
" codex 0.1000000
" codified 0.0144928
" codify 0.0322581
" coeur 0.3333333
" coffer 0.6666667
" coffin 0.1090909
" cognac 0.1666667
" coincidences 0.0416667
" coined 0.0400000
" collective 0.0005149
" collector 0.1250000
" collects 0.0285714
" colouring 0.0606061
" colours 0.0104712
" column 0.0235294
" combat 0.0002193
" comité 0.5000000
" command 0.0076046
" commercialisation 0.0067114
" commission 0.0025316
" commonly 0.0202020
" communal 0.0243902
" communications 0.0006227
" comparing 0.0040816
" compensated 0.0032680
" compile 0.0086207
" complained 0.0034722
" complementarities 0.2000000
" compliments 0.0076628
" comprise 0.0119760
" compromised 0.0038314
" concept 0.0122053
" concepts 0.0027322
" conditionality 0.0085470
" conduct 0.0021882
" conflagration 0.0454545
" conforme 0.2000000
" confusing 0.0055402
" congresses 0.0666667
" consciousness 0.0126582
" considered 0.0003613
" conspicuous 0.0149254
" constellations 0.0714286
" constituent 0.0061538
" contains 0.0006270
" continuation 0.0019685
" contrasting 0.0172414
" contre-filet 0.3500000
" convenient 0.0125786
" convinced 0.0001934
" cool 0.0153846
" cooperation 0.0000423
" coordinating 0.0009390
" cops 0.2000000
" correlation 0.0129032
" corridors 0.0169492
" corrodes 0.3333333
" cosmopolitan 0.0500000
" cost-effectiveness 0.0186916
" counter-proposals 0.1818182
" countering 0.0066667
" countervailing 0.0800000
" country-of-origin 0.0153846
" counts 0.0049383
" couples 0.0041667
" courted 0.1000000
" cover 0.0012162
" cowboy 0.0571429
" cows 0.0033333
" cracking 0.0588235
" created 0.0006746
" creating 0.0007968
" criminality 0.0087719
" crisis-riven 0.2500000
" crisophilie 0.4000000
" criterion 0.0048780
" cross-compliance 0.0266667
" crossing 0.0022124
" crucified 0.1250000
" crusade 0.0895522
" crusaders 0.0714286
" crushes 0.3333333
" crémant 0.0487805
" cult 0.0294118
" cure 0.0231884
" currencies 0.0019841
" curse 0.0277778
" cushion 0.0202020
" custodianship 0.4000000
" customs 0.0004115
" cut 0.0003269
" cut-off 0.0215054
" cutter 0.3076923
" cyber 0.0714286
" cybercrime 0.0370370
" cycle 0.0027624
" da 0.0164609
" das 0.1666667
" date 0.0006254
" de-Communising 0.6666667
" deadlock 0.0035971
" deceleration 0.1666667
" declared 0.0017513
" declaring 0.0039370
" deconcentration 0.0400000
" decree 0.0044643
" defer 0.0057471
" deferral 0.0416667
" deficit 0.0006072
" definition 0.0133370
" definitions 0.0031056
" deign 0.3333333
" delegate 0.0054645
" deletes 0.0263158
" deliverables 0.0952381
" delocalization 0.0416667
" democracies 0.0013193
" democratic 0.0000915
" demos 0.0769231
" denigrated 0.1666667
" department 0.0121951
" depository 0.1428571
" describe 0.0093583
" described 0.0008741
" describes 0.0025063
" designated 0.0026525
" designation 0.0111111
" designer 0.0943396
" destigmatise 0.2857143
" detain 0.0298507
" deterrent 0.0070423
" development 0.0000340
" dictating 0.0322581
" differentiation 0.0034965
" dinar 0.5000000
" dinghies 0.2000000
" directive 0.0004219
" dirty 0.0131579
" disability 0.0044643
" disappointing 0.0015773
" discovered 0.0029762
" discreet 0.0338983
" disdainfully 0.6666667
" diseases 0.0004143
" dispense 0.0073529
" disposable 0.0677966
" dispute 0.0007027
" disruption 0.0071174
" dissatisfaction 0.0037594
" distasteful 0.0370370
" divide 0.0143027
" dividends 0.0089286
" do-it-yourself 0.4000000
" doctored 0.1666667
" doctors 0.0042433
" documentary 0.0210526
" dogma 0.0148515
" dogmatisers 0.6666667
" dogs 0.0071942
" doing 0.0006834
" dolls 0.0909091
" domain 0.0083893
" dominance 0.0144928
" doorstep 0.0058140
" doping 0.0094118
" dose 0.0168067
" dot-com 0.6666667
" drink 0.0030488
" droit 0.1428571
" drug 0.0011080
" drugs 0.0006515
" dues 0.0285714
" dumb 0.0408163
" dura 0.3750000
" duty-free 0.0026490
" déjà 0.1739130
" e-Customs 0.6666667
" e-EUROPE 0.5000000
" e-EurAsia 0.2857143
" e-Europe 0.1162791
" e-Learning 0.0487805
" e-government 0.0800000
" e-inclusion 0.0833333
" e.g. 0.0038610
" eEurope 0.0243902
" eSociety 0.2222222
" earliest 0.0016529
" eastward 0.0098522
" eat 0.0021505
" ecologically 0.0086207
" economize 0.0500000
" ecosites 0.4285714
" ecosystem 0.0116732
" ecotaxes 0.0625000
" ecumenism 0.2500000
" educate 0.0109890
" eighth 0.0121951
" elderly-friendly 0.6666667
" electricity 0.0030769
" emanating 0.0091743
" embellished 0.1666667
" embodied 0.0098039
" emergence 0.0024752
" emperor 0.0250000
" emphatic 0.0279720
" employability 0.0114068
" empowerment 0.0761905
" empty 0.0013387
" encaja 0.4000000
" encapsulating 0.2500000
" encoded 0.2500000
" encompasses 0.0048077
" ending 0.0014006
" energy-for-democracy 0.2857143
" enhance 0.0006729
" enjoys 0.0051680
" enshrined 0.0010834
" enslaving 0.2500000
" enterprise 0.0036946
" enthusiast 0.0526316
" enthusiastic 0.0029940
" entitled 0.0075712
" entreat 0.0666667
" environmentally 0.0008696
" envoys 0.0370370
" equal 0.0001651
" equip 0.0030581
" errare 0.2500000
" erst 0.3333333
" escalation 0.0066007
" estimation 0.0140845
" etcetera 0.0057143
" euro 0.0009618
" euro-globalists 0.4000000
" euro-optimism 0.1818182
" euro-shambles 0.4000000
" eurosceptic 0.0571429
" eventual 0.0078125
" ex-Stubb 0.2000000
" exchanging 0.0041322
" exempting 0.0090090
" exercised 0.0018215
" exhibition 0.0129032
" existence 0.0009120
" expanded 0.0022989
" expedite 0.0113636
" experiment 0.0028011
" exploitation 0.0012070
" explosive 0.0074906
" exporting 0.0040900
" expropriation 0.0545455
" eye 0.0026420
" eyes 0.0007184
" eyewash 0.1176471
" face 0.0003136
" factored 0.0434783
" fair-value 0.3333333
" fair-valued 0.4000000
" fait 0.0268456
" falls 0.0006680
" familiarised 0.0416667
" famous 0.0033557
" farm 0.0009662
" farm-to-table 0.1176471
" fast 0.0040942
" fast-track 0.1014493
" fateful 0.0208333
" fatigue 0.0212766
" fatwas 0.5000000
" favouring 0.0034130
" feel-good 0.2000000
" fellow 0.0001827
" fellowship 0.1153846
" feta-type 0.5555556
" fibre 0.0129870
" fiftieth 0.0185185
" fighter 0.0384615
" fighting 0.0003343
" financial 0.0000489
" financially 0.0062112
" financiarisation 0.6666667
" finanzia 0.2500000
" fine-tune 0.0408163
" finishes 0.0416667
" fire 0.0021097
" fire-lanes 0.3333333
" fire-wall 0.5000000
" fireplace 0.1111111
" first-come 0.2000000
" fit 0.0024793
" five 0.0001905
" flags 0.0020534
" flanking 0.0298507
" flat 0.0289855
" flat-rate 0.0227273
" flavour 0.0273973
" flaw 0.0219780
" flexicurity 0.1230769
